svm_type c_svc
kernel_type rbf
gamma 0.00048828125
nr_class 2
total_sv 46
rho 2.08218507858885
label 10 10000
nr_sv 23 23
SV
2048 1:0.74093 2:0.74624 3:-0.26221 
2048 1:-0.34715 2:0.94988 3:-0.066076 
2048 1:-0.18135 2:0.42106 3:-0.42864 
2048 1:-0.67876 2:1 3:0.11462 
2048 1:0.015544 2:0.29339 3:0.10618 
2048 1:-0.098446 2:0.41808 3:-0.49763 
2048 1:-0.36788 2:0.67391 3:-0.35066 
2048 1:0.0051813 2:0.45426 3:0.12195 
2048 1:0.036269 2:0.31678 3:-0.16414 
2048 1:0.12953 2:0.27988 3:-0.44364 
2048 1:0.26425 2:0.15407 3:-0.75234 
2048 1:0.18135 2:0.46014 3:-0.23933 
2048 1:0.036269 2:0.46196 3:-0.66176 
2048 1:0.69948 2:0.39852 3:0.003505 
2048 1:0.015544 2:0.29178 3:0.19389 
2048 1:-0.5544 2:0.80044 3:-0.18537 
2048 1:-0.10881 2:0.70884 3:-0.60085 
2048 1:-0.12953 2:0.45125 3:-0.15078 
2048 1:-0.12953 2:0.58902 3:-0.3222 
2048 1:-0.33679 2:0.40639 3:1 
322.6338149444037 1:-0.17098 2:0.60627 3:-0.81372 
2048 1:-0.1399 2:0.49313 3:0.0063711 
2048 1:-0.44041 2:0.52748 3:0.011788 
-2048 1:0.27461 2:0.51449 3:0.36929 
-2048 1:0.45078 2:0.32198 3:0.051743 
-1938.9023456757225 1:0.40933 2:0.72726 3:0.0348 
-2048 1:-0.27461 2:0.18149 3:-0.35005 
-2048 1:0.40933 2:0.031951 3:-0.034445 
-2048 1:0.21244 2:0.56384 3:-0.43149 
-2048 1:-0.11917 2:0.79044 3:0.17182 
-2048 1:0.41969 2:0.59562 3:-0.18589 
-2048 1:-0.51295 2:0.87944 3:-0.76089 
-2048 1:0.25389 2:0.54804 3:-0.48572 
-2048 1:-0.60622 2:0.15914 3:-0.56487 
-2048 1:-0.64767 2:0.48523 3:-0.353 
-2048 1:-0.17098 2:0.21842 3:-0.81694 
-2048 1:-0.1399 2:0.71826 3:0.54125 
-2048 1:-0.5544 2:0.89778 3:-0.043358 
-431.73146926868026 1:0.77202 2:0.6033 3:-0.47151 
-2048 1:0.067358 2:0.85443 3:0.010571 
-2048 1:0.26425 2:0.43671 3:0.26556 
-2048 1:0.32642 2:0.67983 3:-0.14041 
-2048 1:0.34715 2:0.96456 3:-0.49515 
-2048 1:-0.70984 2:0.17464 3:0.62854 
-2048 1:0.18135 2:0.53139 3:0.21155 
-2048 1:-0.53368 2:0.87903 3:-0.77892 
