svm_type c_svc
kernel_type rbf
gamma 0.0001220703125
nr_class 3
total_sv 67
rho -16.718405327076649 -2.14500937700531 14.554095811458048
label 1 10 1000
nr_sv 25 21 21
SV
15108.388876363855 32768 1:-0.46662 2:0.10452 3:-0.53165 4:-0.98901 5:0.21906 6:0.33691 7:-0.37321 8:-0.9972 9:0.61896 10:-0.90959 11:-0.56792 12:0.46907 
32768 0 1:-0.98908 2:0.61814 3:-0.11392 4:-0.90934 5:0.81291 6:-0.12727 7:-0.95221 8:-0.91947 9:0.40509 10:-0.96496 11:-0.92149 12:0.46313 
32768 0 1:-0.34463 2:0.27498 3:-0.56962 4:-0.40385 5:0.10797 6:-0.52563 7:-0.86611 8:-0.94855 9:0.0024292 10:-0.95068 11:-0.87139 12:0.22657 
4710.5334505397068 32768 1:0.10167 2:0.25864 3:0.012658 4:-0.87363 5:0.55557 6:0.06752 7:-0.83505 8:-0.97256 9:0.25378 10:-0.93127 11:-0.96528 12:0.4353 
32768 13446.355843948462 1:-0.99887 2:0.60949 3:-0.39241 4:-0.92857 5:0.34708 6:0.24905 7:-0.33431 8:-0.96568 9:0.25818 10:-0.7273 11:-0.79484 12:0.2295 
0 32768 1:-1 2:0.95702 3:0.59494 4:-0.92033 5:0.94017 6:0.15893 7:-0.21359 8:-0.99688 9:0.80433 10:-0.92288 11:-0.72116 12:0.74109 
32768 0 1:0.050829 2:0.91946 3:-0.16456 4:-0.99451 5:0.44049 6:-0.062632 7:-0.86865 8:-0.9986 9:0.58677 10:-0.95919 11:-0.97413 12:0.84693 
32768 6820.8684336203751 1:-0.99994 2:0.16161 3:-0.46835 4:-0.56319 5:0.69144 6:-0.6582 7:-0.71305 8:-0.99918 9:0.39097 10:-0.9758 11:-0.94933 12:0.61673 
0 22709.400802895649 1:-0.99876 2:0.51025 3:-0.59494 4:-0.8544 5:0.1893 6:0.29939 7:1 8:-1 9:0.52 10:-0.93666 11:-0.65404 12:-0.068966 
32768 0 1:1 2:-0.44566 3:-0.50633 4:-0.97802 5:0.4722 6:-0.45355 7:-0.92141 8:-0.96749 9:-0.65758 10:-0.74948 11:-0.95206 12:0.33438 
32768 32768 1:-0.79868 2:-0.035428 3:-0.62025 4:-0.91209 5:0.4241 6:0.025748 7:-0.92339 8:-1 9:0.17268 10:-0.81835 11:-0.83581 12:0.23751 
32768 32768 1:-0.68081 2:0.25708 3:-0.59494 4:-0.82692 5:0.54226 6:0.64327 7:-0.76029 8:-1 9:-0.2107 10:-0.897 11:-0.88885 12:0.68069 
0 32768 1:-1 2:0.81966 3:0.34177 4:-1 5:0.55779 6:-0.45585 7:-0.18818 8:-0.98089 9:0.86989 10:-0.97695 11:-0.87315 12:0.68425 
32768 0 1:0.35203 2:0.42107 3:0.075949 4:-0.94505 5:0.74271 6:0.18365 7:-0.8798 8:-0.92239 9:0.41115 10:-0.93926 11:-0.97662 12:0.21958 
32768 32768 1:0.33635 2:0.32611 3:-0.21519 4:-0.79396 5:0.60382 6:0.62955 7:-0.80325 8:-1 9:0.28189 10:-0.95332 11:-0.86389 12:0.368 
0 32768 1:-0.95465 2:0.10841 3:-0.27848 4:-1 5:0.39279 6:-0.27874 7:-0.5511 8:-0.99883 9:0.47929 10:-0.89434 11:-0.65044 12:0.40819 
32768 0 1:-0.23335 2:0.28339 3:0.21519 4:-1 5:0.23073 6:-0.43021 7:-0.9717 8:-0.96474 9:0.38893 10:-0.96355 11:-0.99174 12:0.13009 
32768 23324.481511684793 1:-0.49592 2:0.21177 3:-0.64557 4:-0.62637 5:0.56116 6:0.32528 7:-1 8:-0.99966 9:0.21509 10:-0.99598 11:-0.32175 12:0.28321 
3651.7871150003407 5315.3341487727548 1:-0.81945 2:0.41853 3:-0.13924 4:-0.88736 5:0.77137 6:0.23576 7:-0.84022 8:-0.11779 9:0.53939 10:-0.99892 11:-0.85523 12:0.42514 
19911.157562367513 31660.459722901094 1:0.38961 2:0.36839 3:-0.68354 4:0.27473 5:0.6471 6:-0.14719 7:-0.0703 8:-0.95816 9:0.37092 10:-0.83994 11:-0.9215 12:0.39509 
32768 32768 1:-0.94546 2:0.15726 3:-0.48101 4:-0.79396 5:0.25438 6:0.99247 7:-0.77609 8:-0.75381 9:0.21791 10:-0.80681 11:-0.69792 12:0.051072 
32768 0 1:-0.57438 2:0.1866 3:-0.44304 4:-0.28297 5:0.27141 6:-0.30994 7:-0.67052 8:-1 9:-0.063141 10:-0.9987 11:-0.70151 12:0.20656 
0 32768 1:-0.27733 2:0.67863 3:0.11392 4:1 5:0.61522 6:-0.033847 7:-0.89873 8:-0.88011 9:0.72202 10:-0.97586 11:-0.99142 12:0.56033 
0 32768 1:-0.97234 2:0.53804 3:0.025316 4:-0.71429 5:0.57884 6:-0.014917 7:-0.53087 8:-0.87269 9:-0.017544 10:-0.79317 11:-0.94137 12:0.52335 
0 3609.2639459492848 1:-0.99995 2:0.75016 3:0.29114 4:-0.96703 5:0.91163 6:-0.23647 7:-0.9676 8:-0.97108 9:0.92794 10:-0.92408 11:1 12:0.57046 
-2599.614157168523 0 1:0.34714 2:0.59822 3:0.1519 4:-0.93407 5:-1 6:-0.98144 7:-0.58018 8:-0.93936 9:0.32571 10:-0.82462 11:-0.97602 12:0.61746 
-31107.489126943139 32768 1:0.0072652 2:0.83011 3:-0.44304 4:-0.11264 5:0.52728 6:0.25326 7:-0.97211 8:-0.99895 9:0.72958 10:-0.95911 11:-1 12:0.67681 
-32768 11216.848363804374 1:0.097347 2:0.25861 3:-0.39241 4:-0.98901 5:0.35021 6:0.36674 7:-0.79703 8:-0.84333 9:0.38579 10:-0.84687 11:-0.93789 12:0.4711 
-0 264.07812789376101 1:-0.87528 2:0.27219 3:-0.70886 4:-1 5:0.41823 6:-0.044947 7:-0.72003 8:1 9:-0.0078488 10:-0.84174 11:-0.99172 12:0.75886 
-15018.528511986449 0 1:-0.98245 2:0.37242 3:-0.64557 4:-0.8956 5:0.29112 6:0.19073 7:-0.9415 8:-1 9:0.34855 10:-0.99346 11:-0.35694 12:0.38849 
-21685.530906854361 0 1:-0.022935 2:0.57318 3:-0.32911 4:-0.90934 5:0.78624 6:0.26674 7:-0.97664 8:-1 9:0.49217 10:-0.95257 11:-0.98479 12:0.18952 
-32768 0 1:0.20189 2:0.39091 3:-0.3038 4:-0.76099 5:0.47074 6:-0.35349 7:-0.76642 8:-1 9:0.1447 10:-0.9905 11:-0.78866 12:0.11983 
-21474.178104694882 32768 1:-0.93202 2:-0.009358 3:-0.51899 4:-0.51648 5:0.48613 6:0.18134 7:-0.79295 8:-0.99343 9:-0.023621 10:-0.74456 11:-0.93553 12:0.161 
-32768 32768 1:-0.80517 2:-0.043125 3:-0.36709 4:-0.90385 5:0.30182 6:0.38055 7:-0.81896 8:-0.94682 9:0.18083 10:-0.90934 11:-0.87325 12:0.34709 
-32768 29569.614853524108 1:-0.99611 2:0.16068 3:-0.49367 4:-0.75 5:0.38892 6:0.26257 7:-0.67503 8:-0.99947 9:0.0066875 10:-0.97863 11:-0.65933 12:0.087547 
-32768 32768 1:-0.99255 2:0.51889 3:-0.21519 4:-0.96978 5:0.34483 6:0.45035 7:-0.97213 8:-1 9:0.53146 10:-0.9575 11:-0.98337 12:0.46198 
-32768 0 1:-0.81493 2:0.25263 3:-0.3038 4:-0.69231 5:0.59904 6:-0.42487 7:-0.7022 8:-0.75413 9:-0.34965 10:-0.92761 11:-0.96715 12:0.076911 
-0 32768 1:-0.99871 2:0.60186 3:-0.44304 4:-0.10165 5:0.36079 6:0.32028 7:-0.85793 8:-1 9:0.046582 10:-0.85714 11:-0.9972 12:0.47819 
-32768 0 1:0.40355 2:0.0015584 3:-0.10127 4:-1 5:0.33286 6:-0.60247 7:-0.76248 8:-0.99782 9:-0.10341 10:-0.94436 11:-0.88473 12:0.18229 
-32768 32768 1:-0.49018 2:-0.43308 3:-0.59494 4:-0.82692 5:0.48397 6:-0.43049 7:-0.54785 8:-0.94216 9:0.32571 10:-0.88102 11:-0.69636 12:0.28959 
-32768 32768 1:-0.098634 2:0.11049 3:-0.44304 4:-0.27747 5:0.39766 6:0.032941 7:-0.70923 8:-0.85849 9:0.30323 10:-0.99926 11:-0.71003 12:0.33691 
-20971.188938489096 0 1:0.37214 2:0.72602 3:-0.51899 4:-1 5:0.23101 6:0.016874 7:-0.58844 8:-0.96377 9:0.50861 10:-0.87977 11:-0.9822 12:0.66927 
-32768 2155.1106493770476 1:-0.56423 2:0.71916 3:-0.32911 4:-0.92308 5:0.51601 6:0.70824 7:-0.87008 8:-1 9:0.04842 10:-0.90432 11:-0.83673 12:0.29736 
-27739.611807554047 0 1:-0.026417 2:0.63359 3:-0.62025 4:-0.98626 5:0.69704 6:-0.20882 7:-0.8171 8:-0.9901 9:0.54427 10:-0.93276 11:-0.9807 12:0.76402 
-32768 0 1:-0.46381 2:0.090481 3:-0.44304 4:-0.37637 5:0.57449 6:-0.22683 7:-0.97406 8:-1 9:-0.48571 10:-0.78784 11:-0.85557 12:0.368 
-1089.725450580913 0 1:-0.28993 2:-0.60047 3:-0.46835 4:-1 5:0.3662 6:-0.084552 7:-0.76813 8:-0.63378 9:0.11614 10:-0.95365 11:-0.93473 12:0.27623 
-32768 -0 1:-0.7635 2:0.45756 3:-0.44304 4:-0.41209 5:0.33907 6:0.0047942 7:-0.33392 8:-1 9:0.59351 10:-0.9771 11:-0.94117 12:0.44248 
-0 -17558.956762752663 1:-0.83115 2:0.41681 3:-0.53165 4:0.86538 5:0.60473 6:0.45667 7:-0.83724 8:-1 9:-0.073092 10:-0.89649 11:-0.95828 12:0.35471 
-32768 -25961.911499068614 1:-0.6142 2:0.67022 3:0.088608 4:-0.99451 5:0.15214 6:-0.16509 7:-0.87587 8:-0.97892 9:0.51453 10:-0.26589 11:-0.97034 12:0.3338 
-32768 -0 1:0.35005 2:0.32898 3:-0.31646 4:-1 5:0.54369 6:0.60949 7:-0.18096 8:-1 9:0.6102 10:-0.8326 11:-0.95506 12:0.57062 
-32768 -0 1:-0.44275 2:0.018323 3:-0.3038 4:-0.51374 5:0.49209 6:0.22627 7:-0.56187 8:-0.99118 9:0.13846 10:-0.9851 11:-0.77416 12:0.57868 
-32768 -28772.135923874986 1:-0.08175 2:0.43585 3:-0.34177 4:-0.087912 5:0.42545 6:-0.027079 7:-0.51425 8:-1 9:0.38739 10:-0.99991 11:-0.69385 12:0.41898 
-12239.755183632471 -0 1:-0.8908 2:-0.11014 3:-0.088608 4:-1 5:0.28727 6:0.097565 7:-0.65312 8:-1 9:0.12371 10:-0.93539 11:-0.88591 12:0.74647 
-217.15281419665862 -0 1:-0.978 2:0.31921 3:-0.27848 4:0.28297 5:0.67898 6:0.51182 7:-0.79267 8:-1 9:-0.1668 10:-0.88016 11:-0.9111 12:0.13736 
-32768 -0 1:-1 2:0.57749 3:-0.1519 4:-1 5:0.68796 6:0.1683 7:-0.4906 8:-0.70131 9:0.64228 10:-0.96107 11:-0.31488 12:0.70698 
-30596.577345102312 -0 1:-0.84905 2:-0.38266 3:-0.16456 4:-0.98901 5:0.67631 6:-0.20181 7:-0.85878 8:-1 9:0.61818 10:-0.96759 11:-0.80076 12:0.32788 
-32768 -0 1:-0.99908 2:0.20739 3:-0.72152 4:0.68681 5:0.71758 6:-0.32552 7:0.98269 8:-1 9:0.41233 10:-0.84939 11:-0.88132 12:0.22922 
-32768 -32768 1:-0.99994 2:0.72295 3:-0.56962 4:-1 5:0.65839 6:0.54796 7:-0.5311 8:-0.99458 9:-0.026013 10:-0.9121 11:-0.89287 12:0.62504 
-0 -7792.0838830180892 1:-0.99438 2:-0.19467 3:-0.4557 4:-0.8956 5:0.71172 6:0.19206 7:-0.9158 8:-0.64537 9:0.65095 10:-0.92564 11:-0.90889 12:0.59849 
-32768 -30085.040913158511 1:0.11515 2:0.63899 3:0.075949 4:-0.53846 5:0.63053 6:0.37002 7:-0.93415 8:-1 9:0.38884 10:-0.96607 11:-0.57609 12:0.15039 
-5366.0350698013808 -6310.8459610836171 1:-0.88211 2:0.096838 3:-0.63291 4:-0.56593 5:0.39076 6:0.42006 7:-0.73184 8:-0.94555 9:0.12327 10:-0.75142 11:-0.60162 12:0.72216 
-32768 -0 1:0.020995 2:1 3:1 4:-0.97253 5:0.82139 6:-0.15863 7:-0.92269 8:-0.99637 9:0.60105 10:-0.98338 11:-0.96206 12:1 
-25698.643997039591 -32768 1:-0.9929 2:0.60691 3:-0.34177 4:-0.18956 5:0.71977 6:0.14687 7:-0.93701 8:-0.88215 9:0.56926 10:-0.97895 11:-0.94601 12:0.63597 
-0 -32768 1:-0.36634 2:-1 3:-0.40506 4:-0.98901 5:0.37077 6:0.025991 7:-0.7637 8:-0.96067 9:0.16522 10:-0.90838 11:-0.95439 12:0.50951 
-32768 -0 1:-0.91294 2:0.072512 3:-0.37975 4:-0.97802 5:0.28249 6:1 7:-0.46312 8:-0.88258 9:0.054686 10:-0.97573 11:-0.69045 12:0.10234 
-0 -25028.677051642815 1:-0.92358 2:-0.37523 3:-0.65823 4:-0.56319 5:0.33639 6:0.21327 7:-0.35893 8:-0.86529 9:0.13796 10:-0.90206 11:-0.97863 12:0.46661 
-32768 -32768 1:-0.93381 2:-0.053543 3:-0.59494 4:-0.78846 5:0.13663 6:0.35392 7:-0.75121 8:-0.98214 9:0.352 10:-0.80435 11:-0.62868 12:-0.1101 
