svm_type c_svc
kernel_type rbf
gamma 0.001953125
nr_class 2
total_sv 23
rho -39.916795884511956
label 1000 10000
nr_sv 12 11
SV
4584.9123892459265 1:-0.13953 2:-0.34705 3:-0.38592 4:-0.3346 5:0.55208 6:-0.69835 7:-0.4108 
726.69447450659766 1:0.26149 2:0.66593 3:-0.80543 4:-0.013395 5:0.44446 6:0.034435 7:1 
1811.6073814186723 1:0.29463 2:-1 3:-0.99421 4:-1 5:0.36167 6:-0.99449 7:0.74765 
8192 1:0.11248 2:-0.7737 3:0.33196 4:0.4211 5:0.4046 6:-0.82782 7:0.5544 
3757.0542044190729 1:-0.87404 2:-0.54531 3:-0.015853 4:0.71026 5:0.077472 6:-0.96832 7:-0.60821 
8192 1:0.40194 2:-0.18951 3:-0.11173 4:0.11456 5:-0.37292 6:-0.98623 7:-0.97287 
8192 1:-0.63899 2:0.020223 3:-0.99141 4:0.12688 5:-0.23931 6:-0.71488 7:-0.39974 
8192 1:0.063361 2:0.2632 3:-0.66243 4:0.64555 5:0.45874 6:-0.86915 7:0.68446 
8192 1:0.43209 2:-0.68884 3:0.13664 4:0.098083 5:0.057454 6:0.37741 7:-0.87996 
5527.5110403150666 1:-0.76103 2:-0.16419 3:-0.13218 4:-0.15527 5:-0.64463 6:-1 7:-0.098812 
8192 1:0.24355 2:-0.49129 3:-0.40028 4:0.7461 5:-0.25284 6:-0.95868 7:-0.87754 
3954.4262935033221 1:0.19297 2:-0.0069823 3:-0.8119 4:0.027962 5:-0.31924 6:0.64463 7:-0.88111 
-1260.782771078967 1:0.19213 2:-0.074397 3:0.10903 4:0.40224 5:-0.40239 6:-0.18871 7:-0.19518 
-8192 1:-0.32245 2:-0.35113 3:0.02889 4:0.27429 5:0.21697 6:-1 7:-0.58585 
-8192 1:-0.47243 2:-0.53302 3:-1 4:-0.19205 5:-0.98805 6:-0.9876 7:-0.55944 
-3285.0929225982309 1:-0.052612 2:0.51051 3:-0.092519 4:0.11108 5:0.019089 6:-0.69008 7:-0.18805 
-8192 1:-0.31806 2:0.13606 3:0.011841 4:0.72923 5:0.40668 6:-0.64876 7:-0.95932 
-8192 1:0.60455 2:-0.36748 3:0.081143 4:0.17906 5:0.26033 6:-0.28375 7:0.37173 
-8192 1:0.17315 2:-0.75617 3:-0.5592 4:-0.090813 5:-0.18446 6:-0.80854 7:0.2367 
-8192 1:0.05882 2:-0.5225 3:-0.59313 4:0.20153 5:0.42149 6:-0.49174 7:-0.99437 
-4387.7551023782171 1:0.37922 2:0.54516 3:-0.98901 4:0.29138 5:0.95874 6:-0.53444 7:0.51613 
-8192 1:0.12096 2:-0.36704 3:0.25065 4:0.42413 5:-0.4467 6:-0.26446 7:-0.49934 
-3236.5749873532545 1:-0.37803 2:-0.69678 3:-0.96773 4:0.5986 5:-0.6413 6:-0.99036 7:0.39247 
