svm_type c_svc
kernel_type rbf
gamma 0.0078125
nr_class 2
total_sv 39
rho 5.841932054804297
label 1 1000
nr_sv 19 20
SV
512 1:-0.8523 2:-0.92013 3:0.50321 4:0.78837 5:-0.53999 
249.61347367638842 1:0.23563 2:-0.77463 3:0.80543 4:0.93874 5:-0.20536 
512 1:-0.83337 2:-0.84929 3:0.055794 4:0.56407 5:-0.17122 
512 1:-0.29393 2:-0.7987 3:0.48295 4:0.82153 5:0.13936 
512 1:0.28867 2:0.50666 3:0.39542 4:1 5:-0.16346 
512 1:-0.012316 2:-0.97014 3:0.59701 4:0.79152 5:-0.018306 
512 1:-0.638 2:-0.92376 3:0.70289 4:0.90941 5:-0.65323 
512 1:0.059579 2:-0.98225 3:0.71427 4:0.88376 5:-0.26679 
512 1:0.31188 2:-0.72097 3:0.20212 4:0.70555 5:-0.50588 
512 1:-0.13125 2:-1 3:0.7066 4:0.92472 5:-0.070315 
512 1:-0.091243 2:-0.97154 3:-0.43815 4:0.86172 5:-0.10476 
512 1:0.14104 2:-0.96451 3:0.62382 4:1 5:-0.13472 
512 1:-0.11302 2:-0.97048 3:0.5928 4:0.68342 5:-0.069225 
512 1:-0.50228 2:-0.94779 3:0.4143 4:0.0063492 5:-0.047476 
381.63550833893208 1:-0.53472 2:-0.96898 3:0.4941 4:-1 5:-0.23211 
512 1:0.20827 2:-0.3921 3:0.60284 4:0.76713 5:-0.017477 
512 1:-0.10759 2:-0.99146 3:0.44584 4:0.26984 5:-0.48136 
512 1:0.15618 2:-0.74077 3:0.67113 4:1 5:-0.38862 
512 1:0.086135 2:-0.94999 3:0.36411 4:0.59879 5:-0.35459 
-512 1:-0.24989 2:-0.71495 3:0.4584 4:0.75439 5:-0.0054177 
-315.72809718766786 1:-0.083255 2:-0.84515 3:0.21589 4:0.60608 5:1 
-155.11865366835218 1:0.25637 2:0.42808 3:0.33678 4:0.85714 5:-0.59148 
-334.14057348950615 1:-0.24353 2:-0.61283 3:0.1325 4:0.67898 5:-0.014825 
-512 1:-0.58449 2:-0.96919 3:0.33702 4:0.48169 5:0.086008 
-512 1:0.039304 2:-0.74668 3:0.29721 4:0.79833 5:-0.43986 
-512 1:0.70273 2:-0.90053 3:0.57894 4:0.76367 5:-0.07932 
-512 1:-0.63821 2:-0.93589 3:0.44144 4:0.80533 5:-0.4521 
-512 1:0.36116 2:-0.97859 3:0.78656 4:0.87555 5:-0.41263 
-512 1:-0.55258 2:-0.61576 3:0.65909 4:0.86226 5:-0.77495 
-512 1:-0.249 2:-0.88608 3:0.39238 4:0.24387 5:0.47418 
-512 1:-0.53898 2:-0.80015 3:0.37015 4:0.72578 5:-0.85463 
-512 1:0.47244 2:-0.82464 3:0.78357 4:0.75824 5:-0.68769 
-351.09607807224302 1:0.31122 2:-0.92127 3:-1 4:0.95426 5:-0.55699 
-512 1:-0.6826 2:-0.94139 3:0.61689 4:0.88551 5:-0.53668 
-512 1:-0.2676 2:-0.72418 3:0.47722 4:0.66667 5:-0.26899 
-499.16557959755187 1:-0.96686 2:-0.9986 3:1 4:0.91931 5:-0.28742 
-512 1:0.45118 2:-0.85302 3:0.63557 4:-0.2 5:0.15113 
-512 1:0.089128 2:-0.28534 3:0.54385 4:0.84612 5:0.18543 
-512 1:-0.33777 2:-0.94319 3:0.24584 4:0.50303 5:-0.20104 
