svm_type c_svc
kernel_type rbf
gamma 0.0078125
nr_class 120
total_sv 132
rho 0.99993963912129402 0.99987607914954424 0 0 0 0 0.99973647575825453 0 0 0 0 0 0 0 0 0 0 0 0 0 0 0 0.99989136587828398 0 0 0 0 0 0 0 0 0 0 0.99922325927764177 0 0 0 0 0 0 0 0 0 0 0 0 0.99993295501917601 0 0 0 0.99904386140406132 0 0 0 0 1.0000368403270841 0 0 0 0 0 0 0 0 0 0 0 0 0 0.99988220725208521 0 0 0 0 0 0 0 0 0 0 0 0 0 0 0 0 0 0 0 0 0 0 0 0 0 0 0.99913118220865726 0 0 0 0 0 0 0 0 0 0 0 0 0 0 0 0.99802337028086185 0 0 0 0 0 0 0.00073304958641529083 -1.0000485358759761 -1.0000742012634873 -1.0000634277239442 -0.99997575674206018 1.0009447168558836 -0.9995367955416441 -0.99970027152448893 -0.99891259800642729 -0.99989303667098284 -0.99998334515839815 -0.99971188884228468 -0.99994338862597942 -1.0000863475725055 -0.99908312596380711 -0.99959954619407654 -0.99992203712463379 -1.000090042129159 -0.99972864147275686 -0.99987632408738136 -0.99960251618176699 0.00053576938807964325 -0.99997580610215664 -1.0000779889523983 -1.0001496598124504 -0.99981346260756254 -0.99967887718230486 -0.99952940549701452 -1.0001089489087462 -0.99944805260747671 -0.99922316428273916 -0.99972263071686029 -0.00050220359116792679 -0.99921935796737671 -0.99965303763747215 -0.99932933039963245 -0.99945627897977829 -1.0000002766028047 -0.99893785733729601 -0.99963106866925955 -0.99969471339136362 -1.0001308070495725 -0.99997793044894934 -0.9975185114890337 -0.99948649387806654 0.00048656295984983444 -0.99976267013698816 -0.99995123036205769 -0.99927325826138258 -0.00041259545832872391 -0.99968567676842213 -0.99952580314129591 -0.99938490334898233 -1.0001202505081892 0.00086204521358013153 -0.99961241241544485 -0.99961160961538553 -0.99997598212212324 -1.0000741025432944 -0.99989316891878843 -0.99974547605961561 -0.9996418496593833 -0.99904750101268291 -0.99921982269734144 -0.99923737347126007 -1.0000585475936532 -0.9999274518340826 -0.99935777019709349 0.00054356083273887634 -0.99926117341965437 -0.99981740955263376 -0.99937684740871191 -0.99975691828876734 -0.99980682879686356 -0.99992897547781467 -0.99997402541339397 -0.99999648332595825 -1.0000384515151381 -0.9993535540997982 -0.99991598539054394 -0.99939236789941788 -0.99786962661892176 -0.99972996674478054 -0.99931699968874454 -0.99893088825047016 -0.99972256645560265 -0.99955127295106649 -0.99912144336849451 -1.0000614821910858 -1.0000079767778516 -0.99935022369027138 -0.99938100297003984 -0.99825881328433752 -0.99799674469977617 -0.99696651101112366 0.00070256087929010391 -0.99830607790499926 -0.99910328071564436 -0.99880343675613403 -0.99886619951575994 -0.99770236667245626 -0.99888823181390762 -0.99843566492199898 -0.99855591915547848 -0.99848069995641708 -0.99698284734040499 -0.99893371574580669 -0.99891217425465584 -0.99869323242455721 -0.99838503357023001 -0.99873764161020517 0.00028346758335828781 -0.99900118261575699 -0.99819932598620653 -0.99871053919196129 -0.99912593979388475 -0.99918149039149284 -0.99826278910040855 -0.99950917158275843 -0.99957709573209286 -1.0003525335341692 -0.99921588227152824 0.9989703232422471 -1.000125702470541 -0.99944526795297861 -1.0000948933884501 -0.99913883954286575 -0.99938411917537451 -0.99979622848331928 -0.99988693557679653 -0.99956848844885826 -0.99985348898917437 -1.000296370126307 -0.99922430049628019 -0.9999016635119915 -0.99942116905003786 -0.99933572206646204 -0.99954439233988523 -0.00078444834798574448 -0.99946470279246569 -1.0001916838809848 -0.99993603024631739 -0.99942013248801231 -0.99953627120703459 -0.9985007019713521 -0.99968718085438013 -0.99972068425267935 -0.99913179129362106 -0.99969673622399569 -0.0010245516896247864 -0.99846442136913538 -0.99934384040534496 -1.0002310732379556 -0.99872286431491375 -0.99953565839678049 -0.99996335618197918 -0.9994493443518877 -0.99954496696591377 -1.0003722254186869 -1.0000246111303568 -0.99911461211740971 -0.99904015101492405 -0.00033827032893896103 -0.9997166246175766 -1.0000721709802747 -0.9997854195535183 -0.00081291981041431427 -0.99982007313519716 -0.99965366721153259 -0.99890429992228746 -1.000031198374927 0.00030594319105148315 -1.0001967949792743 -1.0001868791878223 -0.99931643530726433 -0.99968246649950743 -1.0001720236614347 -1.0001447452232242 -0.99931422621011734 -1.0001563839614391 -0.99971557501703501 -0.99973812140524387 -0.99986809492111206 -1.0000306190922856 -0.99990582466125488 -0.00058909785002470016 -0.99911970552057028 -1.0003060633316636 -0.99865583889186382 -0.99974056612700224 -1.0001022694632411 -1.0001590382307768 -0.99946486856788397 -0.99956651404500008 -0.99965652823448181 -1.0001141130924225 -0.99989260267466307 -0.99948796909302473 -0.99979864805936813 -1.0002603298053145 -0.99991681147366762 -0.99975868500769138 -0.99954993836581707 -0.99966848269104958 -1.0001981966197491 -0.99988604430109262 -1.0002641631290317 -0.99973999243229628 -0.99968522414565086 -1.0002956837415695 -1.0000442443415523 -0.99937918782234192 -0.00057832244783639908 -1.0001477636396885 -0.99983774218708277 -0.99993959534913301 -1.0000805063173175 -1.000055693089962 -0.99989132769405842 -1.0000398205593228 -1.0001101233065128 -0.99983256310224533 -0.99912072904407978 -0.99930360727012157 -0.99970828089863062 -0.99935849849134684 -1.0002304455265403 -0.99954028893262148 -0.00068686343729496002 -1.0002761008217931 -1.0001687398180366 -0.99860078748315573 -0.99958070646971464 -1.0001798560842872 -0.99952949490398169 0 0 0 1.0001297146081924 0 0 0 0 0 0 0 0 0 0 0 0 0 0 0 0.99974580574780703 0 0 0 0 0 0 0 0 0 0 0.99967549741268158 0 0 0 0 0 0 0 0 0 0 0 0 0.99960406962782145 0 0 0 0.99966403096914291 0 0 0 0 1.0002280781045556 0 0 0 0 0 0 0 0 0 0 0 0 0 0.9997851150110364 0 0 0 0 0 0 0 0 0 0 0 0 0 0 0 0 0 0 0 0 0 0 0 0 0 0 0.99817076977342367 0 0 0 0 0 0 0 0 0 0 0 0 0 0 0 0.99816475249826908 0 0 0 0 0 0 0 0 1.0001940988004208 0 0 0 0 0 0 0 0 0 0 0 0 0 0 0 0.99976147711277008 0 0 0 0 0 0 0 0 0 0 0.9997806902974844 0 0 0 0 0 0 0 0 0 0 0 0 0.9998277211561799 0 0 0 0.99955867230892181 0 0 0 0 1.0003232574090362 0 0 0 0 0 0 0 0 0 0 0 0 0 0.9997862046584487 0 0 0 0 0 0 0 0 0 0 0 0 0 0 0 0 0 0 0 0 0 0 0 0 0 0 0.99823226220905781 0 0 0 0 0 0 0 0 0 0 0 0 0 0 0 0.99815657828003168 0 0 0 0 0 0 0 1.0003289319574833 0 0 0 0 0 0 0 0 0 0 0 0 0 0 0 0.99990226700901985 0 0 0 0 0 0 0 0 0 0 0.99976826272904873 0 0 0 0 0 0 0 0 0 0 0 0 0.99986745975911617 0 0 0 0.99985997565090656 0 0 0 0 1.0005274573341012 0 0 0 0 0 0 0 0 0 0 0 0 0 1.000246200710535 0 0 0 0 0 0 0 0 0 0 0 0 0 0 0 0 0 0 0 0 0 0 0 0 0 0 0.99883537366986275 0 0 0 0 0 0 0 0 0 0 0 0 0 0 0 0.99907921254634857 0 0 0 0 0 0 1.0000789063051343 0 0 0 0 0 0 0 0 0 0 0 0 0 0 0 0.99927657563239336 0 0 0 0 0 0 0 0 0 0 0.99932221043854952 0 0 0 0 0 0 0 0 0 0 0 0 0.99960403330624104 0 0 0 0.99942590482532978 0 0 0 0 1.0001081740483642 0 0 0 0 0 0 0 0 0 0 0 0 0 0.99948797468096018 0 0 0 0 0 0 0 0 0 0 0 0 0 0 0 0 0 0 0 0 0 0 0 0 0 0 0.99796975031495094 0 0 0 0 0 0 0 0 0 0 0 0 0 0 0 0.99772744346410036 0 0 0 0 0 0 -1.0000738827511668 -0.99981451127678156 -1.0003722552210093 -1.0000681672245264 -1.0001382203772664 -1.0006090428777625 -1.0000914074480534 -0.99998780619353056 -0.99981670826673508 -1.0002783266827464 -1.0000904658809304 -1.0002711489796638 -1.0004548833185731 -0.99985142610967159 -1.0004676298867998 -0.99959142319858074 -1.0000450471416116 -1.0002796826884151 -1.0002850126475096 -0.99991721659898758 -1.0004679825188678 -0.99985901452600956 -1.0000714054331183 -1.0001416433198833 -0.99961345922201872 -1.0002772910520434 -1.0010679736733437 -0.99993210006505251 -0.99975168239325285 -1.0004471484571695 -0.99939114693552256 -1.0001689391210675 -1.0003210501745343 -1.0004630503892458 -1.00028670013365 -1.0004749372601509 -1.0007661220525383 -0.99945588689297438 -1.0003603035584092 -0.99962186068296432 -1.0006019127137302 -0.99982100911438465 -1.0006361212581396 -1.0014353729784489 -1.0003574324766522 -1.0006052099273763 -0.9998618122190237 -1.0002346029505134 -1.0006004320457578 -1.0006329569634238 -1.0004239254839595 -1.0001787142828107 -1.000019995495677 -1.0006896742198685 -1.0008071817032236 -0.99996982794255018 -0.99998440686613321 -0.99999405350536108 -1.0005939938127995 -1.0000513009727001 -1.000506579875946 -1.0002207290381193 -1.000456859357655 -0.99971621298801594 -1.0009455920015313 -1.0000878889113665 -1.0004004335583891 -1.0003126198425889 -1.0002651289105415 -0.99986868910491467 -0.99998260755091906 -0.9999697171151638 -1.0007887091487646 -1.0003345422446728 -1.0000622555892213 -0.9998398944735527 -1.0004031201824546 -1.0006095759006939 -1.0000629099085927 -0.99950126651674509 -1.0006266535567094 -1.0002071876078844 -1.0001000398769975 -1.0007907187209937 -1.0006798505783081 -1.0005532037466764 -0.99993620812892903 -0.99959165416657925 -0.99888815265148878 -0.99774662032723427 -0.99982235860079527 -0.99920292012393475 -0.99957130120759563 -0.99968937601639019 -0.99927105754613876 -0.9988001948222518 -0.99978493320525608 -0.99959847517311573 -0.99963117111474276 -0.99855147022753954 -0.99921646248549223 -0.99969406238130665 -0.99944581435381286 -0.99954179581254721 -0.99944309313194868 -0.99812433775514364 -0.99960997290166886 -0.99907522276043892 -0.99892947822809219 -0.99918827693909407 -0.99916068091988564 -0.99925209817202953 0 0 0 0 0 0 0 0 0 0 0 0 0 0 0.99905949924141169 0 0 0 0 0 0 0 0 0 0 0.9986087204888463 0 0 0 0 0 0 0 0 0 0 0 0 0.99896261375397444 0 0 0 0.99938979558646679 0 0 0 0 0.99995680246502161 0 0 0 0 0 0 0 0 0 0 0 0 0 0.99976707901805639 0 0 0 0 0 0 0 0 0 0 0 0 0 0 0 0 0 0 0 0 0 0 0 0 0 0 0.99881219211965799 0 0 0 0 0 0 0 0 0 0 0 0 0 0 0 0.99887939542531967 0 0 0 0 0 0 0 0 0 0 0 0 0 0 0 0 0 0 0 0.99894234072417021 0 0 0 0 0 0 0 0 0 0 0.99892012402415276 0 0 0 0 0 0 0 0 0 0 0 0 0.99940383806824684 0 0 0 0.99932271987199783 0 0 0 0 0.99979141168296337 0 0 0 0 0 0 0 0 0 0 0 0 0 0.99965800531208515 0 0 0 0 0 0 0 0 0 0 0 0 0 0 0 0 0 0 0 0 0 0 0 0 0 0 0.9984141793102026 0 0 0 0 0 0 0 0 0 0 0 0 0 0 0 0.99812948517501354 0 0 0 0 0 0 0 0 0 0 0 0 0 0 0 0 0 0 0.99803924188017845 0 0 0 0 0 0 0 0 0 0 0.99807865917682648 0 0 0 0 0 0 0 0 0 0 0 0 0.99869037326425314 0 0 0 0.99919698853045702 0 0 0 0 0.99966495949774981 0 0 0 0 0 0 0 0 0 0 0 0 0 0.99930700566619635 0 0 0 0 0 0 0 0 0 0 0 0 0 0 0 0 0 0 0 0 0 0 0 0 0 0 0.9983826382085681 0 0 0 0 0 0 0 0 0 0 0 0 0 0 0 0.99909613467752934 0 0 0 0 0 0 0 0 0 0 0 0 0 0 0 0 0 0.99925735872238874 0 0 0 0 0 0 0 0 0 0 0.99929154850542545 0 0 0 0 0 0 0 0 0 0 0 0 0.9994313009083271 0 0 0 0.99946381151676178 0 0 0 0 0.99991776328533888 0 0 0 0 0 0 0 0 0 0 0 0 0 0.99944603443145752 0 0 0 0 0 0 0 0 0 0 0 0 0 0 0 0 0 0 0 0 0 0 0 0 0 0 0.99794577807188034 0 0 0 0 0 0 0 0 0 0 0 0 0 0 0 0.9977177120745182 0 0 0 0 0 0 0 0 0 0 0 0 0 0 0 0 0.99945680610835552 0 0 0 0 0 0 0 0 0 0 0.99950980581343174 0 0 0 0 0 0 0 0 0 0 0 0 0.99948717933148146 0 0 0 0.99970405548810959 0 0 0 0 1.0000955630093813 0 0 0 0 0 0 0 0 0 0 0 0 0 0.99961905833333731 0 0 0 0 0 0 0 0 0 0 0 0 0 0 0 0 0 0 0 0 0 0 0 0 0 0 0.99798532016575336 0 0 0 0 0 0 0 0 0 0 0 0 0 0 0 0.99801393784582615 0 0 0 0 0 0 0 0 0 0 0 0 0 0 0 0.99946759361773729 0 0 0 0 0 0 0 0 0 0 0.99936296232044697 0 0 0 0 0 0 0 0 0 0 0 0 0.99908866826444864 0 0 0 0.9996932577341795 0 0 0 0 1.000130157917738 0 0 0 0 0 0 0 0 0 0 0 0 0 0.99983185436576605 0 0 0 0 0 0 0 0 0 0 0 0 0 0 0 0 0 0 0 0 0 0 0 0 0 0 0.99821384996175766 0 0 0 0 0 0 0 0 0 0 0 0 0 0 0 0.99875004775822163 0 0 0 0 0 0 0 0 0 0 0 0 0 0 0.99957956653088331 0 0 0 0 0 0 0 0 0 0 0.99962184671312571 0 0 0 0 0 0 0 0 0 0 0 0 1.000116060487926 0 0 0 0.99949387740343809 0 0 0 0 1.0003983424976468 0 0 0 0 0 0 0 0 0 0 0 0 0 0.99989093095064163 0 0 0 0 0 0 0 0 0 0 0 0 0 0 0 0 0 0 0 0 0 0 0 0 0 0 0.99848793353885412 0 0 0 0 0 0 0 0 0 0 0 0 0 0 0 0.99848472606390715 0 0 0 0 0 0 0 0 0 0 0 0 0 0.99957314133644104 0 0 0 0 0 0 0 0 0 0 0.9995683953166008 0 0 0 0 0 0 0 0 0 0 0 0 0.99986566975712776 0 0 0 0.99958574399352074 0 0 0 0 1.0003109993413091 0 0 0 0 0 0 0 0 0 0 0 0 0 0.99980457592755556 0 0 0 0 0 0 0 0 0 0 0 0 0 0 0 0 0 0 0 0 0 0 0 0 0 0 0.99829610530287027 0 0 0 0 0 0 0 0 0 0 0 0 0 0 0 0.99815155006945133 0 0 0 0 0 0 0 0 0 0 0 0 0.99846915062516928 0 0 0 0 0 0 0 0 0 0 0.99821571912616491 0 0 0 0 0 0 0 0 0 0 0 0 0.99860822129994631 0 0 0 0.99917261116206646 0 0 0 0 0.99976467527449131 0 0 0 0 0 0 0 0 0 0 0 0 0 0.99953084625303745 0 0 0 0 0 0 0 0 0 0 0 0 0 0 0 0 0 0 0 0 0 0 0 0 0 0 0.9983877707272768 0 0 0 0 0 0 0 0 0 0 0 0 0 0 0 0.99888557381927967 0 0 0 0 0 0 0 0 0 0 0 0.99916040990501642 0 0 0 0 0 0 0 0 0 0 0.9991170447319746 0 0 0 0 0 0 0 0 0 0 0 0 0.99948467221111059 0 0 0 0.9995638532564044 0 0 0 0 1.0001818798482418 0 0 0 0 0 0 0 0 0 0 0 0 0 1.0000537568703294 0 0 0 0 0 0 0 0 0 0 0 0 0 0 0 0 0 0 0 0 0 0 0 0 0 0 0.99877128750085831 0 0 0 0 0 0 0 0 0 0 0 0 0 0 0 0.99917705543339252 0 0 0 0 0 0 0 0 0 0 0.99927980545908213 0 0 0 0 0 0 0 0 0 0 0.99939263518899679 0 0 0 0 0 0 0 0 0 0 0 0 0.99952056724578142 0 0 0 0.99948033783584833 0 0 0 0 1.0000644372776151 0 0 0 0 0 0 0 0 0 0 0 0 0 0.9994628569111228 0 0 0 0 0 0 0 0 0 0 0 0 0 0 0 0 0 0 0 0 0 0 0 0 0 0 0.99786190874874592 0 0 0 0 0 0 0 0 0 0 0 0 0 0 0 0.99778531119227409 0 0 0 0 0 0 0 0 0 0.99949221312999725 0 0 0 0 0 0 0 0 0 0 0.9995350344106555 0 0 0 0 0 0 0 0 0 0 0 0 0.9996797489002347 0 0 0 0.9999281233176589 0 0 0 0 1.0003573866561055 0 0 0 0 0 0 0 0 0 0 0 0 0 1.0000093979761004 0 0 0 0 0 0 0 0 0 0 0 0 0 0 0 0 0 0 0 0 0 0 0 0 0 0 0.998436757363379 0 0 0 0 0 0 0 0 0 0 0 0 0 0 0 0.99863006547093391 0 0 0 0 0 0 0 0 1.0002441052347422 0 0 0 0 0 0 0 0 0 0 0.99989008624106646 0 0 0 0 0 0 0 0 0 0 0 0 0.99990271590650082 0 0 0 0.99888775963336229 0 0 0 0 1.0002339482307434 0 0 0 0 0 0 0 0 0 0 0 0 0 0.99973167758435011 0 0 0 0 0 0 0 0 0 0 0 0 0 0 0 0 0 0 0 0 0 0 0 0 0 0 0.99820281192660332 0 0 0 0 0 0 0 0 0 0 0 0 0 0 0 0.99791736621409655 0 0 0 0 0 0 0 0.99927865155041218 0 0 0 0 0 0 0 0 0 0 0.99932616669684649 0 0 0 0 0 0 0 0 0 0 0 0 0.99952901527285576 0 0 0 0.9996391125023365 0 0 0 0 1.0001333374530077 0 0 0 0 0 0 0 0 0 0 0 0 0 0.99961899220943451 0 0 0 0 0 0 0 0 0 0 0 0 0 0 0 0 0 0 0 0 0 0 0 0 0 0 0.99785983376204967 0 0 0 0 0 0 0 0 0 0 0 0 0 0 0 0.99800361506640911 0 0 0 0 0 0 1.000081461854279 0 0 0 0 0 0 0 0 0 0 0.99996197503060102 0 0 0 0 0 0 0 0 0 0 0 0 0.99954050872474909 0 0 0 0.99928086716681719 0 0 0 0 1.0001538526266813 0 0 0 0 0 0 0 0 0 0 0 0 0 0.99978876207023859 0 0 0 0 0 0 0 0 0 0 0 0 0 0 0 0 0 0 0 0 0 0 0 0 0 0 0.99791031051427126 0 0 0 0 0 0 0 0 0 0 0 0 0 0 0 0.99834395013749599 0 0 0 0 0 0 -0.99927499890327454 -0.99979869555681944 -0.99952912237495184 -0.99984424747526646 -1.0001235473901033 -0.99868745729327202 -0.9995036767795682 -0.99975571874529123 -0.99851302430033684 -0.99920183885842562 -0.00022554956376552582 -0.99957112688571215 -1.0002901051193476 -0.99853160884231329 -0.99921791441738605 -0.99971476197242737 -0.99798325262963772 -1.0000452902168036 -1.0002974309027195 -0.99965750798583031 -0.99968327768146992 -0.99683302268385887 -0.99991445057094097 -0.00015421397984027863 -1.0001826118677855 -0.99986360594630241 -0.99959483370184898 -0.00039464700967073441 -1.0003361981362104 -0.99987600278109312 -0.99986106250435114 -0.99984586890786886 5.5638141930103302e-05 -1.0001764250919223 -0.99950422067195177 -0.9996481966227293 -0.99978027399629354 -0.99984063021838665 -0.99947869963943958 -1.0001194160431623 -0.99853417091071606 -0.99856429360806942 -0.99944757018238306 -0.99957424122840166 -0.99935279693454504 -0.99865592271089554 -0.00071138422936201096 -1.000142440199852 -0.99961312580853701 -0.99981997534632683 -1.0003700787201524 -0.99915098212659359 -0.99938427750021219 -0.9997036037966609 -0.99941757973283529 -0.99952785670757294 -0.99970063101500273 -0.9992988184094429 -0.99994175136089325 -0.99838665500283241 -0.99917631316930056 -0.99969559814780951 -0.99887108895927668 -0.99948509316891432 -0.99994911719113588 -0.99840128421783447 -0.99964794144034386 -0.99969435948878527 -0.99964041449129581 -0.99971405789256096 -0.99866407085210085 -0.99827724974602461 -0.99731009546667337 0.00024810340255498886 -0.9986850805580616 -0.99887726735323668 -0.99939535185694695 -0.99850785452872515 -0.99823653232306242 -0.99866019375622272 -0.99884957913309336 -0.99781368859112263 -0.99887811299413443 -0.99618177581578493 -0.99891472235321999 -0.99886673595756292 -0.99914138298481703 -0.99764972738921642 -0.9992798725143075 -0.00025636982172727585 -0.99907487630844116 -0.99792152270674706 -0.99804895464330912 -0.99892312940210104 -0.99894189834594727 -0.99861503951251507 0 0 0 0 0 0 0 0 0 0.9993833601474762 0 0 0 0 0 0 0 0 0 0 0 0 0.99960904940962791 0 0 0 0.99966732878237963 0 0 0 0 1.0001439983025193 0 0 0 0 0 0 0 0 0 0 0 0 0 0.99958932772278786 0 0 0 0 0 0 0 0 0 0 0 0 0 0 0 0 0 0 0 0 0 0 0 0 0 0 0.99804428685456514 0 0 0 0 0 0 0 0 0 0 0 0 0 0 0 0.99804791249334812 0 0 0 0 0 0 0 0 0 0 0 0 0 0 0.99961209110915661 0 0 0 0 0 0 0 0 0 0 0 0 0.99967306200414896 0 0 0 0.99993109237402678 0 0 0 0 1.0004346752539277 0 0 0 0 0 0 0 0 0 0 0 0 0 1.0001791343092918 0 0 0 0 0 0 0 0 0 0 0 0 0 0 0 0 0 0 0 0 0 0 0 0 0 0 0.99874594435095787 0 0 0 0 0 0 0 0 0 0 0 0 0 0 0 0.99891198519617319 0 0 0 0 0 0 0 0 0 0 0 0 0 0.99952331837266684 0 0 0 0 0 0 0 0 0 0 0 0 0.99971522390842438 0 0 0 0.99994239583611488 0 0 0 0 1.000425036996603 0 0 0 0 0 0 0 0 0 0 0 0 0 1.0000398857519031 0 0 0 0 0 0 0 0 0 0 0 0 0 0 0 0 0 0 0 0 0 0 0 0 0 0 0.9985321257263422 0 0 0 0 0 0 0 0 0 0 0 0 0 0 0 0.99865310546010733 0 0 0 0 0 0 0 0 0 0 0 0 0.99977472983300686 0 0 0 0 0 0 0 0 0 0 0 0 1.0000547682866454 0 0 0 0.99923170916736126 0 0 0 0 1.0003943424671888 0 0 0 0 0 0 0 0 0 0 0 0 0 0.99970491975545883 0 0 0 0 0 0 0 0 0 0 0 0 0 0 0 0 0 0 0 0 0 0 0 0 0 0 0.99795827176421881 0 0 0 0 0 0 0 0 0 0 0 0 0 0 0 0.99801761098206043 0 0 0 0 0 0 0 0 0 0 0 0.99988463148474693 0 0 0 0 0 0 0 0 0 0 0 0 0.99989546090364456 0 0 0 0.99891144596040249 0 0 0 0 1.0002525206655264 0 0 0 0 0 0 0 0 0 0 0 0 0 0.99976949207484722 0 0 0 0 0 0 0 0 0 0 0 0 0 0 0 0 0 0 0 0 0 0 0 0 0 0 0.99822816904634237 0 0 0 0 0 0 0 0 0 0 0 0 0 0 0 0.99813603237271309 0 0 0 0 0 0 0 0 0 0 0.99874341767281294 0 0 0 0 0 0 0 0 0 0 0 0 0.99894070532172918 0 0 0 0.99875715281814337 0 0 0 0 0.99955154024064541 0 0 0 0 0 0 0 0 0 0 0 0 0 0.99880511686205864 0 0 0 0 0 0 0 0 0 0 0 0 0 0 0 0 0 0 0 0 0 0 0 0 0 0 0.99739219713956118 0 0 0 0 0 0 0 0 0 0 0 0 0 0 0 0.99691296089440584 0 0 0 0 0 0 0 0 0 0.99951467476785183 0 0 0 0 0 0 0 0 0 0 0 0 0.99977777618914843 0 0 0 0.99971169326454401 0 0 0 0 1.0002936339005828 0 0 0 0 0 0 0 0 0 0 0 0 0 0.99987591989338398 0 0 0 0 0 0 0 0 0 0 0 0 0 0 0 0 0 0 0 0 0 0 0 0 0 0 0.998397764749825 0 0 0 0 0 0 0 0 0 0 0 0 0 0 0 0.99830941576510668 0 0 0 0 0 0 0 0 0.99885551724582911 0 0 0 0 0 0 0 0 0 0 0 0 0.99904360808432102 0 0 0 0.99889967031776905 0 0 0 0 0.99960325844585896 0 0 0 0 0 0 0 0 0 0 0 0 0 0.99992360919713974 0 0 0 0 0 0 0 0 0 0 0 0 0 0 0 0 0 0 0 0 0 0 0 0 0 0 0.99879807885736227 0 0 0 0 0 0 0 0 0 0 0 0 0 0 0 0.99809507001191378 0 0 0 0 0 0 0 0.99864852894097567 0 0 0 0 0 0 0 0 0 0 0 0 0.99999882839620113 0 0 0 0.99898056779056787 0 0 0 0 1.0000950274989009 0 0 0 0 0 0 0 0 0 0 0 0 0 0.99933406990021467 0 0 0 0 0 0 0 0 0 0 0 0 0 0 0 0 0 0 0 0 0 0 0 0 0 0 0.99765494931489229 0 0 0 0 0 0 0 0 0 0 0 0 0 0 0 0.99778530653566122 0 0 0 0 0 0 0.99938884098082781 0 0 0 0 0 0 0 0 0 0 0 0 0.99959415569901466 0 0 0 0.99978982284665108 0 0 0 0 1.0001055868342519 0 0 0 0 0 0 0 0 0 0 0 0 0 0.99960643891245127 0 0 0 0 0 0 0 0 0 0 0 0 0 0 0 0 0 0 0 0 0 0 0 0 0 0 0.99797441903501749 0 0 0 0 0 0 0 0 0 0 0 0 0 0 0 0.99838865548372269 0 0 0 0 0 0 -0.99942163284868002 -0.99971043318510056 -0.99858750961720943 -0.99870086833834648 -0.99970549717545509 -0.99803099501878023 -0.99988719075918198 -0.99982596281915903 -0.99945975188165903 -0.999576011672616 -0.99674102943390608 -0.99948064610362053 0.00048328284174203873 -0.99990339204668999 -0.9991129906848073 -0.99946631863713264 0.00023404508829116821 -0.99960170406848192 -0.99969986826181412 -0.9996649706736207 -0.99985327292233706 0.00074866041541099548 -0.9997310834005475 -0.99863008316606283 -0.99964551255106926 -0.99973334558308125 -0.99919656477868557 -0.99941449519246817 -0.99993112590163946 -0.99791202135384083 -0.99859309103339911 -0.99917959235608578 -0.99956593289971352 -0.99945466779172421 -0.99870685860514641 0.0004297671839594841 -0.99902103748172522 -0.99955479614436626 -0.9996551526710391 -0.99975911248475313 -0.99918928369879723 -0.99895106814801693 -0.99945647548884153 -0.99943514820188284 -0.99941740836948156 -0.99944510124623775 -0.99937945138663054 -0.99927134066820145 -0.99762064032256603 -0.99917694460600615 -0.99960219487547874 -0.99785174615681171 -0.99864325486123562 -0.99983674194663763 -0.99803437199443579 -0.99958042241632938 -0.99951993674039841 -0.99946416541934013 -0.99926341883838177 -0.99829128943383694 -0.99798388499766588 -0.99667181074619293 0.00071594957262277603 -0.99842367600649595 -0.99887748528271914 -0.9988463269546628 -0.99805067665874958 -0.99734474904835224 -0.99792966060340405 -0.99869047664105892 -0.9979281397536397 -0.99867743533104658 -0.9962212098762393 -0.99885662086308002 -0.99874239321798086 -0.99888935219496489 -0.9976036362349987 -0.99898932315409184 0.00071009434759616852 -0.99835348408669233 -0.99723504297435284 -0.99786959681659937 -0.99882090650498867 -0.99843386374413967 -0.99840887356549501 0 0 0 0 0 0 0 0 0 0 0 0.99904513638466597 0 0 0 0.99828235246241093 0 0 0 0 0.99961075838655233 0 0 0 0 0 0 0 0 0 0 0 0 0 0.99888309463858604 0 0 0 0 0 0 0 0 0 0 0 0 0 0 0 0 0 0 0 0 0 0 0 0 0 0 0.99723036773502827 0 0 0 0 0 0 0 0 0 0 0 0 0 0 0 0.99698041006922722 0 0 0 0 0 0 0 0 0 0 0 0 0 0 0 0 0.99976514000445604 0 0 0 0.99865131359547377 0 0 0 0 1.0000100657343864 0 0 0 0 0 0 0 0 0 0 0 0 0 0.99959310982376337 0 0 0 0 0 0 0 0 0 0 0 0 0 0 0 0 0 0 0 0 0 0 0 0 0 0 0.99832057952880859 0 0 0 0 0 0 0 0 0 0 0 0 0 0 0 0.99767559487372637 0 0 0 0 0 0 0 0 0 0 0 0 0 0 0 0.99929479602724314 0 0 0 0.99949648603796959 0 0 0 0 1.0001150742173195 0 0 0 0 0 0 0 0 0 0 0 0 0 0.9997692396864295 0 0 0 0 0 0 0 0 0 0 0 0 0 0 0 0 0 0 0 0 0 0 0 0 0 0 0.99857061076909304 0 0 0 0 0 0 0 0 0 0 0 0 0 0 0 0.99918646458536386 0 0 0 0 0 0 0 0 0 0 0 0 0 0 0.99940061382949352 0 0 0 0.99814728833734989 0 0 0 0 0.99957990739494562 0 0 0 0 0 0 0 0 0 0 0 0 0 0.99907194636762142 0 0 0 0 0 0 0 0 0 0 0 0 0 0 0 0 0 0 0 0 0 0 0 0 0 0 0.99819561000913382 0 0 0 0 0 0 0 0 0 0 0 0 0 0 0 0.99688997864723206 0 0 0 0 0 0 0 0 0 0 0 0 0 0.99961002077907324 0 0 0 0.99973745178431273 0 0 0 0 1.0002351021394134 0 0 0 0 0 0 0 0 0 0 0 0 0 0.99975770525634289 0 0 0 0 0 0 0 0 0 0 0 0 0 0 0 0 0 0 0 0 0 0 0 0 0 0 0.99803995154798031 0 0 0 0 0 0 0 0 0 0 0 0 0 0 0 0.99816933926194906 0 0 0 0 0 0 0 0 0 0 0 0 0.99855432473123074 0 0 0 0.9993178891018033 0 0 0 0 0.99962373916059732 0 0 0 0 0 0 0 0 0 0 0 0 0 0.99932941887527704 0 0 0 0 0 0 0 0 0 0 0 0 0 0 0 0 0 0 0 0 0 0 0 0 0 0 0.99830463249236345 0 0 0 0 0 0 0 0 0 0 0 0 0 0 0 0.99904757551848888 0 0 0 0 0 0 0 0 0 0 0 0.99992254935204983 0 0 0 0.99911888223141432 0 0 0 0 1.0003423672169447 0 0 0 0 0 0 0 0 0 0 0 0 0 0.99985124636441469 0 0 0 0 0 0 0 0 0 0 0 0 0 0 0 0 0 0 0 0 0 0 0 0 0 0 0.99797525443136692 0 0 0 0 0 0 0 0 0 0 0 0 0 0 0 0.99818878807127476 0 0 0 0 0 0 0 0 0 0 0.99985261261463165 0 0 0 0.99885424505919218 0 0 0 0 1.0001454912126064 0 0 0 0 0 0 0 0 0 0 0 0 0 0.99975967966020107 0 0 0 0 0 0 0 0 0 0 0 0 0 0 0 0 0 0 0 0 0 0 0 0 0 0 0.9983594436198473 0 0 0 0 0 0 0 0 0 0 0 0 0 0 0 0.99800499249249697 0 0 0 0 0 0 0 0 0 0.99996788427233696 0 0 0 0.99984942376613617 0 0 0 0 1.0005564754828811 0 0 0 0 0 0 0 0 0 0 0 0 0 1.0002508815377951 0 0 0 0 0 0 0 0 0 0 0 0 0 0 0 0 0 0 0 0 0 0 0 0 0 0 0.99906056188046932 0 0 0 0 0 0 0 0 0 0 0 0 0 0 0 0.99903905298560858 0 0 0 0 0 0 0 0 0.99970560800284147 0 0 0 0.99978281930088997 0 0 0 0 1.0004549343138933 0 0 0 0 0 0 0 0 0 0 0 0 0 1.0001757880672812 0 0 0 0 0 0 0 0 0 0 0 0 0 0 0 0 0 0 0 0 0 0 0 0 0 0 0.99858371168375015 0 0 0 0 0 0 0 0 0 0 0 0 0 0 0 0.99885389301925898 0 0 0 0 0 0 0 0.99741119425743818 0 0 0 0.99811467342078686 0 0 0 0 0.99812936782836914 0 0 0 0 0 0 0 0 0 0 0 0 0 0.99823479913175106 0 0 0 0 0 0 0 0 0 0 0 0 0 0 0 0 0 0 0 0 0 0 0 0 0 0 0.99761524517089128 0 0 0 0 0 0 0 0 0 0 0 0 0 0 0 0.99821867235004902 0 0 0 0 0 0 0.99927457049489021 0 0 0 0.99873151443898678 0 0 0 0 0.99971858412027359 0 0 0 0 0 0 0 0 0 0 0 0 0 0.99952907674014568 0 0 0 0 0 0 0 0 0 0 0 0 0 0 0 0 0 0 0 0 0 0 0 0 0 0 0.99802953470498323 0 0 0 0 0 0 0 0 0 0 0 0 0 0 0 0.99761143885552883 0 0 0 0 0 0 -0.9998911265283823 -0.99972804822027683 -0.99900788068771362 -0.0010574562475085258 -0.99968960508704185 -0.99926711432635784 -0.99922591727226973 -0.99989968352019787 0.00024878419935703278 -0.99977642018347979 -0.99940654449164867 -0.99963003769516945 -0.9998497124761343 -0.99944825749844313 -0.99943756125867367 -0.99974506627768278 -0.99864407256245613 -0.99857324082404375 -0.99909170344471931 -0.99987285025417805 -0.99986345414072275 -0.99869701452553272 -0.00011300854384899139 -0.99931809585541487 -0.99956901930272579 -0.99928621109575033 -0.99989509116858244 -0.99938655365258455 -0.99958983063697815 -1.0001693814992905 -0.99986415728926659 -0.99984444770962 -0.99931475427001715 -0.99938588961958885 -1.0000577829778194 -0.99835129175335169 -0.99978996813297272 -0.99930131435394287 -0.99851127807050943 -0.9995810454711318 -0.99947651196271181 -0.99880157690495253 -0.99961344804614782 -0.99995634704828262 -0.99905961379408836 -0.99907818995416164 -0.9985881494358182 -0.99825497344136238 -0.99710081424564123 -2.6911497116088867e-05 -0.99868307821452618 -0.99912377446889877 -0.99899919889867306 -0.99879392236471176 -0.99774430692195892 -0.99897540733218193 -0.99839251581579447 -0.99838930275291204 -0.99874492082744837 -0.99624816235154867 -0.99884166102856398 -0.99862248171120882 -0.99902445171028376 -0.99805634282529354 -0.99890840426087379 0.00015783496201038361 -0.99888976570218801 -0.99821023177355528 -0.99828515108674765 -0.99881983269006014 -0.99901248887181282 -0.99904821254312992 0 0 0.99914808571338654 0 0 0 0 1.0003490755334496 0 0 0 0 0 0 0 0 0 0 0 0 0 0.99994857423007488 0 0 0 0 0 0 0 0 0 0 0 0 0 0 0 0 0 0 0 0 0 0 0 0 0 0 0.99836420174688101 0 0 0 0 0 0 0 0 0 0 0 0 0 0 0 0.99839724786579609 0 0 0 0 0 0 0 0.99923925753682852 0 0 0 0 1.0000517824664712 0 0 0 0 0 0 0 0 0 0 0 0 0 1.000147545710206 0 0 0 0 0 0 0 0 0 0 0 0 0 0 0 0 0 0 0 0 0 0 0 0 0 0 0.99932647123932838 0 0 0 0 0 0 0 0 0 0 0 0 0 0 0 0.99839530605822802 0 0 0 0 0 0 0.99927850067615509 0 0 0 0 0.99997139908373356 0 0 0 0 0 0 0 0 0 0 0 0 0 0.99966882728040218 0 0 0 0 0 0 0 0 0 0 0 0 0 0 0 0 0 0 0 0 0 0 0 0 0 0 0.9979824423789978 0 0 0 0 0 0 0 0 0 0 0 0 0 0 0 0.99883933924138546 0 0 0 0 0 0 -0.99886551313102245 -0.99931002501398325 -0.99888850376009941 -0.99991094786673784 0.0011544926092028618 -0.9991382984444499 -0.99898900371044874 -0.99953963235020638 -0.99964930769056082 -0.99946679547429085 -0.99980840738862753 -0.99890574812889099 -0.99888819642364979 -0.99956834875047207 -0.9990908820182085 -0.99961018934845924 -0.99991925247013569 -0.99969372060149908 0.0011032372713088989 -0.99816065095365047 -0.99984840862452984 -0.99867390003055334 -0.99893785640597343 -0.99982480332255363 -0.99952106364071369 -0.99907254055142403 -0.99950857367366552 -0.99953612592071295 -0.99926231615245342 -0.99999777879565954 -0.99836756847798824 -0.99768387619405985 -0.99957424402236938 -0.99935998674482107 -0.99843159411102533 -0.99881576932966709 -0.99936074297875166 -0.99903690535575151 -0.99988494161516428 -0.99958389718085527 -0.99928813148289919 -0.99907678551971912 -0.99806652404367924 -0.99765140935778618 -0.99685416091233492 0.00052665267139673233 -0.99812551774084568 -0.99875128734856844 -0.99807414226233959 -0.9985425528138876 -0.99728940520435572 -0.99817493464797735 -0.99843113496899605 -0.99882580805569887 -0.99805147107690573 -0.99768808856606483 -0.9984884038567543 -0.99871590081602335 -0.99805490579456091 -0.99860807415097952 -0.9980838680639863 0.00061230640858411789 -0.99835201725363731 -0.9978759502992034 -0.99780135415494442 -0.99867295566946268 -0.99855984002351761 -0.99777686409652233 0 0 0 1.000145043246448 0 0 0 0 0 0 0 0 0 0 0 0 0 0.99988568853586912 0 0 0 0 0 0 0 0 0 0 0 0 0 0 0 0 0 0 0 0 0 0 0 0 0 0 0.99868998397141695 0 0 0 0 0 0 0 0 0 0 0 0 0 0 0 0.99822790734469891 0 0 0 0 0 0 0 0 1.0000618938356638 0 0 0 0 0 0 0 0 0 0 0 0 0 0.99984406307339668 0 0 0 0 0 0 0 0 0 0 0 0 0 0 0 0 0 0 0 0 0 0 0 0 0 0 0.99806114286184311 0 0 0 0 0 0 0 0 0 0 0 0 0 0 0 0.99855203554034233 0 0 0 0 0 0 0 0.99970773048698902 0 0 0 0 0 0 0 0 0 0 0 0 0 0.99932082742452621 0 0 0 0 0 0 0 0 0 0 0 0 0 0 0 0 0 0 0 0 0 0 0 0 0 0 0.99754308257251978 0 0 0 0 0 0 0 0 0 0 0 0 0 0 0 0.99760216940194368 0 0 0 0 0 0 1.000520664267242 0 0 0 0 0 0 0 0 0 0 0 0 0 1.0000812001526356 0 0 0 0 0 0 0 0 0 0 0 0 0 0 0 0 0 0 0 0 0 0 0 0 0 0 0.99848734494298697 0 0 0 0 0 0 0 0 0 0 0 0 0 0 0 0.99874287936836481 0 0 0 0 0 0 -1.0002852128818631 -0.99994771741330624 -1.0001559965312481 -1.0003566844388843 -1.0001071477308869 -1.0003720847889781 -1.0001440169289708 -0.9995069969445467 -0.99981122650206089 -1.0000278381630778 -1.0003811568021774 -1.0003328546881676 -0.99989176448434591 -0.00052662007510662079 -0.99948347732424736 -1.0003987513482571 -0.99977208208292723 -1.0002271076664329 -1.0002589737996459 -1.0000544097274542 -1.0003348104655743 -1.0002110302448273 -1.0002458309754729 -1.0001479610800743 -1.000230498611927 -1.0000745709985495 -0.9987137708812952 -1.000245095230639 -1.0001231115311384 -0.99910449236631393 -0.99964146595448256 -1.0001630578190088 -0.99966416507959366 -1.00039201695472 -1.0005084360018373 -0.99999019969254732 -0.99988532718271017 -0.99907549005001783 -0.99895692523568869 -0.99761479720473289 -0.00067136995494365692 -0.99917152803391218 -0.999519401229918 -0.99933083541691303 -0.99944136571139097 -0.99838695582002401 -0.99919035658240318 -0.99918572697788477 -0.99917577486485243 -0.9992396617308259 -0.99773239344358444 -0.99929236900061369 -0.99941893387585878 -0.99933848157525063 -0.99895156547427177 -0.99928455986082554 -0.00034577213227748871 -0.99930066615343094 -0.99873160943388939 -0.99873502738773823 -0.99939623661339283 -0.99941274803131819 -0.99931667372584343 0 0 0 0 0 0 0 0 0 0 0 0 0.99995345156639814 0 0 0 0 0 0 0 0 0 0 0 0 0 0 0 0 0 0 0 0 0 0 0 0 0 0 0.99869139492511749 0 0 0 0 0 0 0 0 0 0 0 0 0 0 0 0.99878974258899689 0 0 0 0 0 0 0 0 0 0 0 0 0 0 0 0 0 0.99999970104545355 0 0 0 0 0 0 0 0 0 0 0 0 0 0 0 0 0 0 0 0 0 0 0 0 0 0 0.99937627092003822 0 0 0 0 0 0 0 0 0 0 0 0 0 0 0 0.99858934711664915 0 0 0 0 0 0 0 0 0 0 0 0 0 0 0 0 0.99962246138602495 0 0 0 0 0 0 0 0 0 0 0 0 0 0 0 0 0 0 0 0 0 0 0 0 0 0 0.99795128591358662 0 0 0 0 0 0 0 0 0 0 0 0 0 0 0 0.99792035389691591 0 0 0 0 0 0 0 0 0 0 0 0 0 0 0 0.99985180981457233 0 0 0 0 0 0 0 0 0 0 0 0 0 0 0 0 0 0 0 0 0 0 0 0 0 0 0.99828699417412281 0 0 0 0 0 0 0 0 0 0 0 0 0 0 0 0.99829576909542084 0 0 0 0 0 0 0 0 0 0 0 0 0 0 1.0001653535291553 0 0 0 0 0 0 0 0 0 0 0 0 0 0 0 0 0 0 0 0 0 0 0 0 0 0 0.99912615399807692 0 0 0 0 0 0 0 0 0 0 0 0 0 0 0 0.99866237677633762 0 0 0 0 0 0 0 0 0 0 0 0 0 1.0000067362561822 0 0 0 0 0 0 0 0 0 0 0 0 0 0 0 0 0 0 0 0 0 0 0 0 0 0 0.99845576100051403 0 0 0 0 0 0 0 0 0 0 0 0 0 0 0 0.99908623285591602 0 0 0 0 0 0 0 0 0 0 0 0 0.99953851290047169 0 0 0 0 0 0 0 0 0 0 0 0 0 0 0 0 0 0 0 0 0 0 0 0 0 0 0.99793277680873871 0 0 0 0 0 0 0 0 0 0 0 0 0 0 0 0.99788517039269209 0 0 0 0 0 0 0 0 0 0 0 0.99951709434390068 0 0 0 0 0 0 0 0 0 0 0 0 0 0 0 0 0 0 0 0 0 0 0 0 0 0 0.99900990817695856 0 0 0 0 0 0 0 0 0 0 0 0 0 0 0 0.99878167174756527 0 0 0 0 0 0 0 0 0 0 0.99945994187146425 0 0 0 0 0 0 0 0 0 0 0 0 0 0 0 0 0 0 0 0 0 0 0 0 0 0 0.99796525575220585 0 0 0 0 0 0 0 0 0 0 0 0 0 0 0 0.9988428633660078 0 0 0 0 0 0 0 0 0 0.9997023306787014 0 0 0 0 0 0 0 0 0 0 0 0 0 0 0 0 0 0 0 0 0 0 0 0 0 0 0.99813634715974331 0 0 0 0 0 0 0 0 0 0 0 0 0 0 0 0.99874874856323004 0 0 0 0 0 0 0 0 0.99999209307134151 0 0 0 0 0 0 0 0 0 0 0 0 0 0 0 0 0 0 0 0 0 0 0 0 0 0 0.99853770900517702 0 0 0 0 0 0 0 0 0 0 0 0 0 0 0 0.99851226713508368 0 0 0 0 0 0 0 0.99991169944405556 0 0 0 0 0 0 0 0 0 0 0 0 0 0 0 0 0 0 0 0 0 0 0 0 0 0 0.99846127722412348 0 0 0 0 0 0 0 0 0 0 0 0 0 0 0 0.99872073903679848 0 0 0 0 0 0 0.99957458209246397 0 0 0 0 0 0 0 0 0 0 0 0 0 0 0 0 0 0 0 0 0 0 0 0 0 0 0.99814292415976524 0 0 0 0 0 0 0 0 0 0 0 0 0 0 0 0.99899185076355934 0 0 0 0 0 0 -0.99948200117796659 -1.0001274095848203 -0.99913920182734728 -0.99992063920944929 -1.0000346982851624 -1.0000355653464794 -0.99973787926137447 -0.9997026864439249 -0.9998286422342062 -0.99987685028463602 -0.99988185241818428 -0.99982817471027374 -0.99890380166471004 -0.99999780394136906 -0.99976504873484373 -0.99951578583568335 -0.9996894234791398 -0.99988063704222441 -0.99951479583978653 -1.0000602994114161 -1.0002031205222011 -0.99975054990500212 -0.99972217902541161 -0.99984697531908751 -0.99943513702601194 -0.99877488054335117 5.8803707361221313e-06 -0.99996051006019115 -0.99992394354194403 -0.99999755527824163 -1.0001203315332532 -0.99941459391266108 -1.0001134295016527 -0.99978755880147219 -0.99984664842486382 -0.99991400633007288 -0.99836678337305784 -0.99963258299976587 -0.99989558942615986 -0.99970637075603008 -0.99974639900028706 -0.99973225686699152 4.5986846089363098e-05 -1.0001764390617609 -0.99952122755348682 -0.99900250788778067 -0.99984969012439251 -1.0002257823944092 -0.99984687753021717 0 0 0 0 0 0 0 0 0 0 0 0 0 0 0 0 0 0 0 0 0 0 0 0 0 0.99842079170048237 0 0 0 0 0 0 0 0 0 0 0 0 0 0 0 0.9972098721191287 0 0 0 0 0 0 0 0 0 0 0 0 0 0 0 0 0 0 0 0 0 0 0 0 0 0 0 0 0 0 0.99864414986222982 0 0 0 0 0 0 0 0 0 0 0 0 0 0 0 0.99920292943716049 0 0 0 0 0 0 0 0 0 0 0 0 0 0 0 0 0 0 0 0 0 0 0 0 0 0 0 0 0 0.99731874279677868 0 0 0 0 0 0 0 0 0 0 0 0 0 0 0 0.99726006295531988 0 0 0 0 0 0 0 0 0 0 0 0 0 0 0 0 0 0 0 0 0 0 0 0 0 0 0 0 0.99861087184399366 0 0 0 0 0 0 0 0 0 0 0 0 0 0 0 0.99818031210452318 0 0 0 0 0 0 0 0 0 0 0 0 0 0 0 0 0 0 0 0 0 0 0 0 0 0 0 0.99854012858122587 0 0 0 0 0 0 0 0 0 0 0 0 0 0 0 0.99899896699935198 0 0 0 0 0 0 0 0 0 0 0 0 0 0 0 0 0 0 0 0 0 0 0 0 0 0 0.99914332292973995 0 0 0 0 0 0 0 0 0 0 0 0 0 0 0 0.99854628462344408 0 0 0 0 0 0 0 0 0 0 0 0 0 0 0 0 0 0 0 0 0 0 0 0 0 0.99848192557692528 0 0 0 0 0 0 0 0 0 0 0 0 0 0 0 0.99784018099308014 0 0 0 0 0 0 0 0 0 0 0 0 0 0 0 0 0 0 0 0 0 0 0 0 0.99830787070095539 0 0 0 0 0 0 0 0 0 0 0 0 0 0 0 0.99812407046556473 0 0 0 0 0 0 0 0 0 0 0 0 0 0 0 0 0 0 0 0 0 0 0 0.99842825811356306 0 0 0 0 0 0 0 0 0 0 0 0 0 0 0 0.99819163978099823 0 0 0 0 0 0 0 0 0 0 0 0 0 0 0 0 0 0 0 0 0 0 0.99839444179087877 0 0 0 0 0 0 0 0 0 0 0 0 0 0 0 0.99904503859579563 0 0 0 0 0 0 0 0 0 0 0 0 0 0 0 0 0 0 0 0 0 0.9982583774253726 0 0 0 0 0 0 0 0 0 0 0 0 0 0 0 0.99872655887156725 0 0 0 0 0 0 0 0 0 0 0 0 0 0 0 0 0 0 0 0 0.99860858265310526 0 0 0 0 0 0 0 0 0 0 0 0 0 0 0 0.99790617730468512 0 0 0 0 0 0 0 0 0 0 0 0 0 0 0 0 0 0 0 0.99851512815803289 0 0 0 0 0 0 0 0 0 0 0 0 0 0 0 0.9984896257519722 0 0 0 0 0 0 0 0 0 0 0 0 0 0 0 0 0 0 0.99879717268049717 0 0 0 0 0 0 0 0 0 0 0 0 0 0 0 0.99895227700471878 0 0 0 0 0 0 0 0 0 0 0 0 0 0 0 0 0 0.9980321666225791 0 0 0 0 0 0 0 0 0 0 0 0 0 0 0 0.99891464971005917 0 0 0 0 0 0 0 0 0 0 0 0 0 0 0 0 0.99910340178757906 0 0 0 0 0 0 0 0 0 0 0 0 0 0 0 0.99822159484028816 0 0 0 0 0 0 0 0 0 0 0 0 0 0 0 0.9990583173930645 0 0 0 0 0 0 0 0 0 0 0 0 0 0 0 0.99763041269034147 0 0 0 0 0 0 0 0 0 0 0 0 0 0 0.998006796464324 0 0 0 0 0 0 0 0 0 0 0 0 0 0 0 0.99854427110403776 0 0 0 0 0 0 0 0 0 0 0 0 0 0.99894837755709887 0 0 0 0 0 0 0 0 0 0 0 0 0 0 0 0.99898371379822493 0 0 0 0 0 0 0 0 0 0 0 0 0.99841528013348579 0 0 0 0 0 0 0 0 0 0 0 0 0 0 0 0.998665033839643 0 0 0 0 0 0 0 0 0 0 0 0.99898356758058071 0 0 0 0 0 0 0 0 0 0 0 0 0 0 0 0.99899344705045223 0 0 0 0 0 0 0 0 0 0 0.99804689921438694 0 0 0 0 0 0 0 0 0 0 0 0 0 0 0 0.99873497989028692 0 0 0 0 0 0 0 0 0 0.99831901583820581 0 0 0 0 0 0 0 0 0 0 0 0 0 0 0 0.99853317998349667 0 0 0 0 0 0 0 0 0.99967022705823183 0 0 0 0 0 0 0 0 0 0 0 0 0 0 0 0.99998853821307421 0 0 0 0 0 0 0 0.999369066208601 0 0 0 0 0 0 0 0 0 0 0 0 0 0 0 0.99991346709430218 0 0 0 0 0 0 0.99906496703624725 0 0 0 0 0 0 0 0 0 0 0 0 0 0 0 0.9991424260661006 0 0 0 0 0 0 -0.99944188818335533 -0.99928783439099789 -0.99965924583375454 -0.99986010976135731 -0.99972868617624044 -1.0001191347837448 -0.99907789193093777 -0.9993043439462781 -0.99921435862779617 -0.99804353900253773 -0.99877664539963007 -0.99906412605196238 -0.99891243129968643 -0.99954325892031193 -0.99905315786600113 0.00020994339138269424 -1.0002675019204617 -1.0000482397153974 -0.99865272548049688 -0.99918937310576439 -1.0001896508038044 -0.99896765686571598 0 0 0 0 0 0 0 0 0 0 0 0 0 0 0.99989661667495966 0 0 0 0 0 0 0 0 0 0 0 0 0 0 0 0 0 0 0 0.99939295649528503 0 0 0 0 0 0 0 0 0 0 0 0 0 0 0 0 0 0 0.99934817478060722 0 0 0 0 0 0 0 0 0 0 0 0 0 0 0 0 0 0.99969911947846413 0 0 0 0 0 0 0 0 0 0 0 0 0 0 0 0 0.99951697699725628 0 0 0 0 0 0 0 0 0 0 0 0 0 0 0 0.99916493520140648 0 0 0 0 0 0 0 0 0 0 0 0 0 0 0.99989670887589455 0 0 0 0 0 0 0 0 0 0 0 0 0 1.0000211736187339 0 0 0 0 0 0 0 0 0 0 0 0 0.9995702700689435 0 0 0 0 0 0 0 0 0 0 0 0.99931438732892275 0 0 0 0 0 0 0 0 0 0 0.99885692447423935 0 0 0 0 0 0 0 0 0 0.99949483573436737 0 0 0 0 0 0 0 0 0.99892083555459976 0 0 0 0 0 0 0 1.0000757379457355 0 0 0 0 0 0 0.99905312433838844 0 0 0 0 0 0 -0.99958654772490263 -0.99958796519786119 -0.99781754612922668 -0.99916747771203518 -0.99954899121075869 -0.99927448853850365 0 0 0 0 0 0 0 0 0 0 0 0 0 0 0
label 692 49 47 11 186 268 580 0 1126 9 23 57 219 576 125 258 249 40 146 1 223 265 122 39 67 671 244 148 350 26 1080 506 108 62 55 603 22 48 50 151 37 532 177 815 482 89 257 93 86 28 163 287 588 236 129 190 526 529 145 345 891 285 727 73 188 349 121 90 126 68 80 863 331 1007 120 408 1331 27 182 119 205 143 167 153 198 200 582 552 620 474 638 94 215 59 286 1197 237 275 424 628 400 168 511 111 253 165 887 13 365 356 173 91 680 32 136 391 242 308 696 1025
nr_sv 1 2 2 1 1 1 1 3 1 1 1 1 1 1 1 1 1 1 1 1 1 1 1 2 1 1 1 1 1 1 1 1 1 1 2 1 1 1 1 1 1 1 1 1 1 1 1 2 1 1 1 2 1 1 1 1 2 1 1 1 1 1 1 1 1 1 1 1 1 1 2 1 1 1 1 1 1 1 1 1 1 1 1 1 1 1 1 1 1 1 1 1 1 1 1 1 1 2 1 1 1 1 1 1 1 1 1 1 1 1 1 1 1 2 1 1 1 1 1 1
SV
0.03125 0.03125 0.03125 0.03125 0.03125 0.03125 0.03125 0.03125 0.03125 0.03125 0.03125 0.03125 0.03125 0.03125 0.03125 0.03125 0.03125 0.03125 0.03125 0.03125 0.03125 0.03125 0.03125 0.03125 0.03125 0.03125 0.03125 0.03125 0.03125 0.03125 0.03125 0.03125 0.03125 0.03125 0.03125 0.03125 0.03125 0.03125 0.03125 0.03125 0.03125 0.03125 0.03125 0.03125 0.03125 0.03125 0.03125 0.03125 0.03125 0.03125 0.03125 0.03125 0.03125 0.03125 0.03125 0.03125 0.03125 0.03125 0.03125 0.03125 0.03125 0.03125 0.03125 0.03125 0.03125 0.03125 0.03125 0.03125 0.03125 0.03125 0.03125 0.03125 0.03125 0.03125 0.03125 0.03125 0.03125 0.03125 0.03125 0.03125 0.03125 0.03125 0.03125 0.03125 0.03125 0.03125 0.03125 0.03125 0.03125 0.03125 0.03125 0.03125 0.03125 0.03125 0.03125 0.03125 0.03125 0.03125 0.03125 0.03125 0.03125 0.03125 0.03125 0.03125 0.03125 0.03125 0.03125 0.03125 0.03125 0.03125 0.03125 0.03125 0.03125 0.03125 0.03125 0.03125 0.03125 0.03125 0.03125 1:-1 2:0.287302 3:-0.669898 4:0.293272 5:-0.997162 6:-0.575 7:0.479857 8:0.343638 9:-0.951592 10:-0.452736 11:-0.911878 12:0.405063 
-0.03125 0.03125 0.017542494043398825 0.024578196581473352 0 0.029358337068636407 0.03125 0 0.022960955927968586 0 0.025248900073967521 0.022048984523062868 0 0.026757197346713387 0.025859579518495289 0 0 0.029226278837107836 0.018442242272609519 0.014885777485581446 0.02268850427102791 0 0.03125 0.027262102381958742 0 0.01634805809688723 0.022479112483468087 0.016639683362761271 0.03125 0.024142529578487382 0 0.024805084287184871 0.020934092423612341 0.03125 0.020626063070095305 0 0 0.025750529617686761 0.01808526695628758 0 0 0 0 0 0 0 0.03125 0 0 0 0.03125 0 0 0 0.015463888424934895 0.03125 0 0 0.02327529659442619 0.021654647299333269 0 0 0.017777743573006287 0 0 0 0.023869358911211704 0.018286296919951459 0 0.03125 0 0 0.016016168252253112 0 0 0 0.025935608203918575 0.028409855916720069 0.024959325319048854 0 0 0 0 0.017719823296020069 0 0 0.014942792342145808 0 0 0 0 0 0 0 0 0 0.03125 0 0.022376001075426422 0 0 0 0 0 0 0 0 0.020504150873293974 0 0 0 0.014587734386717205 0.03125 0 0 0.029269206417108652 0.017348094952824401 0 0 1:-1 2:0.79722 3:-0.91634 4:0.132481 5:-0.995227 6:-0.9 7:0.721966 8:-0.951139 9:-1 10:-0.661692 11:-0.880374 12:0.164557 
-0 0.03125 0.013707505956601175 0.0066718034185266478 0.03125 0.0018916629313635927 0.03125 0.03125 0.0082890440720314144 0.03125 0.0060010999260324792 0.009201015476937132 0.03125 0.0044928026532866129 0.005390420481504711 0.03125 0.03125 0.0020237211628921642 0.012807757727390481 0.016364222514418554 0.0085614957289720899 0.03125 0.03125 0.0039878976180412577 0.03125 0.01490194190311277 0.0087708875165319125 0.014610316637238729 0 0.0071074704215126176 0.03125 0.0064449157128151288 0.010315907576387659 0.03125 0.010623936929904695 0.03125 0.03125 0.0054994703823132395 0.01316473304371242 0.03125 0.03125 0.03125 0.03125 0.03125 0.03125 0.03125 0.03125 0.03125 0.03125 0.03125 0.03125 0.03125 0.03125 0.03125 0.015786111575065105 0.03125 0.03125 0.03125 0.0079747034055738103 0.0095953527006667309 0.03125 0.03125 0.013472256426993713 0.03125 0.03125 0.03125 0.0073806410887882964 0.012963703080048541 0.03125 0.03125 0.03125 0.03125 0.015233831747746888 0.03125 0.03125 0.03125 0.0053143917960814246 0.0028401440832799309 0.0062906746809511457 0.03125 0.03125 0.03125 0.03125 0.013530176703979931 0.03125 0.03125 0.016307207657854192 0.03125 0.03125 0.03125 0.03125 0.03125 0.03125 0.03125 0.03125 0.03125 0.03125 0.03125 0.0088739989245735784 0.03125 0.03125 0.03125 0.03125 0.03125 0.03125 0.03125 0.03125 0.010745849126706026 0.03125 0.03125 0.03125 0.016662265613282795 0.03125 0.03125 0.03125 0.0019807935828913478 0.013901905047175599 0.03125 0.03125 1:-1 2:-0.110832 3:-0.472172 4:0.221861 5:-0.23327 6:-0.325 7:0.282542 8:0.0197571 9:-0.779178 10:-0.283582 11:0.108537 12:-0.392405 
-0.023511055501385408 -0.03125 0.024543006655839639 0.026929575220281724 0.021913853844566508 0.029336859599904015 0.03125 0.016646917316052095 0.026355053877856208 0.021664829235392306 0.028126777047749716 0.027584236001392495 0.017967199800681861 0.02852374949658518 0.027748018107706357 0.014447307958075981 0.021486976783322384 0.029840922557867106 0.025980274015184095 0.020603162167043932 0.028153990655255756 0.02016872896093606 0.03125 0.029983201237809749 0.02089884453500223 0.024847779369627506 0.025895458135052216 0.020934549575661345 0.029494422859522192 0.0273994427257018 0.013667687738941545 0.029993218667645406 0.02979770239376044 0.03125 0.021777654538504474 0.02003038013266523 0.022549989354122068 0.023467105156070409 0.025957720440558194 0.020316315812134778 0.020140301119510547 0.020158990476730552 0.022610758480078427 0.020039831466957349 0.018271824837371414 0.01760151848812256 0.03125 0.01897437401975224 0.019243384262898313 0.015438951468973632 0.03125 0.016193294291446596 0.016706989077933079 0.020565750635470961 0.024546961120361168 0.03125 0.017619641749799027 0.014702141199783879 0.027120406848436827 0.026362946398332785 0.016457816791660564 0.018962436787638495 0.022163739903480875 0.015763759042432816 0.018304453271815648 0.01280199638433956 0.02645622089448478 0.027888959489480926 0.020191102041330684 0.03125 0.015495290281980559 0.019841049888342985 0.021745895758083649 0.017929156539299437 0.022860160486281651 0.023660250392099104 0.026105988247265809 0.029261856042526804 0.027695773232036033 0.014681089008990844 0.025122015741197264 0.017549101322504205 0.010377827589809992 0.025415482952680844 0.016980790622491131 0.010916947450056261 0.023115961833411833 0.01833975630259602 0.018169468199673088 0.022948914422368578 0.021520663570304539 0.014843033355859013 0.012917808046550973 0.006885608794571574 0.0064911222435577341 0 0.03125 0.0082237109823979394 0.019470150651643245 0.010036127397160295 0.009012839965807172 0 0.011905842526068617 0.0088956828011444514 0.017058362120522363 0.010549855000779734 0.0082970408659942575 0.018022463852584387 0.011689996038315709 0.012716548774398225 0.013663191791726197 0.013209281617207309 0.03125 0.010076525287832509 0.0097171940905007269 0.019759794667137134 0.015837901150069861 0.012977592658518566 0.010640028277867128 1:-1 2:1 3:-0.0215364 4:0.923088 5:-1 6:0.1 7:1 8:-1 9:-0.994032 10:0.0845771 11:-0.994294 12:0.265823 
-0.0077389444986145917 -0.03125 0.0067069933441603613 0.0043204247797182758 0.0093361461554334925 0.0019131404000959848 0.03125 0.014603082683947905 0.0048949461221437923 0.0095851707646076936 0.003123222952250284 0.0036657639986075047 0.013282800199318139 0.0027262505034148198 0.003501981892293643 0.016802692041924021 0.009763023216677616 0.0014090774421328944 0.0052697259848159053 0.010646837832956068 0.0030960093447442438 0.01108127103906394 0.03125 0.0012667987621902514 0.01035115546499777 0.0064022206303724939 0.0053545418649477844 0.010315450424338655 0.0017555771404778077 0.0038505572742981997 0.017582312261058455 0.0012567813323545937 0.0014522976062395603 0.03125 0.0094723454614955259 0.01121961986733477 0.0087000106458779321 0.0077828948439295914 0.0052922795594418058 0.010933684187865222 0.011109698880489453 0.011091009523269448 0.0086392415199215734 0.011210168533042651 0.012978175162628586 0.01364848151187744 0.03125 0.01227562598024776 0.012006615737101687 0.01581104853102637 0.03125 0.015056705708553404 0.014543010922066921 0.010684249364529039 0.006703038879638832 0.03125 0.013630358250200973 0.016547858800216121 0.0041295931515631726 0.0048870536016672149 0.014792183208339436 0.012287563212361505 0.0090862600965191248 0.015486240957567184 0.012945546728184352 0.01844800361566044 0.0047937791055152196 0.0033610405105190741 0.011058897958669316 0.03125 0.015754709718019441 0.011408950111657015 0.0095041042419163509 0.013320843460700563 0.0083898395137183487 0.0075897496079008961 0.0051440117527341914 0.0019881439574731957 0.0035542267679639673 0.016568910991009156 0.0061279842588027357 0.013700898677495795 0.020872172410190008 0.0058345170473191564 0.014269209377508869 0.020333052549943741 0.0081340381665881666 0.01291024369740398 0.013080531800326912 0.0083010855776314216 0.0097293364296954614 0.016406966644140986 0.018332191953449026 0.024364391205428427 0.024758877756442265 0.03125 0.03125 0.023026289017602061 0.011779849348356755 0.021213872602839703 0.022237160034192828 0.03125 0.019344157473931381 0.022354317198855549 0.014191637879477637 0.020700144999220266 0.022952959134005742 0.013227536147415613 0.019560003961684291 0.018533451225601773 0.017586808208273803 0.018040718382792691 0.03125 0.021173474712167489 0.021532805909499273 0.011490205332862866 0.015412098849930139 0.018272407341481434 0.020609971722132872 1:1 2:-1 3:0.0829989 4:0.549775 5:0.433769 6:0.2625 7:0.394604 8:0.434046 9:-0.844164 10:0.233831 11:0.651911 12:0.379747 
-0.03125 -0.03125 -0.03125 0.03125 0.03125 0.03125 0.03125 0.03125 0.03125 0.03125 0.03125 0.03125 0.03125 0.03125 0.03125 0.03125 0.03125 0.03125 0.03125 0.03125 0.03125 0.03125 0.03125 0.03125 0.03125 0.03125 0.03125 0.03125 0.03125 0.03125 0.03125 0.03125 0.03125 0.03125 0.03125 0.03125 0.03125 0.03125 0.03125 0.03125 0.03125 0.03125 0.03125 0.03125 0.03125 0.03125 0.03125 0.03125 0.03125 0.03125 0.03125 0.03125 0.03125 0.03125 0.03125 0.03125 0.03125 0.03125 0.03125 0.03125 0.03125 0.03125 0.03125 0.03125 0.03125 0.03125 0.03125 0.03125 0.03125 0.03125 0.03125 0.03125 0.03125 0.03125 0.03125 0.03125 0.03125 0.03125 0.03125 0.03125 0.03125 0.03125 0.03125 0.03125 0.03125 0.03125 0.03125 0.03125 0.03125 0.03125 0.03125 0.03125 0.03125 0.03125 0.03125 0.03125 0.03125 0.03125 0.03125 0.03125 0.03125 0.03125 0.03125 0.03125 0.03125 0.03125 0.03125 0.03125 0.03125 0.03125 0.03125 0.03125 0.03125 0.03125 0.03125 0.03125 0.03125 0.03125 0.03125 1:-1 2:0.174492 3:-0.856313 4:0.257163 5:-0.804137 6:-0.8125 7:0.111769 8:-0.950864 9:-1 10:-0.621891 11:-0.445451 12:-0.708861 
-0.03125 -0.03125 -0.03125 -0.03125 0.03125 0.03125 0.03125 0.03125 0.03125 0.03125 0.03125 0.03125 0.03125 0.03125 0.03125 0.03125 0.03125 0.03125 0.03125 0.03125 0.03125 0.03125 0.03125 0.03125 0.03125 0.03125 0.03125 0.03125 0.03125 0.03125 0.03125 0.03125 0.03125 0.03125 0.03125 0.03125 0.03125 0.03125 0.03125 0.03125 0.03125 0.03125 0.03125 0.03125 0.03125 0.03125 0.03125 0.03125 0.03125 0.03125 0.03125 0.03125 0.03125 0.03125 0.03125 0.03125 0.03125 0.03125 0.03125 0.03125 0.03125 0.03125 0.03125 0.03125 0.03125 0.03125 0.03125 0.03125 0.03125 0.03125 0.03125 0.03125 0.03125 0.03125 0.03125 0.03125 0.03125 0.03125 0.03125 0.03125 0.03125 0.03125 0.03125 0.03125 0.03125 0.03125 0.03125 0.03125 0.03125 0.03125 0.03125 0.03125 0.03125 0.03125 0.03125 0.03125 0.03125 0.03125 0.03125 0.03125 0.03125 0.03125 0.03125 0.03125 0.03125 0.03125 0.03125 0.03125 0.03125 0.03125 0.03125 0.03125 0.03125 0.03125 0.03125 0.03125 0.03125 0.03125 0.03125 1:-1 2:0.217046 3:-0.863118 4:-0.0233229 5:-0.997592 6:-0.825 7:0.592674 8:-0.999424 9:-0.990053 10:-0.402985 11:-0.838405 12:-0.278481 
-0.03125 -0.03125 -0.03125 -0.03125 -0.03125 0.03125 0.03125 0.03125 0.03125 0.03125 0.03125 0.03125 0.03125 0.03125 0.03125 0.03125 0.03125 0.03125 0.03125 0.03125 0.03125 0.03125 0.03125 0.03125 0.03125 0.03125 0.03125 0.03125 0.03125 0.03125 0.03125 0.03125 0.03125 0.03125 0.03125 0.03125 0.03125 0.03125 0.03125 0.03125 0.03125 0.03125 0.03125 0.03125 0.03125 0.03125 0.03125 0.03125 0.03125 0.03125 0.03125 0.03125 0.03125 0.03125 0.03125 0.03125 0.03125 0.03125 0.03125 0.03125 0.03125 0.03125 0.03125 0.03125 0.03125 0.03125 0.03125 0.03125 0.03125 0.03125 0.03125 0.03125 0.03125 0.03125 0.03125 0.03125 0.03125 0.03125 0.03125 0.03125 0.03125 0.03125 0.03125 0.03125 0.03125 0.03125 0.03125 0.03125 0.03125 0.03125 0.03125 0.03125 0.03125 0.03125 0.03125 0.03125 0.03125 0.03125 0.03125 0.03125 0.03125 0.03125 0.03125 0.03125 0.03125 0.03125 0.03125 0.03125 0.03125 0.03125 0.03125 0.03125 0.03125 0.03125 0.03125 0.03125 0.03125 0.03125 0.03125 1:-1 2:-0.023891 3:-0.458953 4:0.520365 5:-0.576014 6:-0.35 7:0.724647 8:-0.736221 9:-1 10:0.0348259 11:-0.0987756 12:-0.177215 
-0.03125 -0.03125 -0.03125 -0.03125 -0.03125 -0.03125 0.03125 0.03125 0.03125 0.03125 0.03125 0.03125 0.03125 0.03125 0.03125 0.03125 0.03125 0.03125 0.03125 0.03125 0.03125 0.03125 0.03125 0.03125 0.03125 0.03125 0.03125 0.03125 0.03125 0.03125 0.03125 0.03125 0.03125 0.03125 0.03125 0.03125 0.03125 0.03125 0.03125 0.03125 0.03125 0.03125 0.03125 0.03125 0.03125 0.03125 0.03125 0.03125 0.03125 0.03125 0.03125 0.03125 0.03125 0.03125 0.03125 0.03125 0.03125 0.03125 0.03125 0.03125 0.03125 0.03125 0.03125 0.03125 0.03125 0.03125 0.03125 0.03125 0.03125 0.03125 0.03125 0.03125 0.03125 0.03125 0.03125 0.03125 0.03125 0.03125 0.03125 0.03125 0.03125 0.03125 0.03125 0.03125 0.03125 0.03125 0.03125 0.03125 0.03125 0.03125 0.03125 0.03125 0.03125 0.03125 0.03125 0.03125 0.03125 0.03125 0.03125 0.03125 0.03125 0.03125 0.03125 0.03125 0.03125 0.03125 0.03125 0.03125 0.03125 0.03125 0.03125 0.03125 0.03125 0.03125 0.03125 0.03125 0.03125 0.03125 0.03125 1:-1 2:0.833276 3:-0.957691 4:-0.0515109 5:-0.999946 6:-0.95 7:0.632278 8:-0.953717 9:-0.840849 10:-0.701493 11:-0.866185 12:-0.379747 
-0.0066773002811689151 -0.013933691956446951 -0.03125 -0 -0 -0.010602373511658113 -0 0.016637513222171659 0.008230528751254412 0.02377821106654331 0 0 0.009572108299756802 0.005916017738051828 0 0.02044343622769559 0.017623582101021912 0 0.0060639101766271179 0.005077026692032356 0 0.0066570703749961983 0.015543209002227051 0 0.0092859292738127173 0.0063063919970828344 0 0.0072305276813107652 0 0 0.011697129771659499 0.0052540709974113172 0 0.0075420016586204459 0 0 0.020273770526385577 0 0 0.023029905840056174 0.0063686497084027476 0.0058284000360122193 0.011631593380928128 0.0096091661669112701 0.029736070762350488 0.005125296975823132 0.01606840108095587 0.0085401650777107777 0.010727343752354375 0.012025857067947648 0.021150911949112727 0.0093653333190237727 0.010993886463226734 0 0.0056922108224416795 0.02308205996160673 0.011167866205183995 0.016705469910707021 0 0 0.012341804815130685 0.0124733861416573 0 0.023573314493308302 0.015347824105186708 0.013700241690750356 0.0061883907072618725 0.007767197110559957 0.015646368310183859 0.028526656425448046 0.0064999288646016631 0.013417528305241556 0 0.0077636460389062184 0.013166372966196445 0.012088737723345459 0 0 0 0.015059742744003689 0.0073774444066070175 0.011054855092026548 0.025432595431679368 0.014794866105735183 0.011820329522133388 0.021322484623104068 0.0067713057779760057 0.0097918765515029663 0.023858919051680232 0.0060962592931901672 0.012270137631129286 0.011457162424019601 0.011297498108965763 0.019200307236558588 0.020098491994370596 0.022503282829497581 0.03125 0.017129813096504524 0 0.0080442129078531419 0.013241891908181624 0.023635856118663527 0.010694523760732185 0.01262665597340799 0.016021938257355445 0.01166245453230429 0.02475528623176395 0 0.007600552882716374 0.0054143930811456839 0.020672912479017806 0.0059462416932045004 0.03125 0.011929591370856677 0.020653295824053956 0 0 0.010197270280777148 0.010905381612215931 1:-1 2:0.947528 3:0.939866 4:1 5:0.22276 6:0.9375 7:0.54683 8:-0.629876 9:-0.92374 10:0.900498 11:0.239304 12:0.759494 
-0 -0.017316308043553049 -0.015804005489690187 -0 -0 -0 -0 0 0 0 0 0 0.013743227584241144 0 0 0 0 0 0 0.022367829601154039 0 0.018201624771209051 0.03125 0 0 0 0 0.020680597331806338 0.011885940279099106 0 0.017435965371270064 0 0 0.023707998341379554 0.030950863104163218 0.021454665299522252 0 0.02043302322680551 0 0 0.020397779564444076 0.018601786766834879 0 0.013105276843522345 0 0.026124703024176868 0.015181598919044132 0.019658975456030774 0 0.019224142932052352 0.010099088050887273 0.017819357265469887 0.019266447904171494 0.022011474770950529 0 0.03125 0.017470613681483935 0.012121594108257154 0 0 0.014112935130779235 0.0112230741808588 0.021324879755490984 0 0 0.017549758309249645 0 0 0 0.03125 0.02088808050856221 0.011629284319236918 0.025663849220301124 0.018364997828424885 0 0 0.011223197851174718 0 0 0.016190257255996311 0 0.01929272412464841 0.0058174045683206319 0 0.017620545388000227 0.0099275153768959325 0 0.018779237092054105 0 0 0.011100649619040857 0.019792837575980399 0.019952501891034237 0.012049692763441412 0.011151508005629404 0.0087467171705024188 0.021049050129777466 0.014120186903495476 0 0.019660013617177938 0.011090668589364227 0.0076141438813364729 0 0.017693505073496964 0 0.01958754546769571 0 0 0.012961003261240486 0.019507599381876656 0 0.017652894076253308 0.015395098218532842 0.010843750961065244 0 0.013927891426414625 0.011974746229473445 0 0.020106123182221779 1:-1 2:-1 3:-0.989322 4:-1 5:-0.999759 6:-0.9875 7:0.457435 8:-0.994383 9:-1 10:-0.9801 11:-0.992836 12:-0.810127 
-0.024572699718831085 -0.03125 -0.015445994510309813 -0.03125 -0.03125 -0.020647626488341887 -0.03125 0.014612486777828341 0.023019471248745586 0.0074717889334566905 0.03125 0.03125 0.0079346641160020544 0.025333982261948173 0.03125 0.01080656377230441 0.013626417898978088 0.03125 0.025186089823372882 0.0038051437068136055 0.03125 0.0063913048537947506 0.015706790997772949 0.03125 0.021964070726187283 0.024943608002917166 0.03125 0.0033388749868828969 0.019364059720900894 0.03125 0.0021169048570704348 0.025995929002588684 0.03125 0.03125 0.00029913689583678169 0.009795334700477748 0.010976229473614423 0.01081697677319449 0.03125 0.0082200941599438263 0.0044835707271531763 0.0068198131971529017 0.019618406619071872 0.0085355569895663834 0.0015139292376495118 0 0.03125 0.003050859466258448 0.020522656247645626 0 0.03125 0.0040653094155063407 0.000989665632601772 0.0092385252290494713 0.02555778917755832 0.0081679400383932697 0.002611520113332072 0.0024229359810358248 0.03125 0.03125 0.0047952600540900822 0.0075535396774839003 0.0099251202445090163 0.0076766855066916981 0.01590217589481329 0 0.025061609292738127 0.023482802889440043 0.015603631689816141 0.0027233435745519542 0.0038619906268361273 0.006203187375521526 0.0055861507796988764 0.0051213561326688964 0.018083627033803555 0.019161262276654541 0.020026802148825282 0.03125 0.03125 0 0.023872555593392984 0.00090242078332504125 0 0.016455133894264819 0.0018091250898663834 0 0.024478694222023995 0.0026788863564429291 0.0073910809483197677 0.025153740706809834 0.0078792127498298545 0 0 0 0 0 0.010200949870222534 0 0.03125 0.0035457734749689204 0.0069174395024541469 0 0.020555476239267817 0.00092983895309504613 0.015228061742644555 0 0.0064947137682360503 0.03125 0.01068844385604314 0.0063280075369776603 0.010577087520982194 0.0076508642305421915 0.015854901781467159 0.008476657668078081 0.010596704175946044 0.017322108573585376 0.019275253770526555 0.021052729719222854 0.00023849520556229117 1:-1 2:0.896179 3:-0.626055 4:0.42233 5:-0.999996 6:-0.5625 7:0.613902 8:-0.99746 9:-0.950928 10:-0.691542 11:-1 12:-0.848101 
-0.03125 -0.03125 -0.03125 -0.03125 -0.03125 -0.03125 -0.03125 -0.03125 0.03125 0.03125 0.03125 0.03125 0.03125 0.03125 0.03125 0.03125 0.03125 0.03125 0.03125 0.03125 0.03125 0.03125 0.03125 0.03125 0.03125 0.03125 0.03125 0.03125 0.03125 0.03125 0.03125 0.03125 0.03125 0.03125 0.03125 0.03125 0.03125 0.03125 0.03125 0.03125 0.03125 0.03125 0.03125 0.03125 0.03125 0.03125 0.03125 0.03125 0.03125 0.03125 0.03125 0.03125 0.03125 0.03125 0.03125 0.03125 0.03125 0.03125 0.03125 0.03125 0.03125 0.03125 0.03125 0.03125 0.03125 0.03125 0.03125 0.03125 0.03125 0.03125 0.03125 0.03125 0.03125 0.03125 0.03125 0.03125 0.03125 0.03125 0.03125 0.03125 0.03125 0.03125 0.03125 0.03125 0.03125 0.03125 0.03125 0.03125 0.03125 0.03125 0.03125 0.03125 0.03125 0.03125 0.03125 0.03125 0.03125 0.03125 0.03125 0.03125 0.03125 0.03125 0.03125 0.03125 0.03125 0.03125 0.03125 0.03125 0.03125 0.03125 0.03125 0.03125 0.03125 0.03125 0.03125 0.03125 0.03125 0.03125 0.03125 1:-1 2:0.406317 3:-0.255455 4:0.851457 5:0.454521 6:-0.175 7:0.49387 8:-0.189777 9:-0.997347 10:-0.283582 11:0.599007 12:-0.227848 
-0.03125 -0.03125 -0.03125 -0.03125 -0.03125 -0.03125 -0.03125 -0.03125 -0.03125 0.03125 0.03125 0.03125 0.03125 0.03125 0.03125 0.03125 0.03125 0.03125 0.03125 0.03125 0.03125 0.03125 0.03125 0.03125 0.03125 0.03125 0.03125 0.03125 0.03125 0.03125 0.03125 0.03125 0.03125 0.03125 0.03125 0.03125 0.03125 0.03125 0.03125 0.03125 0.03125 0.03125 0.03125 0.03125 0.03125 0.03125 0.03125 0.03125 0.03125 0.03125 0.03125 0.03125 0.03125 0.03125 0.03125 0.03125 0.03125 0.03125 0.03125 0.03125 0.03125 0.03125 0.03125 0.03125 0.03125 0.03125 0.03125 0.03125 0.03125 0.03125 0.03125 0.03125 0.03125 0.03125 0.03125 0.03125 0.03125 0.03125 0.03125 0.03125 0.03125 0.03125 0.03125 0.03125 0.03125 0.03125 0.03125 0.03125 0.03125 0.03125 0.03125 0.03125 0.03125 0.03125 0.03125 0.03125 0.03125 0.03125 0.03125 0.03125 0.03125 0.03125 0.03125 0.03125 0.03125 0.03125 0.03125 0.03125 0.03125 0.03125 0.03125 0.03125 0.03125 0.03125 0.03125 0.03125 0.03125 0.03125 0.03125 1:-1 2:0.843292 3:-0.843988 4:0.0195335 5:-0.995879 6:-0.825 7:-0.33794 8:-0.997541 9:-0.998011 10:0.323383 11:-0.366014 12:0.392405 
-0.03125 -0.03125 -0.03125 -0.03125 -0.03125 -0.03125 -0.03125 -0.03125 -0.03125 -0.03125 0.03125 0.03125 0.03125 0.03125 0.03125 0.03125 0.03125 0.03125 0.03125 0.03125 0.03125 0.03125 0.03125 0.03125 0.03125 0.03125 0.03125 0.03125 0.03125 0.03125 0.03125 0.03125 0.03125 0.03125 0.03125 0.03125 0.03125 0.03125 0.03125 0.03125 0.03125 0.03125 0.03125 0.03125 0.03125 0.03125 0.03125 0.03125 0.03125 0.03125 0.03125 0.03125 0.03125 0.03125 0.03125 0.03125 0.03125 0.03125 0.03125 0.03125 0.03125 0.03125 0.03125 0.03125 0.03125 0.03125 0.03125 0.03125 0.03125 0.03125 0.03125 0.03125 0.03125 0.03125 0.03125 0.03125 0.03125 0.03125 0.03125 0.03125 0.03125 0.03125 0.03125 0.03125 0.03125 0.03125 0.03125 0.03125 0.03125 0.03125 0.03125 0.03125 0.03125 0.03125 0.03125 0.03125 0.03125 0.03125 0.03125 0.03125 0.03125 0.03125 0.03125 0.03125 0.03125 0.03125 0.03125 0.03125 0.03125 0.03125 0.03125 0.03125 0.03125 0.03125 0.03125 0.03125 0.03125 0.03125 0.03125 1:-1 2:0.86303 3:0.350954 4:0.95795 5:0.34874 6:0.4375 7:0.844362 8:-0.999357 9:-0.942308 10:0.223881 11:0.416494 12:0.341772 
-0.03125 -0.03125 -0.03125 -0.03125 -0.03125 -0.03125 -0.03125 -0.03125 -0.03125 -0.03125 -0.03125 0.03125 0.03125 0.03125 0.03125 0.03125 0.03125 0.03125 0.03125 0.03125 0.03125 0.03125 0.03125 0.03125 0.03125 0.03125 0.03125 0.03125 0.03125 0.03125 0.03125 0.03125 0.03125 0.03125 0.03125 0.03125 0.03125 0.03125 0.03125 0.03125 0.03125 0.03125 0.03125 0.03125 0.03125 0.03125 0.03125 0.03125 0.03125 0.03125 0.03125 0.03125 0.03125 0.03125 0.03125 0.03125 0.03125 0.03125 0.03125 0.03125 0.03125 0.03125 0.03125 0.03125 0.03125 0.03125 0.03125 0.03125 0.03125 0.03125 0.03125 0.03125 0.03125 0.03125 0.03125 0.03125 0.03125 0.03125 0.03125 0.03125 0.03125 0.03125 0.03125 0.03125 0.03125 0.03125 0.03125 0.03125 0.03125 0.03125 0.03125 0.03125 0.03125 0.03125 0.03125 0.03125 0.03125 0.03125 0.03125 0.03125 0.03125 0.03125 0.03125 0.03125 0.03125 0.03125 0.03125 0.03125 0.03125 0.03125 0.03125 0.03125 0.03125 0.03125 0.03125 0.03125 0.03125 0.03125 0.03125 1:-1 2:0.723862 3:-0.881534 4:-0.116981 5:-0.997307 6:-0.85 7:-0.0849358 8:-0.999979 9:-0.950928 10:-0.522388 11:-0.883749 12:-0.582278 
-0.03125 -0.03125 -0.03125 -0.03125 -0.03125 -0.03125 -0.03125 -0.03125 -0.03125 -0.03125 -0.03125 -0.03125 0.03125 0.03125 0.03125 0.03125 0.03125 0.03125 0.03125 0.03125 0.03125 0.03125 0.03125 0.03125 0.03125 0.03125 0.03125 0.03125 0.03125 0.03125 0.03125 0.03125 0.03125 0.03125 0.03125 0.03125 0.03125 0.03125 0.03125 0.03125 0.03125 0.03125 0.03125 0.03125 0.03125 0.03125 0.03125 0.03125 0.03125 0.03125 0.03125 0.03125 0.03125 0.03125 0.03125 0.03125 0.03125 0.03125 0.03125 0.03125 0.03125 0.03125 0.03125 0.03125 0.03125 0.03125 0.03125 0.03125 0.03125 0.03125 0.03125 0.03125 0.03125 0.03125 0.03125 0.03125 0.03125 0.03125 0.03125 0.03125 0.03125 0.03125 0.03125 0.03125 0.03125 0.03125 0.03125 0.03125 0.03125 0.03125 0.03125 0.03125 0.03125 0.03125 0.03125 0.03125 0.03125 0.03125 0.03125 0.03125 0.03125 0.03125 0.03125 0.03125 0.03125 0.03125 0.03125 0.03125 0.03125 0.03125 0.03125 0.03125 0.03125 0.03125 0.03125 0.03125 0.03125 0.03125 0.03125 1:-1 2:0.597103 3:-0.802729 4:0.170252 5:-0.951834 6:-0.75 7:0.27506 8:-0.985057 9:-1 10:-0.502488 11:-0.686603 12:-0.860759 
-0.03125 -0.03125 -0.03125 -0.03125 -0.03125 -0.03125 -0.03125 -0.03125 -0.03125 -0.03125 -0.03125 -0.03125 -0.03125 0.03125 0.03125 0.03125 0.03125 0.03125 0.03125 0.03125 0.03125 0.03125 0.03125 0.03125 0.03125 0.03125 0.03125 0.03125 0.03125 0.03125 0.03125 0.03125 0.03125 0.03125 0.03125 0.03125 0.03125 0.03125 0.03125 0.03125 0.03125 0.03125 0.03125 0.03125 0.03125 0.03125 0.03125 0.03125 0.03125 0.03125 0.03125 0.03125 0.03125 0.03125 0.03125 0.03125 0.03125 0.03125 0.03125 0.03125 0.03125 0.03125 0.03125 0.03125 0.03125 0.03125 0.03125 0.03125 0.03125 0.03125 0.03125 0.03125 0.03125 0.03125 0.03125 0.03125 0.03125 0.03125 0.03125 0.03125 0.03125 0.03125 0.03125 0.03125 0.03125 0.03125 0.03125 0.03125 0.03125 0.03125 0.03125 0.03125 0.03125 0.03125 0.03125 0.03125 0.03125 0.03125 0.03125 0.03125 0.03125 0.03125 0.03125 0.03125 0.03125 0.03125 0.03125 0.03125 0.03125 0.03125 0.03125 0.03125 0.03125 0.03125 0.03125 0.03125 0.03125 0.03125 0.03125 1:-1 2:-0.160543 3:-0.539689 4:0.233278 5:-0.00847595 6:-0.3875 7:0.204845 8:-0.926395 9:-0.97878 10:-0.0945274 11:0.373853 12:-0.898734 
-0.03125 -0.03125 -0.03125 -0.03125 -0.03125 -0.03125 -0.03125 -0.03125 -0.03125 -0.03125 -0.03125 -0.03125 -0.03125 -0.03125 0.03125 0.03125 0.03125 0.03125 0.03125 0.03125 0.03125 0.03125 0.03125 0.03125 0.03125 0.03125 0.03125 0.03125 0.03125 0.03125 0.03125 0.03125 0.03125 0.03125 0.03125 0.03125 0.03125 0.03125 0.03125 0.03125 0.03125 0.03125 0.03125 0.03125 0.03125 0.03125 0.03125 0.03125 0.03125 0.03125 0.03125 0.03125 0.03125 0.03125 0.03125 0.03125 0.03125 0.03125 0.03125 0.03125 0.03125 0.03125 0.03125 0.03125 0.03125 0.03125 0.03125 0.03125 0.03125 0.03125 0.03125 0.03125 0.03125 0.03125 0.03125 0.03125 0.03125 0.03125 0.03125 0.03125 0.03125 0.03125 0.03125 0.03125 0.03125 0.03125 0.03125 0.03125 0.03125 0.03125 0.03125 0.03125 0.03125 0.03125 0.03125 0.03125 0.03125 0.03125 0.03125 0.03125 0.03125 0.03125 0.03125 0.03125 0.03125 0.03125 0.03125 0.03125 0.03125 0.03125 0.03125 0.03125 0.03125 0.03125 0.03125 0.03125 0.03125 0.03125 0.03125 1:-1 2:0.395031 3:-0.753823 4:0.59471 5:-0.999887 6:-0.6875 7:0.793278 8:-0.999673 9:-0.779841 10:-0.0646766 11:-0.958839 12:0.278481 
-0.03125 -0.03125 -0.03125 -0.03125 -0.03125 -0.03125 -0.03125 -0.03125 -0.03125 -0.03125 -0.03125 -0.03125 -0.03125 -0.03125 -0.03125 0.03125 0.03125 0.03125 0.03125 0.03125 0.03125 0.03125 0.03125 0.03125 0.03125 0.03125 0.03125 0.03125 0.03125 0.03125 0.03125 0.03125 0.03125 0.03125 0.03125 0.03125 0.03125 0.03125 0.03125 0.03125 0.03125 0.03125 0.03125 0.03125 0.03125 0.03125 0.03125 0.03125 0.03125 0.03125 0.03125 0.03125 0.03125 0.03125 0.03125 0.03125 0.03125 0.03125 0.03125 0.03125 0.03125 0.03125 0.03125 0.03125 0.03125 0.03125 0.03125 0.03125 0.03125 0.03125 0.03125 0.03125 0.03125 0.03125 0.03125 0.03125 0.03125 0.03125 0.03125 0.03125 0.03125 0.03125 0.03125 0.03125 0.03125 0.03125 0.03125 0.03125 0.03125 0.03125 0.03125 0.03125 0.03125 0.03125 0.03125 0.03125 0.03125 0.03125 0.03125 0.03125 0.03125 0.03125 0.03125 0.03125 0.03125 0.03125 0.03125 0.03125 0.03125 0.03125 0.03125 0.03125 0.03125 0.03125 0.03125 0.03125 0.03125 0.03125 0.03125 1:-1 2:0.546683 3:-0.948018 4:0.39226 5:-0.979532 6:-0.9375 7:0.413273 8:-0.999953 9:-0.877984 10:-0.522388 11:-0.665949 12:-0.164557 
-0.03125 -0.03125 -0.03125 -0.03125 -0.03125 -0.03125 -0.03125 -0.03125 -0.03125 -0.03125 -0.03125 -0.03125 -0.03125 -0.03125 -0.03125 -0.03125 0.03125 0.03125 0.03125 0.03125 0.03125 0.03125 0.03125 0.03125 0.03125 0.03125 0.03125 0.03125 0.03125 0.03125 0.03125 0.03125 0.03125 0.03125 0.03125 0.03125 0.03125 0.03125 0.03125 0.03125 0.03125 0.03125 0.03125 0.03125 0.03125 0.03125 0.03125 0.03125 0.03125 0.03125 0.03125 0.03125 0.03125 0.03125 0.03125 0.03125 0.03125 0.03125 0.03125 0.03125 0.03125 0.03125 0.03125 0.03125 0.03125 0.03125 0.03125 0.03125 0.03125 0.03125 0.03125 0.03125 0.03125 0.03125 0.03125 0.03125 0.03125 0.03125 0.03125 0.03125 0.03125 0.03125 0.03125 0.03125 0.03125 0.03125 0.03125 0.03125 0.03125 0.03125 0.03125 0.03125 0.03125 0.03125 0.03125 0.03125 0.03125 0.03125 0.03125 0.03125 0.03125 0.03125 0.03125 0.03125 0.03125 0.03125 0.03125 0.03125 0.03125 0.03125 0.03125 0.03125 0.03125 0.03125 0.03125 0.03125 0.03125 0.03125 0.03125 1:-1 2:0.289501 3:-0.132834 4:0.33075 5:0.778736 6:0.05 7:0.358972 8:-0.594492 9:-0.543103 10:0.223881 11:0.903088 12:-0.253165 
-0.03125 -0.03125 -0.03125 -0.03125 -0.03125 -0.03125 -0.03125 -0.03125 -0.03125 -0.03125 -0.03125 -0.03125 -0.03125 -0.03125 -0.03125 -0.03125 -0.03125 0.03125 0.03125 0.03125 0.03125 0.03125 0.03125 0.03125 0.03125 0.03125 0.03125 0.03125 0.03125 0.03125 0.03125 0.03125 0.03125 0.03125 0.03125 0.03125 0.03125 0.03125 0.03125 0.03125 0.03125 0.03125 0.03125 0.03125 0.03125 0.03125 0.03125 0.03125 0.03125 0.03125 0.03125 0.03125 0.03125 0.03125 0.03125 0.03125 0.03125 0.03125 0.03125 0.03125 0.03125 0.03125 0.03125 0.03125 0.03125 0.03125 0.03125 0.03125 0.03125 0.03125 0.03125 0.03125 0.03125 0.03125 0.03125 0.03125 0.03125 0.03125 0.03125 0.03125 0.03125 0.03125 0.03125 0.03125 0.03125 0.03125 0.03125 0.03125 0.03125 0.03125 0.03125 0.03125 0.03125 0.03125 0.03125 0.03125 0.03125 0.03125 0.03125 0.03125 0.03125 0.03125 0.03125 0.03125 0.03125 0.03125 0.03125 0.03125 0.03125 0.03125 0.03125 0.03125 0.03125 0.03125 0.03125 0.03125 0.03125 0.03125 0.03125 1:-1 2:0.2671 3:-0.380197 4:0.548748 5:-0.482226 6:-0.175 7:0.735444 8:-0.926605 9:-0.960875 10:0.641791 11:0.349514 12:0.43038 
-0.03125 -0.03125 -0.03125 -0.03125 -0.03125 -0.03125 -0.03125 -0.03125 -0.03125 -0.03125 -0.03125 -0.03125 -0.03125 -0.03125 -0.03125 -0.03125 -0.03125 -0.03125 0.03125 0.03125 0.03125 0.03125 0.03125 0.03125 0.03125 0.03125 0.03125 0.03125 0.03125 0.03125 0.03125 0.03125 0.03125 0.03125 0.03125 0.03125 0.03125 0.03125 0.03125 0.03125 0.03125 0.03125 0.03125 0.03125 0.03125 0.03125 0.03125 0.03125 0.03125 0.03125 0.03125 0.03125 0.03125 0.03125 0.03125 0.03125 0.03125 0.03125 0.03125 0.03125 0.03125 0.03125 0.03125 0.03125 0.03125 0.03125 0.03125 0.03125 0.03125 0.03125 0.03125 0.03125 0.03125 0.03125 0.03125 0.03125 0.03125 0.03125 0.03125 0.03125 0.03125 0.03125 0.03125 0.03125 0.03125 0.03125 0.03125 0.03125 0.03125 0.03125 0.03125 0.03125 0.03125 0.03125 0.03125 0.03125 0.03125 0.03125 0.03125 0.03125 0.03125 0.03125 0.03125 0.03125 0.03125 0.03125 0.03125 0.03125 0.03125 0.03125 0.03125 0.03125 0.03125 0.03125 0.03125 0.03125 0.03125 0.03125 0.03125 1:-1 2:0.795192 3:-0.951979 4:-0.0154264 5:-0.999987 6:-0.9375 7:0.740708 8:-0.999973 9:-0.933687 10:-0.442786 11:-0.982651 12:-0.556962 
-0.03125 -0.03125 -0.03125 -0.03125 -0.03125 -0.03125 -0.03125 -0.03125 -0.03125 -0.03125 -0.03125 -0.03125 -0.03125 -0.03125 -0.03125 -0.03125 -0.03125 -0.03125 -0.03125 0.03125 0.03125 0.03125 0.03125 0.03125 0.03125 0.03125 0.03125 0.03125 0.03125 0.03125 0.03125 0.03125 0.03125 0.03125 0.03125 0.03125 0.03125 0.03125 0.03125 0.03125 0.03125 0.03125 0.03125 0.03125 0.03125 0.03125 0.03125 0.03125 0.03125 0.03125 0.03125 0.03125 0.03125 0.03125 0.03125 0.03125 0.03125 0.03125 0.03125 0.03125 0.03125 0.03125 0.03125 0.03125 0.03125 0.03125 0.03125 0.03125 0.03125 0.03125 0.03125 0.03125 0.03125 0.03125 0.03125 0.03125 0.03125 0.03125 0.03125 0.03125 0.03125 0.03125 0.03125 0.03125 0.03125 0.03125 0.03125 0.03125 0.03125 0.03125 0.03125 0.03125 0.03125 0.03125 0.03125 0.03125 0.03125 0.03125 0.03125 0.03125 0.03125 0.03125 0.03125 0.03125 0.03125 0.03125 0.03125 0.03125 0.03125 0.03125 0.03125 0.03125 0.03125 0.03125 0.03125 0.03125 0.03125 0.03125 0.03125 1:-1 2:0.621458 3:-0.689514 4:0.436485 5:-0.83292 6:-0.6375 7:0.519168 8:-0.9975 9:-0.96817 10:-0.144279 11:-0.136555 12:-0.417722 
-0.03125 -0.03125 -0.03125 -0.03125 -0.03125 -0.03125 -0.03125 -0.03125 -0.03125 -0.03125 -0.03125 -0.03125 -0.03125 -0.03125 -0.03125 -0.03125 -0.03125 -0.03125 -0.03125 -0.03125 0.03125 0.03125 0.03125 0.03125 0.03125 0.03125 0.03125 0.03125 0.03125 0.03125 0.03125 0.03125 0.03125 0.03125 0.03125 0.03125 0.03125 0.03125 0.03125 0.03125 0.03125 0.03125 0.03125 0.03125 0.03125 0.03125 0.03125 0.03125 0.03125 0.03125 0.03125 0.03125 0.03125 0.03125 0.03125 0.03125 0.03125 0.03125 0.03125 0.03125 0.03125 0.03125 0.03125 0.03125 0.03125 0.03125 0.03125 0.03125 0.03125 0.03125 0.03125 0.03125 0.03125 0.03125 0.03125 0.03125 0.03125 0.03125 0.03125 0.03125 0.03125 0.03125 0.03125 0.03125 0.03125 0.03125 0.03125 0.03125 0.03125 0.03125 0.03125 0.03125 0.03125 0.03125 0.03125 0.03125 0.03125 0.03125 0.03125 0.03125 0.03125 0.03125 0.03125 0.03125 0.03125 0.03125 0.03125 0.03125 0.03125 0.03125 0.03125 0.03125 0.03125 0.03125 0.03125 0.03125 0.03125 0.03125 0.03125 1:-1 2:-1 3:-0.899712 4:0.0825347 5:-0.95021 6:-0.875 7:0.565524 8:-0.632253 9:-0.752653 10:-0.651741 11:-0.753202 12:-0.0886076 
-0.03125 -0.03125 -0.03125 -0.03125 -0.03125 -0.03125 -0.03125 -0.03125 -0.03125 -0.03125 -0.03125 -0.03125 -0.03125 -0.03125 -0.03125 -0.03125 -0.03125 -0.03125 -0.03125 -0.03125 -0.03125 0.03125 0.03125 0.03125 0.03125 0.03125 0.03125 0.03125 0.03125 0.03125 0.03125 0.03125 0.03125 0.03125 0.03125 0.03125 0.03125 0.03125 0.03125 0.03125 0.03125 0.03125 0.03125 0.03125 0.03125 0.03125 0.03125 0.03125 0.03125 0.03125 0.03125 0.03125 0.03125 0.03125 0.03125 0.03125 0.03125 0.03125 0.03125 0.03125 0.03125 0.03125 0.03125 0.03125 0.03125 0.03125 0.03125 0.03125 0.03125 0.03125 0.03125 0.03125 0.03125 0.03125 0.03125 0.03125 0.03125 0.03125 0.03125 0.03125 0.03125 0.03125 0.03125 0.03125 0.03125 0.03125 0.03125 0.03125 0.03125 0.03125 0.03125 0.03125 0.03125 0.03125 0.03125 0.03125 0.03125 0.03125 0.03125 0.03125 0.03125 0.03125 0.03125 0.03125 0.03125 0.03125 0.03125 0.03125 0.03125 0.03125 0.03125 0.03125 0.03125 0.03125 0.03125 0.03125 0.03125 0.03125 0.03125 1:-1 2:0.76451 3:-0.94947 4:0.747922 5:-0.924808 6:-0.9375 7:0.619507 8:-0.977218 9:-0.718833 10:-0.542289 11:-0.431184 12:-0.860759 
-0.03125 -0.03125 -0.03125 -0.03125 -0.03125 -0.03125 -0.03125 -0.03125 -0.03125 -0.03125 -0.03125 -0.03125 -0.03125 -0.03125 -0.03125 -0.03125 -0.03125 -0.03125 -0.03125 -0.03125 -0.03125 -0.03125 0.03125 0.03125 0.03125 0.03125 0.03125 0.03125 0.03125 0.03125 0.03125 0.03125 0.03125 0.03125 0.03125 0.03125 0.03125 0.03125 0.03125 0.03125 0.03125 0.03125 0.03125 0.03125 0.03125 0.03125 0.03125 0.03125 0.03125 0.03125 0.03125 0.03125 0.03125 0.03125 0.03125 0.03125 0.03125 0.03125 0.03125 0.03125 0.03125 0.03125 0.03125 0.03125 0.03125 0.03125 0.03125 0.03125 0.03125 0.03125 0.03125 0.03125 0.03125 0.03125 0.03125 0.03125 0.03125 0.03125 0.03125 0.03125 0.03125 0.03125 0.03125 0.03125 0.03125 0.03125 0.03125 0.03125 0.03125 0.03125 0.03125 0.03125 0.03125 0.03125 0.03125 0.03125 0.03125 0.03125 0.03125 0.03125 0.03125 0.03125 0.03125 0.03125 0.03125 0.03125 0.03125 0.03125 0.03125 0.03125 0.03125 0.03125 0.03125 0.03125 0.03125 0.03125 0.03125 0.03125 0.03125 1:-1 2:-1 3:-0.80168 4:0.460273 5:-0.840547 6:-0.75 7:0.552412 8:-0.992948 9:-0.956233 10:-0.0646766 11:-0.324485 12:-0.721519 
-0.0096871811291578125 -0.03125 -0.03125 -0.03125 -0.03125 -0.019342672413793102 -0.03125 -0.03125 -0.013431513775220382 -0.015865254386610843 -0.016173129115734992 -0.03125 -0.03125 -0.03125 -0.022003320859018325 -0.03125 -0.013122044691885297 -0.0143760946803139 -0.03125 -0.03125 -0.020678708369274788 -0.03125 -0.03125 0.026997840882792282 0.019673525567524351 0.022328470498201174 0.027796826018808778 0.020505762028991605 0.023120831667753677 0.022985278686541415 0 0.025277910731943364 0.02922347717805222 0.03125 0.023700305458542847 0.018180568997075593 0.016446125291914752 0.010001597641539206 0.027958463949843259 0.016338711840693441 0.024031487345101091 0.019678670236266859 0.016705413309208727 0.019622226809871451 0.011808444751846163 0.017434312606509437 0.03125 0.020459706559929309 0 0.023108537060023984 0.03125 0.014330285760871852 0.021866633749552923 0.027316728161620837 0.024470822331741391 0.03125 0.017478116255706801 0 0.028018359070922136 0.026047819449411962 0.0090416320401422237 0.021679140981675116 0.025134583219372619 0 0.022228453535587302 0.018585189797184994 0.020291181676169237 0.024625622619974332 0.022116487134712082 0.03125 0 0.019811494735015044 0.028330162157328902 0.016740801398034966 0.018718343028760177 0.0095853068260714058 0.018494229423954893 0.023956651317035199 0.022551367791546571 0.0184934075918874 0.025622356988070943 0.0099031421598535698 0 0.016354244466769054 0.024377692321853106 0 0 0.023657931797142918 0 0.023266131577286402 0.015139642417580106 0.021316384307083797 0.017292004165702382 0.012231145857440407 0.01342378855378595 0 0.03125 0.014265163787843723 0.025291405214491594 0.01522233516021123 0.012703502056552565 0 0 0.022689123282699713 0.020513651616839535 0.017006450395531336 0.018730259593738825 0.028784569544087018 0.02497733387157855 0.024156948228524541 0.014517499105846711 0.023214964312764302 0.03125 0.0091570830089836106 0 0.018938873445751195 0.024270229560707748 0.011028526119795502 0.017280630009888283 1:-1 2:-1 3:-0.719876 4:0.701838 5:-0.972256 6:-0.7 7:0.716458 8:-0.969393 9:-0.994032 10:-0.651741 11:-0.940482 12:-0.974684 
-0.021562818870842188 -0.03125 -0.03125 -0 -0 -0.011907327586206896 -0 -0.03125 -0.01781848622477962 -0.015384745613389157 -0.015076870884265006 -0 -0 -0 -0.009246679140981675 -0 -0.018127955308114702 -0.016873905319686099 -0 -0 -0.010571291630725212 -0 -0 0.0042521591172077176 0.011576474432475649 0.0089215295017988257 0.0034531739811912224 0.010744237971008395 0.0081291683322463233 0.0082647213134585847 0.03125 0.0059720892680566358 0.00202652282194778 0.03125 0.0075496945414571526 0.013069431002924407 0.014803874708085248 0.021248402358460795 0.003291536050156741 0.014911288159306559 0.0072185126548989093 0.011571329763733141 0.014544586690791273 0.011627773190128549 0.019441555248153837 0.013815687393490563 0.03125 0.010790293440070691 0.03125 0.0081414629399760158 0.03125 0.01691971423912815 0.0093833662504470769 0.0039332718383791633 0.006779177668258609 0.03125 0.013771883744293199 0.03125 0.0032316409290778642 0.0052021805505880377 0.022208367959857776 0.0095708590183248843 0.0061154167806273807 0.03125 0.0090215464644126976 0.012664810202815006 0.010958818323830763 0.0066243773800256679 0.0091335128652879176 0.03125 0.03125 0.011438505264984956 0.0029198378426710976 0.014509198601965034 0.012531656971239823 0.021664693173928593 0.012755770576045107 0.0072933486829648009 0.0086986322084534294 0.0127565924081126 0.0056276430119290566 0.021346857840146428 0.03125 0.014895755533230946 0.0068723076781468939 0.03125 0.03125 0.0075920682028570823 0.03125 0.0079838684227135984 0.016110357582419896 0.0099336156929162034 0.013957995834297618 0.019018854142559591 0.01782621144621405 0.03125 0.03125 0.016984836212156275 0.0059585947855084059 0.01602766483978877 0.018546497943447433 0.03125 0.03125 0.0085608767173002871 0.010736348383160465 0.014243549604468664 0.012519740406261175 0.0024654304559129821 0.0062726661284214502 0.0070930517714754594 0.01673250089415329 0.0080350356872356983 0.03125 0.022092916991016391 0.03125 0.012311126554248805 0.0069797704392922516 0.020221473880204496 0.013969369990111717 1:-0.9982 2:-1 3:-0.678688 4:0.118888 5:-0.757863 6:-0.575 7:0.366747 8:1 9:-0.988727 10:-0.124378 11:-0.278492 12:0.556962 
-0.03125 -0.03125 -0.03125 -0.03125 -0.03125 -0.03125 -0.03125 -0.03125 -0.03125 -0.03125 -0.03125 -0.03125 -0.03125 -0.03125 -0.03125 -0.03125 -0.03125 -0.03125 -0.03125 -0.03125 -0.03125 -0.03125 -0.03125 -0.03125 0.03125 0.03125 0.03125 0.03125 0.03125 0.03125 0.03125 0.03125 0.03125 0.03125 0.03125 0.03125 0.03125 0.03125 0.03125 0.03125 0.03125 0.03125 0.03125 0.03125 0.03125 0.03125 0.03125 0.03125 0.03125 0.03125 0.03125 0.03125 0.03125 0.03125 0.03125 0.03125 0.03125 0.03125 0.03125 0.03125 0.03125 0.03125 0.03125 0.03125 0.03125 0.03125 0.03125 0.03125 0.03125 0.03125 0.03125 0.03125 0.03125 0.03125 0.03125 0.03125 0.03125 0.03125 0.03125 0.03125 0.03125 0.03125 0.03125 0.03125 0.03125 0.03125 0.03125 0.03125 0.03125 0.03125 0.03125 0.03125 0.03125 0.03125 0.03125 0.03125 0.03125 0.03125 0.03125 0.03125 0.03125 0.03125 0.03125 0.03125 0.03125 0.03125 0.03125 0.03125 0.03125 0.03125 0.03125 0.03125 0.03125 0.03125 0.03125 0.03125 0.03125 0.03125 0.03125 1:-1 2:0.91687 3:-0.791631 4:0.363583 5:-0.981604 6:-0.75 7:0.627526 8:-0.999486 9:-0.937666 10:-0.492537 11:-0.837849 12:-0.556962 
-0.03125 -0.03125 -0.03125 -0.03125 -0.03125 -0.03125 -0.03125 -0.03125 -0.03125 -0.03125 -0.03125 -0.03125 -0.03125 -0.03125 -0.03125 -0.03125 -0.03125 -0.03125 -0.03125 -0.03125 -0.03125 -0.03125 -0.03125 -0.03125 -0.03125 0.03125 0.03125 0.03125 0.03125 0.03125 0.03125 0.03125 0.03125 0.03125 0.03125 0.03125 0.03125 0.03125 0.03125 0.03125 0.03125 0.03125 0.03125 0.03125 0.03125 0.03125 0.03125 0.03125 0.03125 0.03125 0.03125 0.03125 0.03125 0.03125 0.03125 0.03125 0.03125 0.03125 0.03125 0.03125 0.03125 0.03125 0.03125 0.03125 0.03125 0.03125 0.03125 0.03125 0.03125 0.03125 0.03125 0.03125 0.03125 0.03125 0.03125 0.03125 0.03125 0.03125 0.03125 0.03125 0.03125 0.03125 0.03125 0.03125 0.03125 0.03125 0.03125 0.03125 0.03125 0.03125 0.03125 0.03125 0.03125 0.03125 0.03125 0.03125 0.03125 0.03125 0.03125 0.03125 0.03125 0.03125 0.03125 0.03125 0.03125 0.03125 0.03125 0.03125 0.03125 0.03125 0.03125 0.03125 0.03125 0.03125 0.03125 0.03125 0.03125 0.03125 0.03125 1:-1 2:0.132158 3:-0.435594 4:0.26105 5:-0.447366 6:-0.2875 7:0.46594 8:-0.583308 9:-0.878647 10:-0.104478 11:0.00735098 12:-0.607595 
-0.03125 -0.03125 -0.03125 -0.03125 -0.03125 -0.03125 -0.03125 -0.03125 -0.03125 -0.03125 -0.03125 -0.03125 -0.03125 -0.03125 -0.03125 -0.03125 -0.03125 -0.03125 -0.03125 -0.03125 -0.03125 -0.03125 -0.03125 -0.03125 -0.03125 -0.03125 0.03125 0.03125 0.03125 0.03125 0.03125 0.03125 0.03125 0.03125 0.03125 0.03125 0.03125 0.03125 0.03125 0.03125 0.03125 0.03125 0.03125 0.03125 0.03125 0.03125 0.03125 0.03125 0.03125 0.03125 0.03125 0.03125 0.03125 0.03125 0.03125 0.03125 0.03125 0.03125 0.03125 0.03125 0.03125 0.03125 0.03125 0.03125 0.03125 0.03125 0.03125 0.03125 0.03125 0.03125 0.03125 0.03125 0.03125 0.03125 0.03125 0.03125 0.03125 0.03125 0.03125 0.03125 0.03125 0.03125 0.03125 0.03125 0.03125 0.03125 0.03125 0.03125 0.03125 0.03125 0.03125 0.03125 0.03125 0.03125 0.03125 0.03125 0.03125 0.03125 0.03125 0.03125 0.03125 0.03125 0.03125 0.03125 0.03125 0.03125 0.03125 0.03125 0.03125 0.03125 0.03125 0.03125 0.03125 0.03125 0.03125 0.03125 0.03125 0.03125 0.03125 1:-1 2:0.592168 3:-0.639009 4:0.247286 5:-0.658213 6:-0.5625 7:0.434793 8:-0.926062 9:-0.87069 10:-0.283582 11:-0.122463 12:-0.43038 
-0.03125 -0.03125 -0.03125 -0.03125 -0.03125 -0.03125 -0.03125 -0.03125 -0.03125 -0.03125 -0.03125 -0.03125 -0.03125 -0.03125 -0.03125 -0.03125 -0.03125 -0.03125 -0.03125 -0.03125 -0.03125 -0.03125 -0.03125 -0.03125 -0.03125 -0.03125 -0.03125 0.03125 0.03125 0.03125 0.03125 0.03125 0.03125 0.03125 0.03125 0.03125 0.03125 0.03125 0.03125 0.03125 0.03125 0.03125 0.03125 0.03125 0.03125 0.03125 0.03125 0.03125 0.03125 0.03125 0.03125 0.03125 0.03125 0.03125 0.03125 0.03125 0.03125 0.03125 0.03125 0.03125 0.03125 0.03125 0.03125 0.03125 0.03125 0.03125 0.03125 0.03125 0.03125 0.03125 0.03125 0.03125 0.03125 0.03125 0.03125 0.03125 0.03125 0.03125 0.03125 0.03125 0.03125 0.03125 0.03125 0.03125 0.03125 0.03125 0.03125 0.03125 0.03125 0.03125 0.03125 0.03125 0.03125 0.03125 0.03125 0.03125 0.03125 0.03125 0.03125 0.03125 0.03125 0.03125 0.03125 0.03125 0.03125 0.03125 0.03125 0.03125 0.03125 0.03125 0.03125 0.03125 0.03125 0.03125 0.03125 0.03125 0.03125 0.03125 0.03125 1:-1 2:-0.230042 3:-0.958024 4:0.763495 5:-0.993 6:-0.95 7:0.844922 8:-0.999977 9:-0.463528 10:-0.771144 11:-0.807965 12:-0.341772 
-0.03125 -0.03125 -0.03125 -0.03125 -0.03125 -0.03125 -0.03125 -0.03125 -0.03125 -0.03125 -0.03125 -0.03125 -0.03125 -0.03125 -0.03125 -0.03125 -0.03125 -0.03125 -0.03125 -0.03125 -0.03125 -0.03125 -0.03125 -0.03125 -0.03125 -0.03125 -0.03125 -0.03125 0.03125 0.03125 0.03125 0.03125 0.03125 0.03125 0.03125 0.03125 0.03125 0.03125 0.03125 0.03125 0.03125 0.03125 0.03125 0.03125 0.03125 0.03125 0.03125 0.03125 0.03125 0.03125 0.03125 0.03125 0.03125 0.03125 0.03125 0.03125 0.03125 0.03125 0.03125 0.03125 0.03125 0.03125 0.03125 0.03125 0.03125 0.03125 0.03125 0.03125 0.03125 0.03125 0.03125 0.03125 0.03125 0.03125 0.03125 0.03125 0.03125 0.03125 0.03125 0.03125 0.03125 0.03125 0.03125 0.03125 0.03125 0.03125 0.03125 0.03125 0.03125 0.03125 0.03125 0.03125 0.03125 0.03125 0.03125 0.03125 0.03125 0.03125 0.03125 0.03125 0.03125 0.03125 0.03125 0.03125 0.03125 0.03125 0.03125 0.03125 0.03125 0.03125 0.03125 0.03125 0.03125 0.03125 0.03125 0.03125 0.03125 0.03125 0.03125 1:-1 2:-1 3:-0.905302 4:0.291952 5:-0.969813 6:-0.8875 7:0.562014 8:-0.945066 9:-0.905836 10:-0.472637 11:-0.537485 12:0.265823 
-0.03125 -0.03125 -0.03125 -0.03125 -0.03125 -0.03125 -0.03125 -0.03125 -0.03125 -0.03125 -0.03125 -0.03125 -0.03125 -0.03125 -0.03125 -0.03125 -0.03125 -0.03125 -0.03125 -0.03125 -0.03125 -0.03125 -0.03125 -0.03125 -0.03125 -0.03125 -0.03125 -0.03125 -0.03125 0.03125 0.03125 0.03125 0.03125 0.03125 0.03125 0.03125 0.03125 0.03125 0.03125 0.03125 0.03125 0.03125 0.03125 0.03125 0.03125 0.03125 0.03125 0.03125 0.03125 0.03125 0.03125 0.03125 0.03125 0.03125 0.03125 0.03125 0.03125 0.03125 0.03125 0.03125 0.03125 0.03125 0.03125 0.03125 0.03125 0.03125 0.03125 0.03125 0.03125 0.03125 0.03125 0.03125 0.03125 0.03125 0.03125 0.03125 0.03125 0.03125 0.03125 0.03125 0.03125 0.03125 0.03125 0.03125 0.03125 0.03125 0.03125 0.03125 0.03125 0.03125 0.03125 0.03125 0.03125 0.03125 0.03125 0.03125 0.03125 0.03125 0.03125 0.03125 0.03125 0.03125 0.03125 0.03125 0.03125 0.03125 0.03125 0.03125 0.03125 0.03125 0.03125 0.03125 0.03125 0.03125 0.03125 0.03125 0.03125 0.03125 0.03125 1:-1 2:0.942593 3:-0.990209 4:-1 5:-1 6:-0.9875 7:0.922303 8:-0.932217 9:-0.967507 10:-0.940299 11:-0.988319 12:-0.253165 
-0.03125 -0.03125 -0.03125 -0.03125 -0.03125 -0.03125 -0.03125 -0.03125 -0.03125 -0.03125 -0.03125 -0.03125 -0.03125 -0.03125 -0.03125 -0.03125 -0.03125 -0.03125 -0.03125 -0.03125 -0.03125 -0.03125 -0.03125 -0.03125 -0.03125 -0.03125 -0.03125 -0.03125 -0.03125 -0.03125 0.03125 0.03125 0.03125 0.03125 0.03125 0.03125 0.03125 0.03125 0.03125 0.03125 0.03125 0.03125 0.03125 0.03125 0.03125 0.03125 0.03125 0.03125 0.03125 0.03125 0.03125 0.03125 0.03125 0.03125 0.03125 0.03125 0.03125 0.03125 0.03125 0.03125 0.03125 0.03125 0.03125 0.03125 0.03125 0.03125 0.03125 0.03125 0.03125 0.03125 0.03125 0.03125 0.03125 0.03125 0.03125 0.03125 0.03125 0.03125 0.03125 0.03125 0.03125 0.03125 0.03125 0.03125 0.03125 0.03125 0.03125 0.03125 0.03125 0.03125 0.03125 0.03125 0.03125 0.03125 0.03125 0.03125 0.03125 0.03125 0.03125 0.03125 0.03125 0.03125 0.03125 0.03125 0.03125 0.03125 0.03125 0.03125 0.03125 0.03125 0.03125 0.03125 0.03125 0.03125 0.03125 0.03125 0.03125 0.03125 0.03125 1:-0.9982 2:0.663548 3:-0.876859 4:0.360063 5:-0.953777 6:-0.8375 7:0.35946 8:-0.999916 9:-0.97878 10:-0.363184 11:-0.474604 12:-0.164557 
-0.03125 -0.03125 -0.03125 -0.03125 -0.03125 -0.03125 -0.03125 -0.03125 -0.03125 -0.03125 -0.03125 -0.03125 -0.03125 -0.03125 -0.03125 -0.03125 -0.03125 -0.03125 -0.03125 -0.03125 -0.03125 -0.03125 -0.03125 -0.03125 -0.03125 -0.03125 -0.03125 -0.03125 -0.03125 -0.03125 -0.03125 0.03125 0.03125 0.03125 0.03125 0.03125 0.03125 0.03125 0.03125 0.03125 0.03125 0.03125 0.03125 0.03125 0.03125 0.03125 0.03125 0.03125 0.03125 0.03125 0.03125 0.03125 0.03125 0.03125 0.03125 0.03125 0.03125 0.03125 0.03125 0.03125 0.03125 0.03125 0.03125 0.03125 0.03125 0.03125 0.03125 0.03125 0.03125 0.03125 0.03125 0.03125 0.03125 0.03125 0.03125 0.03125 0.03125 0.03125 0.03125 0.03125 0.03125 0.03125 0.03125 0.03125 0.03125 0.03125 0.03125 0.03125 0.03125 0.03125 0.03125 0.03125 0.03125 0.03125 0.03125 0.03125 0.03125 0.03125 0.03125 0.03125 0.03125 0.03125 0.03125 0.03125 0.03125 0.03125 0.03125 0.03125 0.03125 0.03125 0.03125 0.03125 0.03125 0.03125 0.03125 0.03125 0.03125 0.03125 0.03125 1:-0.9982 2:-0.44081 3:-0.600871 4:0.219025 5:-0.891008 6:-0.4625 7:0.328849 8:0.574852 9:-0.960875 10:-0.00497512 11:0.791877 12:-0.291139 
-0.03125 -0.03125 -0.03125 -0.03125 -0.03125 -0.03125 -0.03125 -0.03125 -0.03125 -0.03125 -0.03125 -0.03125 -0.03125 -0.03125 -0.03125 -0.03125 -0.03125 -0.03125 -0.03125 -0.03125 -0.03125 -0.03125 -0.03125 -0.03125 -0.03125 -0.03125 -0.03125 -0.03125 -0.03125 -0.03125 -0.03125 -0.03125 0.03125 0.03125 0.03125 0.03125 0.03125 0.03125 0.03125 0.03125 0.03125 0.03125 0.03125 0.03125 0.03125 0.03125 0.03125 0.03125 0.03125 0.03125 0.03125 0.03125 0.03125 0.03125 0.03125 0.03125 0.03125 0.03125 0.03125 0.03125 0.03125 0.03125 0.03125 0.03125 0.03125 0.03125 0.03125 0.03125 0.03125 0.03125 0.03125 0.03125 0.03125 0.03125 0.03125 0.03125 0.03125 0.03125 0.03125 0.03125 0.03125 0.03125 0.03125 0.03125 0.03125 0.03125 0.03125 0.03125 0.03125 0.03125 0.03125 0.03125 0.03125 0.03125 0.03125 0.03125 0.03125 0.03125 0.03125 0.03125 0.03125 0.03125 0.03125 0.03125 0.03125 0.03125 0.03125 0.03125 0.03125 0.03125 0.03125 0.03125 0.03125 0.03125 0.03125 0.03125 0.03125 0.03125 0.03125 1:-0.9982 2:0.896448 3:-0.511951 4:0.566375 5:-0.999904 6:-0.4 7:0.927933 8:-0.999998 9:0.795093 10:-0.293532 11:-0.997973 12:-0.21519 
-0.03125 -0.03125 -0.03125 -0.03125 -0.03125 -0.03125 -0.03125 -0.03125 -0.03125 -0.03125 -0.03125 -0.03125 -0.03125 -0.03125 -0.03125 -0.03125 -0.03125 -0.03125 -0.03125 -0.03125 -0.03125 -0.03125 -0.03125 -0.03125 -0.03125 -0.03125 -0.03125 -0.03125 -0.03125 -0.03125 -0.03125 -0.03125 -0.03125 0.03125 0.03125 0.03125 0.03125 0.03125 0.03125 0.03125 0.03125 0.03125 0.03125 0.03125 0.03125 0.03125 0.03125 0.03125 0.03125 0.03125 0.03125 0.03125 0.03125 0.03125 0.03125 0.03125 0.03125 0.03125 0.03125 0.03125 0.03125 0.03125 0.03125 0.03125 0.03125 0.03125 0.03125 0.03125 0.03125 0.03125 0.03125 0.03125 0.03125 0.03125 0.03125 0.03125 0.03125 0.03125 0.03125 0.03125 0.03125 0.03125 0.03125 0.03125 0.03125 0.03125 0.03125 0.03125 0.03125 0.03125 0.03125 0.03125 0.03125 0.03125 0.03125 0.03125 0.03125 0.03125 0.03125 0.03125 0.03125 0.03125 0.03125 0.03125 0.03125 0.03125 0.03125 0.03125 0.03125 0.03125 0.03125 0.03125 0.03125 0.03125 0.03125 0.03125 0.03125 0.03125 0.03125 1:-0.9982 2:0.751563 3:-0.364425 4:0.682769 5:-0.996541 6:-0.225 7:0.72126 8:-0.997731 9:-0.748011 10:-0.0945274 11:-0.9382 12:-0.924051 
-0.03125 -0.03125 -0.03125 -0.03125 -0.03125 -0.03125 -0.03125 -0.03125 -0.03125 -0.03125 -0.03125 -0.03125 -0.03125 -0.03125 -0 -0.03125 -0.03125 -0.03125 -0.03125 -0.03125 -0 -0.03125 -0.03125 -0.03125 -0.03125 -0.03125 -0.03125 -0 -0 -0.03125 -0.03125 -0.03125 -0.03125 -0.03125 0 0 0.03125 0 0 0.03125 0 0 0 0 0.03125 0 0.03125 0 0 0 0.03125 0 0 0 0 0.03125 0 0 0 0 0 0.03125 0 0.03125 0.03125 0 0 0 0.03125 0.03125 0 0.03125 0 0 0 0 0 0 0 0 0.03125 0 0 0 0 0.03125 0 0 0.03125 0 0 0 0 0 0 0.03125 0.03125 0 0 0 0 0 0 0 0.03125 0 0.03125 0 0 0 0.03125 0 0.03125 0 0 0 0 0 0 1:-0.9982 2:-0.465409 3:-0.424355 4:0.319846 5:-0.815025 6:-0.3125 7:0.587824 8:-0.979905 9:-0.979443 10:-0.114428 11:-0.523917 12:-0.670886 
-0 -0.03125 -0.03125 -0 -0 -0 -0 -0.03125 -0 -0 -0 -0 -0 -0 -0.03125 -0 -0 -0 -0 -0 -0.03125 -0 -0 -0.03125 -0 -0 -0 -0.03125 -0.03125 -0 -0 -0 -0 -0 0.03125 0.03125 0 0.03125 0.03125 0 0.03125 0.03125 0.03125 0.03125 0 0.03125 0.03125 0.03125 0.03125 0.03125 0.03125 0.03125 0.03125 0.03125 0.03125 0.03125 0.03125 0.03125 0.03125 0.03125 0.03125 0 0.03125 0 0 0.03125 0.03125 0.03125 0 0.03125 0.03125 0 0.03125 0.03125 0.03125 0.03125 0.03125 0.03125 0.03125 0.03125 0 0.03125 0.03125 0.03125 0.03125 0 0.03125 0.03125 0 0.03125 0.03125 0.03125 0.03125 0.03125 0.03125 0 0.03125 0.03125 0.03125 0.03125 0.03125 0.03125 0.03125 0.03125 0 0.03125 0 0.03125 0.03125 0.03125 0 0.03125 0.03125 0.03125 0.03125 0.03125 0.03125 0.03125 0.03125 1:-0.9982 2:-1 3:-0.836814 4:0.407295 5:-0.999954 6:-0.8 7:0.840243 8:-0.999997 9:-0.984085 10:-0.323383 11:-0.981372 12:-0.0886076 
-0.03125 -0.03125 -0.03125 -0.03125 -0.03125 -0.03125 -0.03125 -0.03125 -0.03125 -0.03125 -0.03125 -0.03125 -0.03125 -0.03125 -0.03125 -0.03125 -0.03125 -0.03125 -0.03125 -0.03125 -0.03125 -0.03125 -0.03125 -0.03125 -0.03125 -0.03125 -0.03125 -0.03125 -0.03125 -0.03125 -0.03125 -0.03125 -0.03125 -0.03125 -0.03125 0.03125 0.03125 0.03125 0.03125 0.03125 0.03125 0.03125 0.03125 0.03125 0.03125 0.03125 0.03125 0.03125 0.03125 0.03125 0.03125 0.03125 0.03125 0.03125 0.03125 0.03125 0.03125 0.03125 0.03125 0.03125 0.03125 0.03125 0.03125 0.03125 0.03125 0.03125 0.03125 0.03125 0.03125 0.03125 0.03125 0.03125 0.03125 0.03125 0.03125 0.03125 0.03125 0.03125 0.03125 0.03125 0.03125 0.03125 0.03125 0.03125 0.03125 0.03125 0.03125 0.03125 0.03125 0.03125 0.03125 0.03125 0.03125 0.03125 0.03125 0.03125 0.03125 0.03125 0.03125 0.03125 0.03125 0.03125 0.03125 0.03125 0.03125 0.03125 0.03125 0.03125 0.03125 0.03125 0.03125 0.03125 0.03125 0.03125 0.03125 0.03125 0.03125 0.03125 0.03125 1:-0.9982 2:-1 3:-0.97937 4:-1 5:-0.995284 6:-0.975 7:0.721528 8:-0.999999 9:-0.988727 10:-0.910448 11:-0.932425 12:-0.303797 
-0.03125 -0.03125 -0.03125 -0.03125 -0.03125 -0.03125 -0.03125 -0.03125 -0.03125 -0.03125 -0.03125 -0.03125 -0.03125 -0.03125 -0.03125 -0.03125 -0.03125 -0.03125 -0.03125 -0.03125 -0.03125 -0.03125 -0.03125 -0.03125 -0.03125 -0.03125 -0.03125 -0.03125 -0.03125 -0.03125 -0.03125 -0.03125 -0.03125 -0.03125 -0.03125 -0.03125 0.03125 0.03125 0.03125 0.03125 0.03125 0.03125 0.03125 0.03125 0.03125 0.03125 0.03125 0.03125 0.03125 0.03125 0.03125 0.03125 0.03125 0.03125 0.03125 0.03125 0.03125 0.03125 0.03125 0.03125 0.03125 0.03125 0.03125 0.03125 0.03125 0.03125 0.03125 0.03125 0.03125 0.03125 0.03125 0.03125 0.03125 0.03125 0.03125 0.03125 0.03125 0.03125 0.03125 0.03125 0.03125 0.03125 0.03125 0.03125 0.03125 0.03125 0.03125 0.03125 0.03125 0.03125 0.03125 0.03125 0.03125 0.03125 0.03125 0.03125 0.03125 0.03125 0.03125 0.03125 0.03125 0.03125 0.03125 0.03125 0.03125 0.03125 0.03125 0.03125 0.03125 0.03125 0.03125 0.03125 0.03125 0.03125 0.03125 0.03125 0.03125 0.03125 0.03125 1:-0.9982 2:-1 3:-0.907125 4:0.287209 5:-0.957182 6:-0.8875 7:0.421364 8:-0.239021 9:-0.984085 10:-0.910448 11:-0.886098 12:-0.0126582 
-0.03125 -0.03125 -0.03125 -0.03125 -0.03125 -0.03125 -0.03125 -0.03125 -0.03125 -0.03125 -0.03125 -0.03125 -0.03125 -0.03125 -0.03125 -0.03125 -0.03125 -0.03125 -0.03125 -0.03125 -0.03125 -0.03125 -0.03125 -0.03125 -0.03125 -0.03125 -0.03125 -0.03125 -0.03125 -0.03125 -0.03125 -0.03125 -0.03125 -0.03125 -0.03125 -0.03125 -0.03125 0.03125 0.03125 0.03125 0.03125 0.03125 0.03125 0.03125 0.03125 0.03125 0.03125 0.03125 0.03125 0.03125 0.03125 0.03125 0.03125 0.03125 0.03125 0.03125 0.03125 0.03125 0.03125 0.03125 0.03125 0.03125 0.03125 0.03125 0.03125 0.03125 0.03125 0.03125 0.03125 0.03125 0.03125 0.03125 0.03125 0.03125 0.03125 0.03125 0.03125 0.03125 0.03125 0.03125 0.03125 0.03125 0.03125 0.03125 0.03125 0.03125 0.03125 0.03125 0.03125 0.03125 0.03125 0.03125 0.03125 0.03125 0.03125 0.03125 0.03125 0.03125 0.03125 0.03125 0.03125 0.03125 0.03125 0.03125 0.03125 0.03125 0.03125 0.03125 0.03125 0.03125 0.03125 0.03125 0.03125 0.03125 0.03125 0.03125 0.03125 0.03125 0.03125 1:-0.9982 2:0.748925 3:-0.0290386 4:0.74714 5:-0.0635224 6:0.2 7:0.965733 8:-0.999996 9:-0.557692 10:0.353234 11:0.380701 12:0.303797 
-0.03125 -0.03125 -0.03125 -0.03125 -0.03125 -0.03125 -0.03125 -0.03125 -0.03125 -0.03125 -0.03125 -0.03125 -0.03125 -0.03125 -0.03125 -0.03125 -0.03125 -0.03125 -0.03125 -0.03125 -0.03125 -0.03125 -0.03125 -0.03125 -0.03125 -0.03125 -0.03125 -0.03125 -0.03125 -0.03125 -0.03125 -0.03125 -0.03125 -0.03125 -0.03125 -0.03125 -0.03125 -0.03125 0.03125 0.03125 0.03125 0.03125 0.03125 0.03125 0.03125 0.03125 0.03125 0.03125 0.03125 0.03125 0.03125 0.03125 0.03125 0.03125 0.03125 0.03125 0.03125 0.03125 0.03125 0.03125 0.03125 0.03125 0.03125 0.03125 0.03125 0.03125 0.03125 0.03125 0.03125 0.03125 0.03125 0.03125 0.03125 0.03125 0.03125 0.03125 0.03125 0.03125 0.03125 0.03125 0.03125 0.03125 0.03125 0.03125 0.03125 0.03125 0.03125 0.03125 0.03125 0.03125 0.03125 0.03125 0.03125 0.03125 0.03125 0.03125 0.03125 0.03125 0.03125 0.03125 0.03125 0.03125 0.03125 0.03125 0.03125 0.03125 0.03125 0.03125 0.03125 0.03125 0.03125 0.03125 0.03125 0.03125 0.03125 0.03125 0.03125 0.03125 0.03125 1:-0.9982 2:0.129324 3:-1 4:-1 5:-1 6:-1 7:0.411177 8:-0.175164 9:-0.706897 10:-0.99005 11:-0.991226 12:0.797468 
-0.03125 -0.03125 -0.03125 -0.03125 -0.03125 -0.03125 -0.03125 -0.03125 -0.03125 -0.03125 -0.03125 -0.03125 -0.03125 -0.03125 -0.03125 -0.03125 -0.03125 -0.03125 -0.03125 -0.03125 -0.03125 -0.03125 -0.03125 -0.03125 -0.03125 -0.03125 -0.03125 -0.03125 -0.03125 -0.03125 -0.03125 -0.03125 -0.03125 -0.03125 -0.03125 -0.03125 -0.03125 -0.03125 -0.03125 0.03125 0.03125 0.03125 0.03125 0.03125 0.03125 0.03125 0.03125 0.03125 0.03125 0.03125 0.03125 0.03125 0.03125 0.03125 0.03125 0.03125 0.03125 0.03125 0.03125 0.03125 0.03125 0.03125 0.03125 0.03125 0.03125 0.03125 0.03125 0.03125 0.03125 0.03125 0.03125 0.03125 0.03125 0.03125 0.03125 0.03125 0.03125 0.03125 0.03125 0.03125 0.03125 0.03125 0.03125 0.03125 0.03125 0.03125 0.03125 0.03125 0.03125 0.03125 0.03125 0.03125 0.03125 0.03125 0.03125 0.03125 0.03125 0.03125 0.03125 0.03125 0.03125 0.03125 0.03125 0.03125 0.03125 0.03125 0.03125 0.03125 0.03125 0.03125 0.03125 0.03125 0.03125 0.03125 0.03125 0.03125 0.03125 0.03125 0.03125 1:-0.9982 2:0.251515 3:-0.723174 4:0.303564 5:-0.972036 6:-0.6625 7:0.506276 8:-0.899256 9:-0.916446 10:-0.562189 11:-0.543602 12:-0.974684 
-0.03125 -0.03125 -0.03125 -0.03125 -0.03125 -0.03125 -0.03125 -0.03125 -0.03125 -0.03125 -0.03125 -0.03125 -0.03125 -0.03125 -0.03125 -0.03125 -0.03125 -0.03125 -0.03125 -0.03125 -0.03125 -0.03125 -0.03125 -0.03125 -0.03125 -0.03125 -0.03125 -0.03125 -0.03125 -0.03125 -0.03125 -0.03125 -0.03125 -0.03125 -0.03125 -0.03125 -0.03125 -0.03125 -0.03125 -0.03125 0.03125 0.03125 0.03125 0.03125 0.03125 0.03125 0.03125 0.03125 0.03125 0.03125 0.03125 0.03125 0.03125 0.03125 0.03125 0.03125 0.03125 0.03125 0.03125 0.03125 0.03125 0.03125 0.03125 0.03125 0.03125 0.03125 0.03125 0.03125 0.03125 0.03125 0.03125 0.03125 0.03125 0.03125 0.03125 0.03125 0.03125 0.03125 0.03125 0.03125 0.03125 0.03125 0.03125 0.03125 0.03125 0.03125 0.03125 0.03125 0.03125 0.03125 0.03125 0.03125 0.03125 0.03125 0.03125 0.03125 0.03125 0.03125 0.03125 0.03125 0.03125 0.03125 0.03125 0.03125 0.03125 0.03125 0.03125 0.03125 0.03125 0.03125 0.03125 0.03125 0.03125 0.03125 0.03125 0.03125 0.03125 0.03125 0.03125 1:-0.9982 2:0.911105 3:0.268857 4:0.645707 5:0.486727 6:0.425 7:0.42446 8:-0.997206 9:-0.796419 10:0.393035 11:0.525084 12:-0.0253165 
-0.03125 -0.03125 -0.03125 -0.03125 -0.03125 -0.03125 -0.03125 -0.03125 -0.03125 -0.03125 -0.03125 -0.03125 -0.03125 -0.03125 -0.03125 -0.03125 -0.03125 -0.03125 -0.03125 -0.03125 -0.03125 -0.03125 -0.03125 -0.03125 -0.03125 -0.03125 -0.03125 -0.03125 -0.03125 -0.03125 -0.03125 -0.03125 -0.03125 -0.03125 -0.03125 -0.03125 -0.03125 -0.03125 -0.03125 -0.03125 -0.03125 0.03125 0.03125 0.03125 0.03125 0.03125 0.03125 0.03125 0.03125 0.03125 0.03125 0.03125 0.03125 0.03125 0.03125 0.03125 0.03125 0.03125 0.03125 0.03125 0.03125 0.03125 0.03125 0.03125 0.03125 0.03125 0.03125 0.03125 0.03125 0.03125 0.03125 0.03125 0.03125 0.03125 0.03125 0.03125 0.03125 0.03125 0.03125 0.03125 0.03125 0.03125 0.03125 0.03125 0.03125 0.03125 0.03125 0.03125 0.03125 0.03125 0.03125 0.03125 0.03125 0.03125 0.03125 0.03125 0.03125 0.03125 0.03125 0.03125 0.03125 0.03125 0.03125 0.03125 0.03125 0.03125 0.03125 0.03125 0.03125 0.03125 0.03125 0.03125 0.03125 0.03125 0.03125 0.03125 0.03125 0.03125 0.03125 1:-0.9982 2:-1 3:-0.840707 4:0.220076 5:-0.909458 6:-0.8 7:0.524506 8:-0.983897 9:-0.319629 10:-0.293532 11:-0.385953 12:-0.417722 
-0.03125 -0.03125 -0.03125 -0.03125 -0.03125 -0.03125 -0.03125 -0.03125 -0.03125 -0.03125 -0.03125 -0.03125 -0.03125 -0.03125 -0.03125 -0.03125 -0.03125 -0.03125 -0.03125 -0.03125 -0.03125 -0.03125 -0.03125 -0.03125 -0.03125 -0.03125 -0.03125 -0.03125 -0.03125 -0.03125 -0.03125 -0.03125 -0.03125 -0.03125 -0.03125 -0.03125 -0.03125 -0.03125 -0.03125 -0.03125 -0.03125 -0.03125 0.03125 0.03125 0.03125 0.03125 0.03125 0.03125 0.03125 0.03125 0.03125 0.03125 0.03125 0.03125 0.03125 0.03125 0.03125 0.03125 0.03125 0.03125 0.03125 0.03125 0.03125 0.03125 0.03125 0.03125 0.03125 0.03125 0.03125 0.03125 0.03125 0.03125 0.03125 0.03125 0.03125 0.03125 0.03125 0.03125 0.03125 0.03125 0.03125 0.03125 0.03125 0.03125 0.03125 0.03125 0.03125 0.03125 0.03125 0.03125 0.03125 0.03125 0.03125 0.03125 0.03125 0.03125 0.03125 0.03125 0.03125 0.03125 0.03125 0.03125 0.03125 0.03125 0.03125 0.03125 0.03125 0.03125 0.03125 0.03125 0.03125 0.03125 0.03125 0.03125 0.03125 0.03125 0.03125 0.03125 0.03125 1:-0.9982 2:-1 3:-0.913964 4:0.634706 5:-0.943766 6:-0.9 7:0.469255 8:-0.477846 9:-0.992706 10:-0.691542 11:-0.643119 12:0.0253165 
