svm_type c_svc
kernel_type rbf
gamma 0.5
nr_class 2
total_sv 42
rho 0.046976175159215927
label 1 2
nr_sv 21 21
SV
0.5 1:-0.832506 
0.5 1:-0.07272 
0.5 1:-0.61772 
0.5 1:-0.811126 
0.5 1:-0.04202 
0.5 1:-0.62084 
0.5 1:-0.58114 
0.5 1:-0.70034 
0.5 1:-0.935496 
0.5 1:-0.97324 
0.5 1:0.09602 
0.5 1:0.9177 
0.5 1:-0.6216 
0.5 1:-0.5975 
0.5 1:-0.999942 
0.5 1:-0.990001 
0.034879867173172895 1:-1 
0.5 1:-0.44284 
0.5 1:-0.75788 
0.5 1:-0.921782 
0.5 1:-0.827346 
-0.5 1:0.51716 
-0.5 1:-0.999743 
-0.5 1:0.06662 
-0.5 1:-0.902468 
-0.5 1:-0.963216 
-0.5 1:-0.01286 
-0.5 1:-0.97781 
-0.5 1:-0.912484 
-0.5 1:-0.32256 
-0.5 1:-0.967564 
-0.5 1:0.17392 
-0.5 1:0.29114 
-0.034879867173172895 1:0.68128 
-0.5 1:-0.67606 
-0.5 1:0.30732 
-0.5 1:-0.990706 
-0.5 1:-0.971164 
-0.5 1:0.27892 
-0.5 1:0.57416 
-0.5 1:-0.834004 
-0.5 1:-0.994741 
