svm_type c_svc
kernel_type rbf
gamma 0.0078125
nr_class 2
total_sv 31
rho -21.695008268246934
label 1 1000
nr_sv 15 16
SV
512 1:1 2:-0.023089 3:-0.71244 4:-0.89077 5:-0.14702 
512 1:-0.84314 2:0.58064 3:0.16443 4:0.21678 5:-0.70376 
512 1:-0.30741 2:0.76554 3:0.075194 4:0.30155 5:-0.92143 
512 1:-0.22911 2:-0.19739 3:-0.55752 4:-0.75422 5:0.91194 
512 1:0.77141 2:0.38262 3:0.051289 4:-0.44059 5:-0.94515 
512 1:-0.33596 2:0.83554 3:-0.23293 4:-0.2727 5:-0.24802 
512 1:-0.99523 2:-1 3:0.5088 4:-0.38312 5:-0.9613 
439.96180311643025 1:-0.53424 2:-0.027484 3:-0.80592 4:1 5:-0.95681 
162.44277618167524 1:0.19911 2:0.52939 3:-0.27605 4:-1 5:-0.77832 
512 1:-0.42899 2:-1 3:0.85144 4:-0.87966 5:-0.93372 
187.16582996933084 1:-0.2428 2:0.70671 3:0.3338 4:-0.97337 5:-0.79807 
512 1:0.34885 2:0.64438 3:-0.44521 4:-0.88866 5:-0.59373 
512 1:0.36899 2:0.2166 3:-0.37609 4:-0.9489 5:-0.93259 
512 1:-0.93584 2:-0.064946 3:0.67712 4:-0.99779 5:-0.89712 
512 1:-0.96212 2:-0.0011024 3:-0.28735 4:0.35295 5:-0.72015 
-512 1:0.32239 2:0.074961 3:-0.21824 4:0.087924 5:-0.89065 
-148.20849058539258 1:0.083231 2:-0.40294 3:-0.32904 4:-0.28875 5:-0.82842 
-512 1:0.18377 2:-0.21517 3:-0.8522 4:-0.54398 5:-0.31868 
-512 1:0.1414 2:0.12848 3:-0.084901 4:-0.32695 5:-0.64248 
-249.02864812834233 1:-0.85115 2:0.18149 3:0.76774 4:-0.23803 5:-0.2228 
-53.822061140195153 1:-0.46583 2:-0.38057 3:-0.14187 4:-0.94877 5:-0.047413 
-512 1:-0.99384 2:0.41921 3:-0.72054 4:0.26812 5:-0.76493 
-373.40772373786041 1:-0.91487 2:-1 3:-0.16854 4:0.23507 5:-0.83343 
-477.10348567564563 1:0.66225 2:0.80747 3:0.42157 4:-0.62391 5:-0.45017 
-512 1:0.49856 2:0.72499 3:0.28878 4:0.31608 5:-0.78184 
-512 1:-0.024584 2:0.43955 3:0.43574 4:-0.93147 5:-0.39805 
-512 1:0.013189 2:0.88557 3:-0.95995 4:-0.96167 5:-0.87943 
-512 1:-0.99347 2:-1 3:-0.053177 4:-0.98965 5:-0.96548 
-512 1:-0.079409 2:0.16024 3:0.46611 4:-0.89815 5:-0.6003 
-512 1:-0.64906 2:-0.42975 3:0.24327 4:-0.44945 5:-0.75008 
-512 1:-0.80255 2:0.20987 3:0.14831 4:-0.15951 5:0.096117 
