svm_type c_svc
kernel_type rbf
gamma 0.0078125
nr_class 2
total_sv 34
rho 0
label 1 10
nr_sv 17 17
SV
0.5025833961343017 1:-1 
2 1:-1 
2 1:-1 
2 1:-1 
2 1:-1 
2 1:-1 
2 1:-1 
2 1:-1 
2 1:-1 
2 1:-1 
2 1:-1 
2 1:-1 
2 1:-1 
2 1:-1 
2 1:-1 
2 1:-1 
2 1:-1 
-0.5025833961343017 1:1 
-2 1:1 
-2 1:1 
-2 1:1 
-2 1:1 
-2 1:1 
-2 1:1 
-2 1:1 
-2 1:1 
-2 1:1 
-2 1:1 
-2 1:1 
-2 1:1 
-2 1:1 
-2 1:1 
-2 1:1 
-2 1:1 
