svm_type c_svc
kernel_type rbf
gamma 0.00048828125
nr_class 2
total_sv 44
rho -11.313746335554404
label 1 10
nr_sv 23 21
SV
1722.095405990113 1:-0.6699 2:0.10371 3:0.28731 4:0.26966 5:-0.19367 6:0.2039 7:0.64018 8:0.29327 9:-1 10:0.22869 11:0.30573 12:-0.95159 13:-0.95503 14:-0.89961 15:-0.99681 16:-1 17:0.34367 18:0.44466 19:0.16368 20:-0.575 21:-0.46 22:0.56338 23:-0.084904 24:0.68095 25:-0.96175 26:-0.64982 27:1 28:-0.93498 29:-0.65914 30:0.22947 31:0.6183 32:-0.90739 33:-0.9977 34:0.64292 35:-0.90891 36:0.084904 
820.26258318791122 1:-0.91634 2:-0.10827 3:0.79723 4:0.56869 5:-0.22641 6:0.66117 7:0.75034 8:0.13249 9:0.5477 10:0.40793 11:-0.037262 12:-1 13:-0.91006 14:-1 15:-0.99463 16:-0.071198 17:-0.95114 18:-0.9633 19:-0.47325 20:-0.9 21:-0.67 22:0.29577 23:0.14548 24:0.73333 25:-0.89035 26:-0.56366 27:-0.46271 28:-0.79007 29:0.47942 30:-0.91206 31:-0.93862 32:-0.87428 33:0.037748 34:0.27281 35:-0.088824 36:-0.14548 
22.600233879763096 1:-0.021537 2:-0.76752 3:1 4:0.83816 5:1 6:0.91683 7:0.3906 8:0.92309 9:0.77057 10:0.92998 11:0.80835 12:-0.99403 13:-0.59163 14:-1 15:-1 16:-1 17:-1 18:-1 19:-0.25749 20:0.1 21:0.08 22:0.40845 23:1 24:0.93243 25:-0.93818 26:-0.88729 27:-0.93345 28:-0.97829 29:-0.95689 30:-0.9158 31:-0.96412 32:-0.994 33:-0.99361 34:-0.9939 35:-0.18754 36:-1 
2048 1:-0.86312 2:0.074888 3:0.21704 4:0.402 5:0.53811 6:0.56189 7:0.74177 8:-0.023318 9:-1 10:0.42609 11:0.46204 12:-0.99005 13:-0.6308 14:-0.91634 15:-0.99729 16:-0.9996 17:-0.99942 18:-0.99917 19:-0.64227 20:-0.825 21:-0.41 22:-0.19718 23:0.56253 24:0.93333 25:-0.7519 26:-0.84417 27:-0.78428 28:-1 29:-0.41582 30:-0.66968 31:-0.92872 32:-0.83018 33:-0.97493 34:-0.97687 35:-0.009454 36:-0.56253 
333.66929019181327 1:-0.45895 2:0.36328 3:-0.023889 4:0.78073 5:-0.70463 6:0.58847 7:0.59584 8:0.52037 9:0.7483 10:0.46879 11:0.7437 12:-1 13:-0.85348 14:-0.99743 15:-0.52326 16:-0.62681 17:-0.73622 18:-0.95097 19:0.22484 20:-0.35 21:0.03 22:-0.084507 23:-0.20705 24:1 25:-0.8945 26:-0.51136 27:-0.99466 28:-0.97121 29:-0.89667 30:-0.52407 31:-0.96737 32:-0.052866 33:-0.21342 34:-0.41848 35:0.42402 36:0.20705 
1739.1566567738491 1:0.93987 2:-0.96265 3:0.94752 4:0.91837 5:0.78478 6:1 7:0.9295 8:1 9:1 10:0.91846 11:1 12:-0.92374 13:-0.96373 14:-0.90862 15:0.37489 16:0.5335 17:-0.62987 18:0.30829 19:0.18063 20:0.9375 21:0.9 22:0.95775 23:0.67867 24:0.8198 25:-0.87272 26:-0.61406 27:-0.89046 28:-0.99742 29:-0.6256 30:-1 31:-0.46751 32:0.30244 33:0.38923 34:0.09976 35:-0.11982 36:-0.67867 
251.06961144481599 1:-0.25545 2:-0.28793 3:0.40631 4:0.78899 5:0.2684 6:0.5765 7:0.60716 8:0.85147 9:0.44934 10:0.45716 11:0.35926 12:-0.99735 13:-0.74541 14:-0.89961 15:0.63552 16:0.89501 17:-0.18976 18:1 19:-0.48396 20:-0.175 21:-0.29 22:-0.14085 23:0.10347 24:0.55331 25:-0.82393 26:-0.7709 27:-0.75794 28:-0.92384 29:-0.61026 30:1 31:-0.21236 32:0.68055 33:1 34:0.56847 35:-0.027729 36:-0.10347 
148.28730732292843 1:0.35095 2:0.24262 3:0.86304 4:-1 5:0.011288 6:0.30494 7:0.53396 8:0.95795 9:0.68166 10:-1 11:-1 12:-0.94231 13:-0.81069 14:-1 15:0.51658 16:-0.99938 17:-0.99936 18:-0.99763 19:-0.20757 20:0.4375 21:0.22 22:0.49296 23:-0.015592 24:0.82559 25:-0.94877 26:-0.7652 27:-0.97395 28:-0.98451 29:-0.76465 30:-0.95772 31:-0.6609 32:0.48867 33:-0.95509 34:-0.94548 35:-0.40982 36:0.015592 
426.9193280561322 1:-0.53969 2:-0.7277 3:-0.16054 4:0.056402 5:0.097486 6:0.33549 7:0.17621 8:0.23328 9:-0.2638 10:0.34513 11:0.36416 12:-0.97878 13:-0.93641 14:1 15:0.11489 16:-0.11148 17:-0.92639 18:-0.77764 19:0.011861 20:-0.3875 21:-0.1 22:-0.88732 23:0.21026 24:0.71147 25:-0.91235 26:-0.95567 27:-0.83982 28:-0.93225 29:-0.99806 30:0.022898 31:0.63279 32:0.44385 33:0.26525 34:-0.75483 35:-0.25046 36:-0.21026 
282.27778927132732 1:-0.98932 2:0.036787 3:-1 4:0.44265 5:0.36775 6:-1 7:0.78524 8:-1 9:0.57651 10:0.51146 11:0.49651 12:-1 13:-0.84381 14:-0.65766 15:-0.99973 16:-0.99891 17:-0.99438 18:0.54038 19:0.61837 20:-0.9875 21:-0.99 22:-0.78873 23:0.1248 24:0.6613 25:-0.82558 26:-0.87696 27:-0.95517 28:-0.91204 29:-0.19732 30:-1 31:-0.79126 32:-0.99247 33:-0.96039 34:-0.94032 35:0.43118 36:-0.1248 
2048 1:-0.94802 2:-0.2821 3:0.54668 4:0.85622 5:0.86649 6:0.16783 7:-0.37321 8:0.39226 9:0.82571 10:0.83046 11:-1 12:-0.87798 13:-0.80682 14:-0.96782 15:-0.97699 16:-0.99999 17:-0.99995 18:0.17953 19:-0.58062 20:-0.9375 21:-0.53 22:-0.070423 23:0.61834 24:0.83783 25:-0.94653 26:-1 27:-0.73465 28:-0.92786 29:-0.98857 30:-0.5414 31:-0.931 32:-0.64893 33:-0.99911 34:-0.99692 35:-0.98475 36:-0.61834 
1940.2181050620229 1:-0.13283 2:-0.94034 3:0.2895 4:0.074116 5:-0.029778 6:0.44335 7:0.34444 8:0.33074 9:0.34205 10:0.28077 11:0.52589 12:-0.5431 13:-0.897 14:-0.6036 15:1 16:-0.67901 17:-0.59449 18:-0.4945 19:0.012203 20:0.05 21:0.22 22:-0.16901 23:-0.19152 24:0.85185 25:-0.010256 26:-0.9616 27:-0.69588 28:-0.97716 29:-0.88601 30:-0.55638 31:0.11166 32:1 33:-0.38897 34:-0.18979 35:-0.24908 36:0.19152 
811.76980643230615 1:-0.95198 2:0.21598 3:0.79519 4:0.61893 5:-0.22219 6:0.72873 7:0.44711 8:-0.015419 9:0.5759 10:0.42674 11:0.66583 12:-0.93369 13:-0.7118 14:-0.93951 15:-0.99999 16:-0.99979 17:-0.99997 18:-0.99987 19:-0.18001 20:-0.9375 21:-0.45 22:-0.50704 23:-0.0098193 24:0.69276 25:-0.89149 26:0.040784 27:-0.88863 28:-0.96879 29:-0.096124 30:-0.7395 31:0.42344 32:-0.98177 33:-0.9829 34:-0.99491 35:0.12993 36:0.0098194 
974.07898626392955 1:-0.68951 2:-0.30703 3:0.62147 4:0.50772 5:0.37927 6:0.77278 7:0.70034 8:0.43648 9:-0.70441 10:0.37465 11:0.35062 12:-0.96817 13:-0.92771 14:-0.070785 15:-0.81213 16:-0.99992 17:-0.9975 18:-0.93681 19:-0.8539 20:-0.6375 21:-0.15 22:-0.35211 23:0.25247 24:0.58419 25:-0.97967 26:-0.9262 27:-1 28:-0.99494 29:-0.87894 30:-0.99821 31:0.51238 32:-0.092559 33:-0.89935 34:-0.80683 35:0.024829 36:-0.25247 
2048 1:-0.89971 2:-0.58792 3:-1 4:-1 5:0.34605 6:0.2702 7:0.42089 8:0.082531 9:-1 10:0.67154 11:-1 12:-0.75265 13:-0.99927 14:-0.9601 15:-0.94402 16:-0.9133 17:-0.63224 18:-0.82903 19:-0.21844 20:-0.875 21:-0.66 22:0.014085 23:0.32142 24:0.78578 25:-0.58565 26:-0.52551 27:-0.53966 28:0.69824 29:-0.97493 30:-0.60403 31:0.37067 32:-0.74064 33:-0.73691 34:-0.14757 35:-0.41551 36:-0.32142 
2048 1:-0.94947 2:-0.75757 3:0.76452 4:0.49839 5:-1 6:0.44771 7:0.54654 8:0.74792 9:0.5289 10:0.20037 11:0.44858 12:-0.71883 13:-0.97292 14:-0.99356 15:-0.91545 16:-0.94475 17:-0.97722 18:-0.99735 19:-0.62291 20:-0.9375 21:-0.55 22:-0.84507 23:-0.41391 24:0.69118 25:1 26:-0.84862 27:-0.51042 28:-0.73672 29:-0.8598 30:-0.52843 31:0.39699 32:-0.40221 33:-0.46284 34:-0.83291 35:-0.13101 36:0.41391 
218.08238951980238 1:-0.80168 2:-0.2703 3:-1 4:0.44868 5:-0.17751 6:0.62521 7:0.79606 8:0.46028 9:-1 10:0.57361 11:0.65247 12:-0.95623 13:-1 14:-0.99871 15:-0.8207 16:-0.99988 17:-0.99295 18:-0.88017 19:0.14251 20:-0.75 21:-0.07 22:-0.69014 23:-0.14065 24:0.92381 25:-0.77972 26:0.28365 27:-0.60624 28:-0.96151 29:-0.98276 30:-0.78322 31:-0.24711 32:-0.29006 33:-0.96825 34:-0.85911 35:0.10263 36:0.14065 
1896.4170151846731 1:-0.47217 2:-0.66234 3:-0.11084 4:-1 5:0.086064 6:0.64544 7:0.34688 8:0.22187 9:0.15556 10:-1 11:0.76835 12:-0.77918 13:-0.88951 14:-0.82625 15:-0.13788 16:-0.67975 17:0.019775 18:-0.43132 19:1 20:-0.325 21:-0.29 22:-0.32394 23:0.035377 24:0.83333 25:-0.63046 26:-0.9131 27:-0.82842 28:-1 29:-0.94771 30:-0.91252 31:-0.21047 32:0.16501 33:-0.59673 34:0.13735 35:-0.6296 36:-0.035377 
638.84846268559568 1:-0.79163 2:-0.87434 3:0.91688 4:0.12329 5:0.4429 6:0.67339 7:0.32871 8:0.36359 9:0.46938 10:0.56487 11:0.48219 12:-0.93767 13:-0.73694 14:-0.68855 15:-0.97931 16:-0.96824 17:-0.99949 18:-0.99369 19:-0.81937 20:-0.75 21:-0.5 22:-0.50704 23:0.2925 24:1 25:-0.95341 26:1 27:0.053184 28:-0.90186 29:-0.66227 30:-0.88087 31:0.31175 32:-0.82959 33:-0.81541 34:-0.99459 35:-0.60541 36:-0.2925 
302.56835231304569 1:-0.43559 2:-0.60363 3:0.13215 4:-1 5:0.1888 6:0.16688 7:0.3412 8:0.26105 9:0.34818 10:0.39497 11:0.37522 12:-0.87865 13:-0.80779 14:-1 15:-0.37861 16:-0.45857 17:-0.58331 18:0.072449 19:0.10795 20:-0.2875 21:-0.11 22:-0.56338 23:0.32283 24:-0.33333 25:-0.94106 26:-0.60112 27:-0.64193 28:-0.95147 29:-0.63854 30:0.19286 31:0.24954 32:0.058669 33:-0.023233 34:-0.35753 35:-0.31184 36:-0.32283 
789.37174952108853 1:-0.63901 2:-0.40064 3:0.59216 4:-1 5:-0.17875 6:0.39941 7:0.27358 8:0.24728 9:0.55936 10:0.51605 11:0.41461 12:-0.87069 13:-0.81746 14:-0.72587 15:-0.61569 16:0.11849 17:-0.92606 18:-0.54383 19:0.045952 20:-0.5625 21:-0.29 22:-0.3662 23:0.06963 24:0.6982 25:-0.20639 26:-0.51252 27:-0.43127 28:-0.98953 29:-0.38429 30:-0.5661 31:-0.17183 32:-0.077761 33:-0.56367 34:-0.41823 35:0.49857 36:-0.06963 
823.93204960298419 1:-0.95802 2:-0.92524 3:-0.23003 4:0.031061 5:0.076493 6:-1 7:0.32442 8:0.76349 9:0.63728 10:0.57628 11:0.34712 12:-0.46353 13:-0.53216 14:-0.74903 15:-0.99213 16:-1 17:-0.99998 18:-0.35008 19:0.032164 20:-0.95 21:-0.78 22:-0.26761 23:0.95029 24:0.67113 25:-0.85573 26:-0.99157 27:-0.033675 28:-0.84152 29:-0.58414 30:-0.73545 31:-0.96085 32:-0.79819 33:-0.99555 34:-0.97806 35:-0.26587 36:-0.95029 
1675.63859490713 1:-0.9053 2:-0.89481 3:-1 4:0.59877 5:0.29219 6:0.56582 7:0.48336 8:0.29194 9:0.52193 10:0.66539 11:-1 12:-0.90584 13:-0.73453 14:-0.92921 15:-0.96606 16:-0.79337 17:-0.94507 18:-0.99801 19:0.066748 20:-0.8875 21:-0.48 22:0.40845 23:0.249 24:-1 25:-0.23977 26:-0.53819 27:-0.26984 28:-1 29:-0.11435 30:-0.37752 31:0.10265 32:-0.51393 33:0.32638 34:-0.41137 35:0.16645 36:-0.249 
-1095.3717347194242 1:-0.51195 2:1 3:0.89645 4:0.77651 5:0.94313 6:0.77537 7:0.30641 8:0.56638 9:0.81078 10:0.93223 11:0.62858 12:0.79509 13:-0.10566 14:-0.92535 15:-0.99989 16:-1 17:-1 18:-1 19:-0.94689 20:-0.4 21:-0.3 22:-0.12676 23:0.9209 24:0.70323 25:-0.96593 26:-0.71982 27:0.49835 28:-0.98618 29:-0.80858 30:-0.80784 31:-1 32:-0.99787 33:-0.99986 34:-1 35:-0.15517 36:-0.9209 
-1542.2289682527105 1:-0.36442 2:0.11366 3:0.75158 4:0.46606 5:0.73879 6:0.61221 7:0.4526 8:0.68277 9:0.42622 10:0.62214 11:0.35333 12:-0.74801 13:-0.97389 14:-1 15:-0.99611 16:-0.99479 17:-0.99773 18:0.28097 19:-0.14433 20:-0.225 21:-0.1 22:-0.91549 23:0.6771 24:0.7421 25:-0.60603 26:-0.4491 27:-0.29398 28:-0.99567 29:0.037007 30:-0.88911 31:-0.49467 32:-0.93505 33:-0.9376 34:-0.91646 35:-0.30555 36:-0.6771 
-217.6730985645747 1:-0.42436 2:-0.42387 3:-0.46542 4:-1 5:0.03905 6:0.50797 7:0.74793 8:0.31986 9:0.4295 10:0.24656 11:0.16289 12:-0.97944 13:-0.99154 14:-0.9305 15:-0.79201 16:-0.95442 17:-0.97991 18:-0.27122 19:-0.62239 20:-0.3125 21:-0.12 22:-0.6338 23:0.091552 24:0.7069 25:-0.55656 26:-0.96955 27:-0.94657 28:-1 29:-0.8573 30:-0.90227 31:0.10557 32:-0.49967 33:-0.87466 34:-0.93104 35:-0.95303 36:-0.091552 
-1476.0531769956026 1:-0.90712 2:-0.33719 3:-1 4:-0.088898 5:0.79835 6:0.42976 7:0.42742 8:0.28722 9:-1 10:0.5487 11:0.21605 12:-0.98408 13:-0.98235 14:-0.99871 15:-0.95185 16:-0.93323 17:-0.23901 18:0.29033 19:0.0033083 20:-0.8875 21:-0.92 22:0.098592 23:0.45661 24:0.72826 25:-0.81608 26:-0.95253 27:-1 28:0.041383 29:0.17053 30:-0.96039 31:0.2981 32:-0.8803 33:-0.89369 34:0.12156 35:1 36:-0.45661 
-360.67867255167891 1:-0.029038 2:-0.97172 3:0.74892 4:0.68883 5:0.93138 6:0.44291 7:0.15798 8:0.74714 9:0.72931 10:0.7074 11:0.73327 12:-0.55769 13:-0.99009 14:-0.99099 15:0.052996 16:-1 17:-1 18:-1 19:-0.14024 20:0.2 21:0.35 22:0.4507 23:0.81053 24:0.43333 25:0.73358 26:-0.34993 27:-0.66385 28:-0.81418 29:-0.99129 30:-0.91359 31:-0.87046 32:0.45104 33:-0.94702 34:-0.95362 35:-0.12878 36:-0.81053 
-1467.6309075572613 1:-1 2:-1 3:0.12933 4:0.72825 5:0.5808 6:0.59492 7:0.22451 8:-1 9:0.4601 10:-1 11:-1 12:-0.7069 13:-0.88443 14:-0.96396 15:-1 16:-0.99967 17:-0.17514 18:-0.82709 19:0.052153 20:-1 21:-1 22:1 23:0.55682 24:0.65512 25:0.42847 26:-0.89755 27:-0.91922 28:-0.89786 29:-0.40797 30:-0.91071 31:0.352 32:-0.99078 33:-0.95851 34:0.4208 35:0.12745 36:-0.55682 
-1014.0395208803902 1:0.26886 2:-0.81162 3:0.9111 4:0.49474 5:0.25254 6:0.72181 7:0.83522 8:0.64572 9:0.70198 10:-1 11:-0.04478 12:-0.79642 13:-0.94898 14:-0.78507 15:0.67177 16:0.23085 17:-0.99721 18:-0.99849 19:-0.32538 20:0.425 21:0.39 22:0.084507 23:0.24061 24:0.81618 25:-0.4679 26:-0.93632 27:-0.80764 28:-0.7418 29:-0.41488 30:-0.93358 31:-0.43495 32:0.60278 33:0.62468 34:-0.88718 35:-0.043509 36:-0.24061 
-499.75009262372964 1:-0.59262 2:-0.89648 3:-0.053858 4:0.32098 5:-0.11952 6:0.27567 7:0.33592 8:0.21211 9:0.40274 10:0.068417 11:0.5467 12:-0.6943 13:-0.9369 14:-0.84813 15:-0.48779 16:-0.97384 17:-0.94722 18:-0.93078 19:-0.14076 20:-0.475 21:-0.11 22:-0.22535 23:-0.037853 24:0.66667 25:-0.5309 26:-0.24581 27:-0.15486 28:-0.76879 29:-0.27938 30:-0.14389 31:0.0015246 32:0.42334 33:-0.76123 34:-0.26348 35:-0.50328 36:0.037853 
-573.44322671616465 1:1 2:-0.8288 3:0.69002 4:1 5:0.89755 6:-1 7:1 8:0.87141 9:0.6784 10:1 11:0.82848 12:-0.95027 13:-0.99323 14:-1 15:0.38943 16:0.43808 17:-0.85521 18:0.036279 19:-0.99219 20:1 21:1 22:0.32394 23:0.48156 24:0.83063 25:-0.25392 26:-0.94472 27:-0.10268 28:-0.74614 29:-0.95857 30:-0.84133 31:0.29654 32:0.37591 33:0.46706 34:-0.12399 35:-0.16378 36:-0.48156 
-1246.3262168853728 1:-0.67869 2:-0.54106 3:-1 4:0.10009 5:0.031118 6:0.18603 7:0.29405 8:0.1189 9:0.090424 10:0.66629 11:-0.033688 12:-0.98873 13:-0.92263 14:-0.23037 15:-0.72774 16:-0.77328 17:1 18:-0.5189 19:0.26337 20:-0.575 21:-0.13 22:0.73239 23:0.09305 24:0.49573 25:-0.85034 26:-0.89433 27:-0.5854 28:-0.93102 29:-0.92628 30:-0.92934 31:-0.45336 32:-0.24173 33:-0.28947 34:1 35:-0.32364 36:-0.09305 
-80.754934898745688 1:-0.94266 2:0.12534 3:0.69074 4:0.18324 5:0.72612 6:0.3326 7:-1 8:0.44889 9:0.69873 10:0.55537 11:-1 12:1 13:-0.68133 14:-0.99871 15:-0.95227 16:-0.99988 17:-0.38873 18:-0.021489 19:-0.42851 20:-0.925 21:-0.73 22:0.056338 23:0.61801 24:0.89091 25:-0.83655 26:-0.61908 27:-0.80532 28:-0.86358 29:-0.66833 30:-0.83383 31:0.51143 32:-0.70032 33:-0.98727 34:0.11997 35:0.1092 36:-0.61801 
-1447.2979242866234 1:-0.81398 2:-0.34176 3:-1 4:-0.40204 5:-0.064259 6:0.37241 7:0.56972 8:0.36872 9:-1 10:0.30228 11:0.86149 12:-0.78183 13:-0.97679 14:-0.77349 15:-0.71621 16:1 17:-0.86781 18:0.030068 19:-0.63687 20:-0.7625 21:-0.41 22:0.084507 23:0.085935 24:0.55782 25:-0.82836 26:-0.7943 27:-0.7383 28:-0.90781 29:-0.97152 30:-0.84658 31:-0.025735 32:-0.23181 33:0.057806 34:-0.14034 35:-0.87822 36:-0.085935 
-2.7119560559610996 1:-0.71826 2:-0.94956 3:0.2152 4:0.69569 5:0.49181 6:0.30231 7:0.46463 8:0.43822 9:0.58011 10:0.34244 11:0.069567 12:-0.95889 13:-0.84188 14:-0.59846 15:-0.66767 16:0.87155 17:0.37022 18:-0.050157 19:-0.69009 20:-0.6375 21:-0.1 22:0.46479 23:0.57322 24:0.5 25:-0.87178 26:-0.90365 27:-0.62258 28:-0.70831 29:-0.8501 30:-0.95024 31:0.53764 32:-0.041247 33:0.82663 34:0.54403 35:0.40058 36:-0.57322 
-994.83938955041469 1:-0.52198 2:-0.63239 3:0.80481 4:0.24164 5:0.13508 6:0.24956 7:0.66273 8:0.41037 9:0.00098651 10:0.45169 11:-0.54982 12:-1 13:-0.92432 14:-0.86358 15:-0.59614 16:-0.50532 17:-0.93498 18:-0.57742 19:0.046262 20:-0.4125 21:-0.05 22:-0.67606 23:0.18597 24:0.52778 25:0.1256 26:0.015385 27:-0.71988 28:0.37067 29:0.017375 30:-0.48872 31:-0.2149 32:-0.14285 33:-0.15026 34:-0.80695 35:-0.23253 36:-0.18597 
-2048 1:-0.55571 2:-0.63958 3:0.11994 4:0.20041 5:0.022368 6:0.31411 7:0.29446 8:0.34057 9:0.55248 10:0.11772 11:0.1025 12:-0.87334 13:-0.85324 14:-0.65637 15:-0.76596 16:-0.87356 17:-0.97665 18:-0.82911 19:-0.617 20:-0.425 21:-0.29 22:-0.4507 23:-0.13265 24:0.58611 25:-0.94932 26:-0.87991 27:-0.78063 28:-0.82124 29:-0.64416 30:-0.66244 31:0.87343 32:-0.34863 33:-0.76878 34:-0.82079 35:-0.79913 36:0.13265 
-2048 1:-0.96093 2:-0.83758 3:0.31096 4:0.44787 5:-1 6:0.70015 7:0.48083 8:0.3511 9:-1 10:0.57373 11:0.7117 12:-0.95557 13:-0.99952 14:-0.97812 15:-0.98553 16:-0.9423 17:-0.99983 18:-0.99846 19:0.05258 20:-0.95 21:-0.66 22:-0.69014 23:-0.039599 24:0.56821 25:-0.37314 26:-0.49784 27:-0.51392 28:-0.97239 29:-0.51621 30:-0.38626 31:0.44076 32:-0.75747 33:-0.62365 34:-0.98136 35:-0.10103 36:0.039599 
-2048 1:-0.86374 2:-0.45861 3:0.25197 4:-0.5168 5:0.019709 6:0.41112 7:0.41656 8:0.66258 9:0.5089 10:0.51287 11:0.53187 12:-0.97016 13:-0.95817 14:-0.61519 15:-0.8906 16:-0.95634 17:-0.96747 18:-0.27601 19:-0.13203 20:-0.825 21:-0.64 22:-0.33803 23:0.032972 24:0.68106 25:-0.28 26:-0.86207 27:-0.020802 28:-0.85893 29:-0.90335 30:0.58299 31:-0.97497 32:-0.56986 33:-0.76497 34:-0.84955 35:-0.3056 36:-0.032972 
-2048 1:-0.45083 2:-0.3067 3:-0.025297 4:-0.084422 5:0.09359 6:0.18756 7:0.49667 8:0.044614 9:0.081144 10:0.25846 11:-1 12:-0.92374 13:-0.96688 14:-0.49807 15:-0.30878 16:-0.97028 17:0.25557 18:0.15364 19:0.067315 20:-0.3 21:0.04 22:-0.19718 23:0.096726 24:0.68077 25:-0.81866 26:-0.46239 27:0.15773 28:-0.43426 29:-0.62894 30:-0.49239 31:0.31653 32:0.30797 33:-0.80458 34:0.10289 35:-0.20754 36:-0.096726 
-1066.9208323781816 1:-0.26539 2:0.11211 3:-0.083316 4:-1 5:0.46267 6:0.41772 7:0.37528 8:0.37858 9:-0.46491 10:0.27848 11:0.41803 12:-0.67639 13:-0.95358 14:-0.70914 15:0.073372 16:-0.16595 17:-0.88275 18:-0.64934 19:-0.7438 20:-0.075 22:-0.66197 23:0.3659 24:0.64921 25:-0.51662 26:-0.7769 27:-0.97102 28:-0.90824 29:-0.90351 30:0.29141 31:-0.0008738 32:0.30272 33:0.050284 34:-0.72823 35:-1 36:-0.3659 
-683.54306469439098 1:0.062275 2:-0.81302 3:0.63966 4:0.58442 5:-0.22333 6:0.5643 7:0.4326 8:0.62953 9:0.5917 10:0.43338 11:0.46822 12:-0.9443 13:-0.90256 14:-0.9897 15:0.68215 16:0.11975 17:0.34401 18:-0.85262 19:0.070211 20:0.2625 21:0.26 22:0.47887 23:0.15103 24:0.92335 25:0.9696 26:-0.97667 27:-0.92764 28:-0.75645 29:-0.88082 30:-0.6655 31:-0.86144 32:0.61721 33:0.47583 34:0.65738 35:-0.98205 36:-0.15103 
-2048 1:-0.89163 2:-0.90331 3:0.45543 4:0.67915 5:-0.57593 6:0.72569 7:-0.053598 8:0.42964 9:0.66917 10:0.6884 11:0.28339 12:-1 13:-0.853 14:-0.96268 15:-0.93888 16:-1 17:-1 18:-0.99999 19:-0.17418 20:-0.8625 21:-0.13 22:0.3662 23:-0.059636 24:0.40909 25:-0.91361 26:-0.42609 27:-0.91147 28:-0.98283 29:-0.90301 30:-0.83918 31:-0.96895 32:-0.28419 33:-0.92979 34:-0.98699 35:-0.24781 36:0.059636 
