svm_type c_svc
kernel_type rbf
gamma 0.5
nr_class 3
total_sv 67
rho 0.31443023681640625 0 0
label 1 10 1000
nr_sv 33 33 1
SV
128 0 1:-1 
128 0 1:-1 
128 0 1:-1 
128 0 1:-1 
128 0 1:-1 
128 0 1:-1 
128 0 1:-1 
128 0 1:-1 
128 0 1:-1 
128 0 1:-1 
128 0 1:-1 
128 0 1:-1 
128 0 1:-1 
128 0 1:-1 
128 0 1:-1 
128 0 1:-1 
128 0 1:-1 
128 0 1:-1 
128 0 1:-1 
128 0 1:-1 
128 0 1:-1 
128 0 1:-1 
128 0 1:-1 
128 0 1:-1 
128 0 1:-1 
128 0 1:-1 
128 0 1:-1 
128 0 1:-1 
128 0 1:-1 
128 0 1:-1 
128 0 1:-1 
128 0 1:-1 
128 1.1565176404152249 1:-1 
-128 0 1:-0.981982 
-128 0 1:-0.981982 
-128 0 1:-0.981982 
-128 0 1:-0.981982 
-128 0 1:-0.981982 
-128 0 1:-0.981982 
-128 0 1:-0.981982 
-128 0 1:-0.981982 
-128 0 1:-0.981982 
-128 0 1:-0.981982 
-128 0 1:-0.981982 
-128 0 1:-0.981982 
-128 0 1:-0.981982 
-128 0 1:-0.981982 
-128 0 1:-0.981982 
-128 0 1:-0.981982 
-128 0 1:-0.981982 
-128 0 1:-0.981982 
-128 0 1:-0.981982 
-128 0 1:-0.981982 
-128 0 1:-0.981982 
-128 0 1:-0.981982 
-128 0 1:-0.981982 
-128 0 1:-0.981982 
-128 0 1:-0.981982 
-128 0 1:-0.981982 
-128 0 1:-0.981982 
-128 0 1:-0.981982 
-128 0 1:-0.981982 
-128 0 1:-0.981982 
-128 0 1:-0.981982 
-128 0 1:-0.981982 
-128 1.1631672177288472 1:-0.981982 
-1.1565176404152249 -1.1631672177288472 1:1 
