svm_type c_svc
kernel_type rbf
gamma 0.0078125
nr_class 3
total_sv 8
rho -1.0004481839913857 -0.99965170677751303 0
label 0 -1 1
nr_sv 6 1 1
SV
0.015172393728543232 0 1:-1 2:-0.84399 3:0.019534 4:-0.99588 5:-0.825 6:-1 7:0.95135 8:-1 9:-0.99754 10:-0.99801 11:0.621 12:-0.88674 13:0.32338 14:-0.36604 15:0.39241 16:-0.38751 17:-0.99091 18:0.64129 19:-0.98777 20:-0.99979 21:-0.97847 22:-0.91482 23:-0.99444 24:-0.98961 25:-0.98499 26:0.91681 27:0.97109 28:0.84331 29:-0.73314 30:-0.25336 31:0.91279 
0 0.028264022283880353 1:-1 2:-0.88153 3:-0.11697 4:-0.99731 5:-0.85 6:-0.99914 7:0.46235 8:-0.99988 9:-0.99998 10:-0.95093 11:-0.21151 12:-0.85457 13:-0.52239 14:-0.88375 15:-0.58228 16:-0.99043 17:-0.59478 18:0.093618 19:0.23861 20:-0.81016 21:-0.95956 22:-0.88051 23:-0.97539 24:-0.98867 25:-0.91354 26:0.64788 27:0.50858 28:0.72387 29:-0.94223 30:-0.24112 31:0.80176 
0.0012165885314220047 0 1:-1 2:-0.75382 3:0.59471 4:-0.99989 5:-0.6875 6:-0.90583 7:0.8468 8:-0.9996 9:-0.99967 10:-0.77984 11:0.8078 12:-0.98584 13:-0.064677 14:-0.95884 15:0.27848 16:-0.96639 17:-0.90673 18:0.74793 19:-0.90698 20:-0.83756 21:-0.96442 22:-0.65193 23:-0.92451 24:-0.76557 25:-0.81096 26:0.80101 27:-1 28:0.39504 29:-0.91105 30:-0.093311 31:0.85159 
0.010370987484516266 0 1:-0.9982 2:-0.51195 3:0.56638 4:-0.9999 5:-0.4 6:-1 7:0.77537 8:-1 9:-1 10:0.79509 11:0.80939 12:-0.92535 13:-0.29353 14:-0.99797 15:-0.21519 16:-1 17:-0.82169 18:0.9209 19:-1 20:-0.97688 21:-0.99986 22:-0.83745 23:-0.40186 24:-0.99491 25:-0.83746 26:0.93223 27:0.62858 28:0.89645 29:-0.10539 30:-0.09877 31:0.70323 
0.0044900302555184969 0 1:-0.9982 2:1 3:0.87141 4:0.23565 5:1 6:-0.025266 7:-1 8:0.41371 9:-0.85521 10:-0.95027 11:0.76694 12:-1 13:1 14:0.30916 15:0.18987 16:-0.18555 17:-0.96141 18:0.48156 19:0.29654 20:-0.49798 21:0.46706 22:-0.96793 23:-0.64179 24:-0.90661 25:-0.86579 26:1 27:0.82848 28:0.69002 29:-0.99275 30:-0.10695 31:0.83063 
0 0.0029859777161196483 1:-0.9982 2:0.65067 3:0.98598 4:0.17672 5:0.775 6:0.25916 7:0.52241 8:0.47604 9:0.16859 10:-0.88462 11:0.26415 12:-1 13:0.69154 14:0.24193 15:1 16:0.3257 17:-0.59964 18:-0.27601 19:-0.99448 20:-0.80142 21:0.38673 22:-0.73428 23:-0.83728 24:-0.99266 25:-0.77018 26:0.41538 27:0.60633 28:-1 29:-0.78584 30:0.17602 31:0.63004 
-0.03125 0.03125 1:-1 2:-0.021537 3:0.92309 4:-1 5:0.1 6:-1 7:0.91683 8:-1 9:-1 10:-0.99403 11:0.86235 12:-1 13:0.084577 14:-0.99429 15:0.26582 16:-0.99433 17:-0.95984 18:1 19:-0.96412 20:-0.95821 21:-0.99361 22:-0.93461 23:-0.97343 24:-0.99201 25:-0.92878 26:0.92998 27:0.80835 28:1 29:-0.59125 30:-0.12956 31:0.93243 
-0.03125 -0.03125 1:-1 2:-0.62605 3:0.42234 4:-1 5:-0.5625 6:-1 7:0.73898 8:-1 9:-0.99746 10:-0.95093 11:-0.30119 12:-1 13:-0.69154 14:-1 15:-0.8481 16:-0.99067 17:-0.5409 18:-1 19:-0.95936 20:-0.65436 21:-1 22:-0.96194 23:-0.60904 24:-0.99985 25:-1 26:0.69843 27:0.78134 28:0.89619 29:-0.98139 30:0.21476 31:0.87879 
