svm_type c_svc
kernel_type rbf
gamma 3.0517578125e-05
nr_class 2
total_sv 41
rho -6.2317807718851155
label 1 10
nr_sv 22 19
SV
30297.93184972143 1:-0.6699 2:0.28731 3:-0.19367 4:0.2039 5:0.66152 6:0.29327 7:0.22869 8:0.30573 9:-0.95159 10:-0.95503 11:-0.89961 12:-0.99681 13:-1 14:0.34367 15:0.44466 16:0.16368 17:-0.575 18:-0.46 19:0.56338 20:0.61231 21:-0.084904 22:0.68095 23:-0.96175 24:-0.64982 25:1 26:-0.93498 27:-0.65914 28:0.22947 29:0.6183 30:-0.90739 31:-0.9977 32:0.64292 33:-0.90891 34:0.084904 
9376.0954912599773 1:-0.91634 2:0.79723 3:-0.22641 4:0.66117 5:0.92602 6:0.13249 7:0.40793 8:-0.037262 9:-1 10:-0.91006 11:-1 12:-0.99463 13:-0.071198 14:-0.95114 15:-0.9633 16:-0.47325 17:-0.9 18:-0.67 19:0.29577 20:0.56685 21:0.14548 22:0.73333 23:-0.89035 24:-0.56366 25:-0.46271 26:-0.79007 27:0.47942 28:-0.91206 29:-0.93862 30:-0.87428 31:0.037748 32:0.27281 33:-0.088824 34:-0.14548 
16643.011477364915 1:-0.86312 2:0.21704 3:0.53811 4:0.56189 5:0.42043 6:-0.023318 7:0.42609 8:0.46204 9:-0.99005 10:-0.6308 11:-0.91634 12:-0.99729 13:-0.9996 14:-0.99942 15:-0.99917 16:-0.64227 17:-0.825 18:-0.41 19:-0.19718 20:-1 21:0.56253 22:0.93333 23:-0.7519 24:-0.84417 25:-0.78428 26:-1 27:-0.41582 28:-0.66968 29:-0.92872 30:-0.83018 31:-0.97493 32:-0.97687 33:-0.009454 34:-0.56253 
27241.297695065237 1:-0.45895 2:-0.023889 3:-0.70463 4:0.58847 5:-1 6:0.52037 7:0.46879 8:0.7437 9:-1 10:-0.85348 11:-0.99743 12:-0.52326 13:-0.62681 14:-0.73622 15:-0.95097 16:0.22484 17:-0.35 18:0.03 19:-0.084507 20:0.84228 21:-0.20705 22:1 23:-0.8945 24:-0.51136 25:-0.99466 26:-0.97121 27:-0.89667 28:-0.52407 29:-0.96737 30:-0.052866 31:-0.21342 32:-0.41848 33:0.42402 34:0.20705 
9720.0247654063387 1:-0.95769 2:0.83328 3:0.55667 4:-1 5:0.35335 6:-0.051513 7:0.38979 8:0.63096 9:-0.84085 10:-0.50798 11:-0.95495 12:-0.99994 13:0.89901 14:-0.95372 15:-0.99936 16:-0.61597 17:-0.95 18:-0.71 19:-0.30986 20:0.7744 21:0.44771 22:0.7619 23:-0.63306 24:-0.40533 25:-0.30214 26:-0.65425 27:-0.31505 28:0.030224 29:0.30954 30:-0.85937 31:0.73643 32:-0.58875 33:-0.42851 34:-0.44771 
13788.291078203245 1:0.93987 2:0.94752 3:0.78478 4:1 5:0.97509 6:1 7:0.91846 8:1 9:-0.92374 10:-0.96373 11:-0.90862 12:0.37489 13:0.5335 14:-0.62987 15:0.30829 16:0.18063 17:0.9375 18:0.9 19:0.95775 20:0.9811 21:0.67867 22:0.8198 23:-0.87272 24:-0.61406 25:-0.89046 26:-0.99742 27:-0.6256 28:-1 29:-0.46751 30:0.30244 31:0.38923 32:0.09976 33:-0.11982 34:-0.67867 
32768 1:0.35095 2:0.86304 3:0.011288 4:0.30494 5:0.45979 6:0.95795 7:-1 8:-1 9:-0.94231 10:-0.81069 11:-1 12:0.51658 13:-0.99938 14:-0.99936 15:-0.99763 16:-0.20757 17:0.4375 18:0.22 19:0.49296 20:0.91453 21:-0.015592 22:0.82559 23:-0.94877 24:-0.7652 25:-0.97395 26:-0.98451 27:-0.76465 28:-0.95772 29:-0.6609 30:0.48867 31:-0.95509 32:-0.94548 33:-0.40982 34:0.015592 
7797.339987563375 1:-0.80273 2:0.59711 3:0.34706 4:0.41722 5:0.74328 6:0.17026 7:0.48049 8:0.61252 9:-1 10:-0.98912 11:-0.69755 12:-0.94584 13:0.26484 14:-0.98506 15:-0.8165 16:0.096446 17:-0.75 18:-0.51 19:-0.84507 20:0.8358 21:0.48591 22:1 23:-0.049618 24:-0.97215 25:-0.9127 26:-0.95639 27:-0.43521 28:-0.60981 29:-0.97401 30:-0.67063 31:0.6057 32:-0.93586 33:0.02321 34:-0.48591 
1585.1693897523135 1:-0.98932 2:-1 3:0.36775 4:-1 5:0.53162 6:-1 7:0.51146 8:0.49651 9:-1 10:-0.84381 11:-0.65766 12:-0.99973 13:-0.99891 14:-0.99438 15:0.54038 16:0.61837 17:-0.9875 18:-0.99 19:-0.78873 20:0.66095 21:0.1248 22:0.6613 23:-0.82558 24:-0.87696 25:-0.95517 26:-0.91204 27:-0.19732 28:-1 29:-0.79126 30:-0.99247 31:-0.96039 32:-0.94032 33:0.43118 34:-0.1248 
32768 1:-0.13283 2:0.2895 3:-0.029778 4:0.44335 5:0.42087 6:0.33074 7:0.28077 8:0.52589 9:-0.5431 10:-0.897 11:-0.6036 12:1 13:-0.67901 14:-0.59449 15:-0.4945 16:0.012203 17:0.05 18:0.22 19:-0.16901 20:0.42424 21:-0.19152 22:0.85185 23:-0.010256 24:-0.9616 25:-0.69588 26:-0.97716 27:-0.88601 28:-0.55638 29:0.11166 30:1 31:-0.38897 32:-0.18979 33:-0.24908 34:0.19152 
7305.5155528689902 1:-0.3802 2:0.26709 3:-0.36914 4:0.356 5:0.81809 6:0.54876 7:0.60297 8:0.53269 9:-0.96088 10:1 11:-0.71429 12:-0.4178 13:0.43098 14:-0.9266 15:0.29107 16:-0.2147 17:-0.175 18:0.64 19:0.59155 20:0.84471 21:-0.066392 22:0.88199 23:-0.89526 24:-0.94504 25:-0.88738 26:-0.96807 27:1 28:-0.92764 29:-0.18786 30:0.41828 31:0.43676 32:0.25828 33:-0.13062 34:0.066392 
32768 1:-0.68951 2:0.62147 3:0.37927 4:0.77278 5:0.47747 6:0.43648 7:0.37465 8:0.35062 9:-0.96817 10:-0.92771 11:-0.070785 12:-0.81213 13:-0.99992 14:-0.9975 15:-0.93681 16:-0.8539 17:-0.6375 18:-0.15 19:-0.35211 20:0.94601 21:0.25247 22:0.58419 23:-0.97967 24:-0.9262 25:-1 26:-0.99494 27:-0.87894 28:-0.99821 29:0.51238 30:-0.092559 31:-0.89935 32:-0.80683 33:0.024829 34:-0.25247 
32768 1:-0.89971 2:-1 3:0.34605 4:0.2702 5:0.70203 6:0.082531 7:0.67154 8:-1 9:-0.75265 10:-0.99927 11:-0.9601 12:-0.94402 13:-0.9133 14:-0.63224 15:-0.82903 16:-0.21844 17:-0.875 18:-0.66 19:0.014085 20:-0.21212 21:0.32142 22:0.78578 23:-0.58565 24:-0.52551 25:-0.53966 26:0.69824 27:-0.97493 28:-0.60403 29:0.37067 30:-0.74064 31:-0.73691 32:-0.14757 33:-0.41551 34:-0.32142 
32768 1:-0.94947 2:0.76452 3:-1 4:0.44771 5:0.47103 6:0.74792 7:0.20037 8:0.44858 9:-0.71883 10:-0.97292 11:-0.99356 12:-0.91545 13:-0.94475 14:-0.97722 15:-0.99735 16:-0.62291 17:-0.9375 18:-0.55 19:-0.84507 20:0.47081 21:-0.41391 22:0.69118 23:1 24:-0.84862 25:-0.51042 26:-0.73672 27:-0.8598 28:-0.52843 29:0.39699 30:-0.40221 31:-0.46284 32:-0.83291 33:-0.13101 34:0.41391 
13462.66453547801 1:-0.47217 2:-0.11084 3:0.086064 4:0.64544 5:0.58453 6:0.22187 7:-1 8:0.76835 9:-0.77918 10:-0.88951 11:-0.82625 12:-0.13788 13:-0.67975 14:0.019775 15:-0.43132 16:1 17:-0.325 18:-0.29 19:-0.32394 20:1 21:0.035377 22:0.83333 23:-0.63046 24:-0.9131 25:-0.82842 26:-1 27:-0.94771 28:-0.91252 29:-0.21047 30:0.16501 31:-0.59673 32:0.13735 33:-0.6296 34:-0.035377 
10949.735447130526 1:-0.71988 2:-1 3:0.27128 4:0.49209 5:0.74053 6:0.70184 7:0.71525 8:0.20908 9:-0.99403 10:-0.94101 11:-0.94337 12:-0.9688 13:-1 14:-0.96939 15:0.053945 16:0.31278 17:-0.7 18:-0.66 19:-0.97183 20:0.40211 21:0.19791 22:0.66667 23:-0.0094069 24:-0.71219 25:-0.8789 26:-0.65397 27:-1 28:-0.93015 29:0.2969 30:-0.93745 31:-0.99947 32:-0.90436 33:-0.29458 34:-0.19791 
10985.787798536563 1:-0.79163 2:0.91688 3:0.4429 4:0.67339 5:0.57551 6:0.36359 7:0.56487 8:0.48219 9:-0.93767 10:-0.73694 11:-0.68855 12:-0.97931 13:-0.96824 14:-0.99949 15:-0.99369 16:-0.81937 17:-0.75 18:-0.5 19:-0.50704 20:0.33333 21:0.2925 22:1 23:-0.95341 24:1 25:0.053184 26:-0.90186 27:-0.66227 28:-0.88087 29:0.31175 30:-0.82959 31:-0.81541 32:-0.99459 33:-0.60541 34:-0.2925 
27243.794348711046 1:-0.43559 2:0.13215 3:0.1888 4:0.16688 5:0.44713 6:0.26105 7:0.39497 8:0.37522 9:-0.87865 10:-0.80779 11:-1 12:-0.37861 13:-0.45857 14:-0.58331 15:0.072449 16:0.10795 17:-0.2875 18:-0.11 19:-0.56338 20:0.28571 21:0.32283 22:-0.33333 23:-0.94106 24:-0.60112 25:-0.64193 26:-0.95147 27:-0.63854 28:0.19286 29:0.24954 30:0.058669 31:-0.023233 32:-0.35753 33:-0.31184 34:-0.32283 
7821.5280835270478 1:-0.63901 2:0.59216 3:-0.17875 4:0.39941 5:0.18781 6:0.24728 7:0.51605 8:0.41461 9:-0.87069 10:-0.81746 11:-0.72587 12:-0.61569 13:0.11849 14:-0.92606 15:-0.54383 16:0.045952 17:-0.5625 18:-0.29 19:-0.3662 20:0.85206 21:0.06963 22:0.6982 23:-0.20639 24:-0.51252 25:-0.43127 26:-0.98953 27:-0.38429 28:-0.5661 29:-0.17183 30:-0.077761 31:-0.56367 32:-0.41823 33:0.49857 34:-0.06963 
8114.9462141821841 1:-0.95802 2:-0.23003 3:0.076493 4:-1 5:0.77575 6:0.76349 7:0.57628 8:0.34712 9:-0.46353 10:-0.53216 11:-0.74903 12:-0.99213 13:-1 14:-0.99998 15:-0.35008 16:0.032164 17:-0.95 18:-0.78 19:-0.26761 20:0.66247 21:0.95029 22:0.67113 23:-0.85573 24:-0.99157 25:-0.033675 26:-0.84152 27:-0.58414 28:-0.73545 29:-0.96085 30:-0.79819 31:-0.99555 32:-0.97806 33:-0.26587 34:-0.95029 
9977.2543877021908 1:-0.9053 2:-1 3:0.29219 4:0.56582 5:1 6:0.29194 7:0.66539 8:-1 9:-0.90584 10:-0.73453 11:-0.92921 12:-0.96606 13:-0.79337 14:-0.94507 15:-0.99801 16:0.066748 17:-0.8875 18:-0.48 19:0.40845 20:-1 21:0.249 22:-1 23:-0.23977 24:-0.53819 25:-0.26984 26:-1 27:-0.11435 28:-0.37752 29:0.10265 30:-0.51393 31:0.32638 32:-0.41137 33:0.16645 34:-0.249 
4708.9585747884357 1:-0.99021 2:0.94261 3:0.88914 4:0.86234 5:0.54743 6:-1 7:0.80495 8:0.83616 9:-0.96751 10:-0.96518 11:-1 12:-1 13:0.62643 14:-0.93222 15:-0.034577 16:-0.24375 17:-0.9875 18:-0.95 19:-0.16901 20:0.8922 21:0.8412 22:0.72334 23:-0.87652 24:-0.75275 25:-0.93039 26:-0.96902 27:-0.058536 28:-0.95239 29:-0.58564 30:-0.98772 31:0.63075 32:-0.3348 33:-0.19482 34:-0.8412 
-6526.5959718404538 1:-0.51195 2:0.89645 3:0.94313 4:0.77537 5:0.46221 6:0.56638 7:0.93223 8:0.62858 9:0.79509 10:-0.10566 11:-0.92535 12:-0.99989 13:-1 14:-1 15:-1 16:-0.94689 17:-0.4 18:-0.3 19:-0.12676 20:0.95478 21:0.9209 22:0.70323 23:-0.96593 24:-0.71982 25:0.49835 26:-0.98618 27:-0.80858 28:-0.80784 29:-1 30:-0.99787 31:-0.99986 32:-1 33:-0.15517 34:-0.9209 
-2384.6931706215687 1:-0.36442 2:0.75158 3:0.73879 4:0.61221 5:0.39161 6:0.68277 7:0.62214 8:0.35333 9:-0.74801 10:-0.97389 11:-1 12:-0.99611 13:-0.99479 14:-0.99773 15:0.28097 16:-0.14433 17:-0.225 18:-0.1 19:-0.91549 20:0.95644 21:0.6771 22:0.7421 23:-0.60603 24:-0.4491 25:-0.29398 26:-0.99567 27:0.037007 28:-0.88911 29:-0.49467 30:-0.93505 31:-0.9376 32:-0.91646 33:-0.30555 34:-0.6771 
-22601.653234348178 1:-0.42436 2:-0.46542 3:0.03905 4:0.50797 5:0.92566 6:0.31986 7:0.24656 8:0.16289 9:-0.97944 10:-0.99154 11:-0.9305 12:-0.79201 13:-0.95442 14:-0.97991 15:-0.27122 16:-0.62239 17:-0.3125 18:-0.12 19:-0.6338 20:1 21:0.091552 22:0.7069 23:-0.55656 24:-0.96955 25:-0.94657 26:-1 27:-0.8573 28:-0.90227 29:0.10557 30:-0.49967 31:-0.87466 32:-0.93104 33:-0.95303 34:-0.091552 
-15856.501942193448 1:-0.90712 2:-1 3:0.79835 4:0.42976 5:0.51654 6:0.28722 7:0.5487 8:0.21605 9:-0.98408 10:-0.98235 11:-0.99871 12:-0.95185 13:-0.93323 14:-0.23901 15:0.29033 16:0.0033083 17:-0.8875 18:-0.92 19:0.098592 20:-0.66667 21:0.45661 22:0.72826 23:-0.81608 24:-0.95253 25:-1 26:0.041383 27:0.17053 28:-0.96039 29:0.2981 30:-0.8803 31:-0.89369 32:0.12156 33:1 34:-0.45661 
-10317.137952543248 1:-1 2:0.12933 3:0.5808 4:0.59492 5:0.61109 6:-1 7:-1 8:-1 9:-0.7069 10:-0.88443 11:-0.96396 12:-1 13:-0.99967 14:-0.17514 15:-0.82709 16:0.052153 17:-1 18:-1 19:1 20:0.62234 21:0.55682 22:0.65512 23:0.42847 24:-0.89755 25:-0.91922 26:-0.89786 27:-0.40797 28:-0.91071 29:0.352 30:-0.99078 31:-0.95851 32:0.4208 33:0.12745 34:-0.55682 
-19890.410056072968 1:-0.72317 2:0.25153 3:-0.11106 4:0.40565 5:0.61097 6:0.30357 7:0.25949 8:0.46734 9:-0.91645 10:-0.40522 11:-0.45946 12:-0.96856 13:-0.99785 14:-0.89925 15:-0.95255 16:0.10579 17:-0.6625 18:-0.57 19:-0.97183 20:0.30769 21:-0.10363 23:-0.463 24:0.28308 25:-0.88888 26:0.35888 27:-0.05063 28:-0.73042 29:-0.43921 30:-0.52035 31:-0.68349 32:-0.90266 33:0.17532 34:0.10363 
-32522.786628149239 1:0.26886 2:0.9111 3:0.25254 4:0.72181 5:0.59592 6:0.64572 7:-1 8:-0.04478 9:-0.79642 10:-0.94898 11:-0.78507 12:0.67177 13:0.23085 14:-0.99721 15:-0.99849 16:-0.32538 17:0.425 18:0.39 19:0.084507 20:0.74645 21:0.24061 22:0.81618 23:-0.4679 24:-0.93632 25:-0.80764 26:-0.7418 27:-0.41488 28:-0.93358 29:-0.43495 30:0.60278 31:0.62468 32:-0.88718 33:-0.043509 34:-0.24061 
-8918.4043459719196 1:-0.91396 2:-1 3:0.11569 4:0.57232 5:0.6493 6:0.6347 7:-1 8:0.9513 9:-0.99271 10:-0.87355 11:-0.99743 12:-0.93677 13:-0.82809 14:-0.47783 15:0.4948 16:-0.10163 17:-0.9 18:-0.7 19:0.14085 20:0.90476 21:0.046945 22:0.77462 23:-0.45342 24:-0.82127 25:-0.94793 26:-0.99989 27:-0.86722 28:-0.68505 29:0.21863 30:-0.62494 31:-0.56257 32:0.15127 33:0.028848 34:-0.046945 
-32768 1:-0.59262 2:-0.053858 3:-0.11952 4:0.27567 5:0.4175 6:0.21211 7:0.068417 8:0.5467 9:-0.6943 10:-0.9369 11:-0.84813 12:-0.48779 13:-0.97384 14:-0.94722 15:-0.93078 16:-0.14076 17:-0.475 18:-0.11 19:-0.22535 20:0.16364 21:-0.037853 22:0.66667 23:-0.5309 24:-0.24581 25:-0.15486 26:-0.76879 27:-0.27938 28:-0.14389 29:0.0015246 30:0.42334 31:-0.76123 32:-0.26348 33:-0.50328 34:0.037853 
-19991.243910193243 1:1 2:0.69002 3:0.89755 4:-1 5:0.95865 6:0.87141 7:1 8:0.82848 9:-0.95027 10:-0.99323 11:-1 12:0.38943 13:0.43808 14:-0.85521 15:0.036279 16:-0.99219 17:1 18:1 19:0.32394 20:0.52727 21:0.48156 22:0.83063 23:-0.25392 24:-0.94472 25:-0.10268 26:-0.74614 27:-0.95857 28:-0.84133 29:0.29654 30:0.37591 31:0.46706 32:-0.12399 33:-0.16378 34:-0.48156 
-4790.098072194347 1:-0.67869 2:-1 3:0.031118 4:0.18603 5:0.41616 6:0.1189 7:0.66629 8:-0.033688 9:-0.98873 10:-0.92263 11:-0.23037 12:-0.72774 13:-0.77328 14:1 15:-0.5189 16:0.26337 17:-0.575 18:-0.13 19:0.73239 20:0.5 21:0.09305 22:0.49573 23:-0.85034 24:-0.89433 25:-0.5854 26:-0.93102 27:-0.92628 28:-0.92934 29:-0.45336 30:-0.24173 31:-0.28947 32:1 33:-0.32364 34:-0.09305 
-11697.692638988279 1:-0.94266 2:0.69074 3:0.72612 4:0.3326 5:-1 6:0.44889 7:0.55537 8:-1 9:1 10:-0.68133 11:-0.99871 12:-0.95227 13:-0.99988 14:-0.38873 15:-0.021489 16:-0.42851 17:-0.925 18:-0.73 19:0.056338 20:0.66552 21:0.61801 22:0.89091 23:-0.83655 24:-0.61908 25:-0.80532 26:-0.86358 27:-0.66833 28:-0.83383 29:0.51143 30:-0.70032 31:-0.98727 32:0.11997 33:0.1092 34:-0.61801 
-14117.512154287553 1:-0.71826 2:0.2152 3:0.49181 4:0.30231 5:0.54102 6:0.43822 7:0.34244 8:0.069567 9:-0.95889 10:-0.84188 11:-0.59846 12:-0.66767 13:0.87155 14:0.37022 15:-0.050157 16:-0.69009 17:-0.6375 18:-0.1 19:0.46479 20:0.35323 21:0.57322 22:0.5 23:-0.87178 24:-0.90365 25:-0.62258 26:-0.70831 27:-0.8501 28:-0.95024 29:0.53764 30:-0.041247 31:0.82663 32:0.54403 33:0.40058 34:-0.57322 
-32768 1:-0.55571 2:0.11994 3:0.022368 4:0.31411 5:0.46368 6:0.34057 7:0.11772 8:0.1025 9:-0.87334 10:-0.85324 11:-0.65637 12:-0.76596 13:-0.87356 14:-0.97665 15:-0.82911 16:-0.617 17:-0.425 18:-0.29 19:-0.4507 20:0.53539 21:-0.13265 22:0.58611 23:-0.94932 24:-0.87991 25:-0.78063 26:-0.82124 27:-0.64416 28:-0.66244 29:0.87343 30:-0.34863 31:-0.76878 32:-0.82079 33:-0.79913 34:0.13265 
-32768 1:-0.96093 2:0.31096 3:-1 4:0.70015 5:0.35734 6:0.3511 7:0.57373 8:0.7117 9:-0.95557 10:-0.99952 11:-0.97812 12:-0.98553 13:-0.9423 14:-0.99983 15:-0.99846 16:0.05258 17:-0.95 18:-0.66 19:-0.69014 20:0.80769 21:-0.039599 22:0.56821 23:-0.37314 24:-0.49784 25:-0.51392 26:-0.97239 27:-0.51621 28:-0.38626 29:0.44076 30:-0.75747 31:-0.62365 32:-0.98136 33:-0.10103 34:0.039599 
-32768 1:-0.86374 2:0.25197 3:0.019709 4:0.41112 5:0.85675 6:0.66258 7:0.51287 8:0.53187 9:-0.97016 10:-0.95817 11:-0.61519 12:-0.8906 13:-0.95634 14:-0.96747 15:-0.27601 16:-0.13203 17:-0.825 18:-0.64 19:-0.33803 20:0.62573 21:0.032972 22:0.68106 23:-0.28 24:-0.86207 25:-0.020802 26:-0.85893 27:-0.90335 28:0.58299 29:-0.97497 30:-0.56986 31:-0.76497 32:-0.84955 33:-0.3056 34:-0.032972 
-27332.888241483703 1:-0.45083 2:-0.025297 3:0.09359 4:0.18756 5:0.34454 6:0.044614 7:0.25846 8:-1 9:-0.92374 10:-0.96688 11:-0.49807 12:-0.30878 13:-0.97028 14:0.25557 15:0.15364 16:0.067315 17:-0.3 18:0.04 19:-0.19718 20:0.10873 21:0.096726 22:0.68077 23:-0.81866 24:-0.46239 25:0.15773 26:-0.43426 27:-0.62894 28:-0.49239 29:0.31653 30:0.30797 31:-0.80458 32:0.10289 33:-0.20754 34:-0.096726 
-20071.728358373715 1:0.062275 2:0.63966 3:-0.22333 4:0.5643 5:0.1941 6:0.62953 7:0.43338 8:0.46822 9:-0.9443 10:-0.90256 11:-0.9897 12:0.68215 13:0.11975 14:0.34401 15:-0.85262 16:0.070211 17:0.2625 18:0.26 19:0.47887 21:0.15103 22:0.92335 23:0.9696 24:-0.97667 25:-0.92764 26:-0.75645 27:-0.88082 28:-0.6655 29:-0.86144 30:0.61721 31:0.47583 32:0.65738 33:-0.98205 34:-0.15103 
-32768 1:-0.89163 2:0.45543 3:-0.57593 4:0.72569 5:-0.4018 6:0.42964 7:0.6884 8:0.28339 9:-1 10:-0.853 11:-0.96268 12:-0.93888 13:-1 14:-1 15:-0.99999 16:-0.17418 17:-0.8625 18:-0.13 19:0.3662 20:0.92121 21:-0.059636 22:0.40909 23:-0.91361 24:-0.42609 25:-0.91147 26:-0.98283 27:-0.90301 28:-0.83918 29:-0.96895 30:-0.28419 31:-0.92979 32:-0.98699 33:-0.24781 34:0.059636 
