svm_type c_svc
kernel_type rbf
gamma 0.0078125
nr_class 3
total_sv 7
rho -1.0002518723827329 -0.99956114310771227 0
label 0 -1 1
nr_sv 5 1 1
SV
0 0.018100502309542771 1:-1 2:-0.98946 3:-0.45895 4:-0.023889 5:-0.72496 6:0.58847 7:0.52037 8:-1 9:0.46879 10:0.7437 11:-1 12:-0.85303 13:-0.99743 14:-0.57602 15:-0.63313 16:-0.73622 17:-0.95388 18:-0.35 19:0.29268 20:0.034826 21:-0.17722 22:-0.20705 23:1 24:-0.92884 25:-0.71651 26:-0.99787 27:-0.98941 28:-0.90374 29:-0.59743 30:-0.96737 31:-0.098816 32:-0.21342 33:-0.45935 34:0.56456 35:0.45214 
0.0057933035295387753 0 1:-1 2:-0.61831 3:0.93987 4:0.94752 5:0.66194 6:1 7:1 8:1 9:0.91846 10:1 11:-0.92374 12:-0.96326 13:-0.90862 14:0.22272 15:0.50752 16:-0.62987 17:0.23059 18:0.9375 19:-0.63415 20:0.9005 21:0.75949 22:0.67867 23:0.8198 24:-0.91418 25:-0.77609 26:-0.95627 27:-0.99905 28:-0.65125 29:-1 30:-0.46751 31:0.23925 32:0.38923 33:0.02248 34:0.21389 35:-0.065142 
0.023563115448846074 0 1:-1 2:-0.92141 3:-0.84399 4:0.84331 5:0.621 6:0.95135 7:0.019534 8:0.95071 9:0.91681 10:0.97109 11:-0.99801 12:-0.73314 13:-0.88674 14:-0.99588 15:-1 16:-0.99754 17:-1 18:-0.825 19:0.04878 20:0.32338 21:0.39241 22:0.64129 23:0.91279 24:-0.99979 25:-0.91482 26:-0.99444 27:-0.98961 28:-0.99091 29:-0.98499 30:-0.98777 31:-0.36604 32:-0.97847 33:-0.38751 34:-0.0036183 35:-0.25336 
0 0.013149497690457229 1:-1 2:-0.36058 3:-0.95198 4:0.79519 5:-0.27572 6:0.72873 7:-0.015419 8:0.50828 9:0.42674 10:0.66583 11:-0.93369 12:-0.71139 13:-0.93951 14:-0.99999 15:-0.99979 16:-0.99997 17:-0.99988 18:-0.9375 19:0.45122 20:-0.44279 21:-0.55696 22:-0.0098193 23:0.69276 24:-0.92681 25:-0.39618 26:-0.95554 27:-0.98852 28:-0.15803 29:-0.77966 30:0.42344 31:-0.98265 32:-0.9829 33:-0.99527 34:-0.3257 35:0.17241 
0.0018935810216151525 0 1:-0.9982 2:-0.86427 3:-0.36442 4:0.75158 5:0.61911 6:0.61221 7:0.68277 8:0.63939 9:0.62214 10:0.35333 11:-0.74801 12:-0.97341 13:-1 14:-0.99654 15:-0.99488 16:-0.99773 17:0.20489 18:-0.225 19:-0.84146 20:-0.094527 21:-0.92405 22:0.6771 23:0.7421 24:-0.73481 25:-0.68039 26:-0.71816 27:-0.99841 28:-0.034019 29:-0.9062 30:-0.49467 31:-0.9382 32:-0.9376 33:-0.92233 34:-0.42216 35:-0.24181 
-0.03125 0.03125 1:-1 2:-0.88548 3:-0.021537 4:1 5:0.86235 6:0.91683 7:0.92309 8:0.78136 9:0.92998 10:0.80835 11:-0.99403 12:-0.59125 13:-1 14:-1 15:-1 16:-1 17:-1 18:0.1 19:-0.5 20:0.084577 21:0.26582 22:1 23:0.93243 24:-0.95821 25:-0.93461 26:-0.97343 27:-0.99201 28:-0.95984 29:-0.92878 30:-0.96412 31:-0.99429 32:-0.99361 33:-0.99433 34:-0.076836 35:-0.12956 
-0.03125 -0.03125 1:-1 2:-0.6095 3:-0.62605 4:0.89619 5:-0.30119 6:0.73898 7:0.42234 8:-1 9:0.69843 10:0.78134 11:-0.95093 12:-0.98139 13:-1 14:-1 15:-1 16:-0.99746 17:-1 18:-0.5625 19:1 20:-0.69154 21:-0.8481 22:-1 23:0.87879 24:-0.65436 25:-0.96194 26:-0.60904 27:-0.99985 28:-0.5409 29:-1 30:-0.95936 31:-1 32:-1 33:-0.99067 34:0.60417 35:0.21476 
