svm_type c_svc
kernel_type rbf
gamma 0.00048828125
nr_class 2
total_sv 35
rho -2.1044570126687239
label 1 10000
nr_sv 18 17
SV
917.80171005375064 1:-0.56446 2:-0.72917 3:-0.14359 4:-0.84289 5:0.49282 6:-0.84563 7:-1 8:0.59878 9:-0.85184 
1449.1077646364822 1:-0.15264 2:-0.63001 3:-0.20394 4:-1 5:0.81926 6:-0.28111 7:0.7615 8:-0.99689 9:-0.098242 
2048 1:0.29031 2:-0.40953 3:-0.62696 4:-0.74564 5:0.30413 6:-0.6255 7:-0.84368 8:0.018547 9:-0.68201 
2048 1:0.023692 2:-0.36585 3:-0.36799 4:-0.85204 5:0.26504 6:-0.60824 7:-0.43636 8:-0.65904 9:-0.60004 
2048 1:0.29399 2:-0.14588 3:-0.47711 4:-0.25769 5:-0.063098 6:-0.77915 7:-1 8:-0.35653 9:-0.44503 
399.93136362086886 1:0.21998 2:-0.95755 3:-0.15543 4:-0.99917 5:-0.048897 6:-0.099592 7:-1 8:0.049235 9:0.87577 
2048 1:-0.046455 2:-0.91157 3:-0.41939 4:-1 5:0.79789 6:-0.35409 7:-0.749 8:0.18114 9:-0.99572 
2048 1:0.28621 2:-0.4709 3:0.010144 4:-0.89443 5:1 6:-0.22285 7:-0.99464 8:0.26148 9:-0.93287 
2048 1:-0.40206 2:-0.69458 3:-0.53568 4:-0.82461 5:0.14533 6:-0.64643 7:-1 8:0.21371 9:-0.80659 
2048 1:0.22589 2:-0.62175 3:0.044369 4:-0.99418 5:0.13056 6:-0.97959 7:-1 8:0.35695 9:0.17056 
2048 1:0.61763 2:-0.40071 3:-0.02066 4:-0.85619 5:-0.28458 6:0.1337 7:-0.85261 8:0.25816 9:-0.88067 
2048 1:-0.70438 2:-0.32358 3:-0.495 4:0.00665 5:-0.14705 6:-0.93559 7:-0.85351 8:-0.99299 9:-0.95074 
301.58254069857952 1:0.21591 2:-0.93165 3:-0.38551 4:-0.97589 5:0.97867 6:-0.60741 7:-1 8:0.33305 9:-0.79653 
1689.3357315688884 1:-0.29526 2:0.091098 3:-0.1022 4:-0.97257 5:0.072099 6:-0.098053 7:-0.91782 8:-0.43647 9:-0.064148 
2048 1:-0.5362 2:0.43768 3:-0.57169 4:-0.55528 5:0.23421 6:-0.13971 7:-0.59625 8:0.073864 9:-0.6175 
2048 1:-0.37405 2:-0.43108 3:-0.38028 4:-0.65586 5:0.0030884 6:-0.34959 7:-0.70969 8:-0.46437 9:-0.68569 
2048 1:0.060001 2:-0.63008 3:0.14008 4:-0.31837 5:-0.0094018 6:-0.74841 7:-1 8:-0.37877 9:-0.63936 
137.4061468821296 1:0.011952 2:-0.94811 3:-0.57102 4:-0.39568 5:0.80774 6:-1 7:-1 8:0.37316 9:-0.97615 
-272.99935041281611 1:0.17311 2:-1 3:0.15762 4:-0.62095 5:0.65758 6:0.012579 7:-1 8:-0.18316 9:-0.8197 
-1249.7458123179824 1:0.18846 2:-0.93481 3:0.017707 4:-0.91604 5:-0.0086585 6:-0.20398 7:-0.74274 8:-0.77233 9:-0.46079 
-2048 1:0.11771 2:-0.22469 3:-0.050224 4:-0.58437 5:0.52305 6:-0.13623 7:-0.33631 8:0.16031 9:-0.42537 
-2048 1:-0.50709 2:0.12906 3:-0.078667 4:-0.76309 5:-0.29541 6:-0.14541 7:-0.72577 8:-0.0074458 9:-0.31903 
-2048 1:-0.077393 2:-0.63604 3:-0.036529 4:-0.77057 5:0.38529 6:-0.81203 7:-0.91961 8:-0.0033645 9:-0.099077 
-2048 1:0.11536 2:-0.013016 3:-0.57878 4:-0.89692 5:0.28096 6:-0.25782 7:-0.95266 8:-0.11839 9:-0.9999 
-2048 1:-0.040583 2:-0.8678 3:-0.023305 4:-0.95179 5:-0.025696 6:-0.51248 7:-1 8:-0.070175 9:-0.68229 
-2048 1:-0.032159 2:-0.76281 3:-0.56737 4:-0.40482 5:0.019116 6:-0.82309 7:-0.96606 8:-0.96208 9:-0.8604 
-2048 1:0.15368 2:0.32968 3:-0.90482 4:-0.14464 5:-0.27669 6:-0.46372 7:-0.68111 8:-0.40254 9:-0.54527 
-2048 1:-0.0074187 2:-0.96105 3:-0.328 4:-0.99252 5:0.58748 6:-0.23393 7:0.14962 8:0.38946 9:-0.75461 
-50.046373221231875 1:0.036662 2:0.61164 3:-0.32194 4:-0.50374 5:-0.41272 6:-0.5952 7:-0.99464 8:0.015133 9:-0.84831 
-2048 1:0.36461 2:0.48695 3:-0.32163 4:-0.96758 5:-0.08925 6:-0.87094 7:-0.82314 8:-0.34727 9:-0.60059 
-2048 1:0.013063 2:-0.93974 3:-0.23348 4:-0.93599 5:0.41171 6:-0.56796 7:-1 8:0.24556 9:-0.97743 
-2048 1:-0.074587 2:-0.90042 3:0.037566 4:-0.95927 5:-0.016353 6:-0.65784 7:-0.64984 8:0.015419 9:-0.60126 
-2048 1:0.10027 2:-0.21238 3:-0.13735 4:-0.65919 5:0.52126 6:-0.11587 7:-0.77043 8:-0.39493 9:-0.56109 
-1274.373721508669 1:-0.41047 2:-0.30678 3:-0.63886 4:1 5:0.082341 6:-0.13252 7:-0.9607 8:-0.25306 9:-0.9906 
-2048 1:-0.064467 2:-0.81466 3:0.12411 4:-0.82461 5:0.3425 6:-0.699 7:-0.79812 8:0.17829 9:-0.92582 
