svm_type c_svc
kernel_type rbf
gamma 0.5
nr_class 2
total_sv 33
rho 0.099944458777314171
label 1 2
nr_sv 16 17
SV
2 1:-0.855383 2:-0.953052 3:-0.374388 4:0.413919 5:0.7091 
0.36065654695259397 1:-0.70708 2:-0.342723 3:0.447944 4:-0.797691 5:1 
1.9148431223049907 1:-0.56463 2:-0.943662 3:-0.665203 4:0.379599 5:1 
2 1:-0.0213663 2:0.107981 3:-0.572511 4:0.837169 5:0.48654 
2 1:-0.857375 2:-0.934272 3:-0.302718 4:0.240984 5:0.61706 
2 1:-0.284063 2:-0.746479 3:-0.411118 4:0.542217 5:0.12106 
0.013752990896099904 1:1 2:-0.483568 3:-0.153383 4:0.329773 5:-0.09498 
0.72239146496969908 1:-0.646616 2:-0.643192 3:0.0280293 4:-1 5:0.35412 
2 1:-0.796314 2:-0.605634 3:0.574038 4:0.375199 5:0.54208 
2 1:-1 2:0.239437 3:-0.990269 4:0.536786 5:0.33334 
0.049728229794828008 1:-0.546141 2:-0.830986 3:-0.509965 4:-0.735089 5:0.3764 
2 1:-0.524933 2:-0.173709 3:-0.970921 4:0.795051 5:0.35384 
2 1:-0.400158 2:-0.981221 3:-0.728018 4:0.73606 5:0.61194 
1.3861764570933208 1:-0.0856956 2:-0.953052 3:-0.883918 4:0.208575 5:0.03338 
0.53521731954276941 1:-0.48338 2:-0.774648 3:0.637515 4:0.423508 5:0.55246 
2 1:-0.159865 2:-0.812207 3:0.575183 4:0.511872 5:0.25198 
-0.17718401374294918 1:-0.653263 2:-0.41784 3:1 4:0.157778 5:-0.14286 
-0.22608330885470981 1:-0.820153 2:-0.934272 3:-0.975062 4:0.762551 5:0.4149 
-1.1400078443936783 1:-0.509217 2:0.0328638 3:-0.24901 4:0.500402 5:0.36554 
-2 1:-0.955263 2:-1 3:-0.565748 4:0.48702 5:0.32246 
-0.9506536237043649 1:-0.769686 2:0.605634 3:-0.97836 4:0.663809 5:0.5002 
-2 1:-0.702946 2:-0.399061 3:-0.885553 4:0.550289 5:0.39402 
-0.85109431409216019 1:0.367344 2:0.906103 3:0.298198 4:0.848943 5:0.37968 
-2 1:-0.599552 2:-0.981221 3:-0.735657 4:1 5:0.50178 
-0.81140375201727377 1:-0.981399 2:-0.924883 3:-1 4:0.976634 5:0.89528 
-2 1:-0.690476 2:-0.812207 3:-0.68805 4:0.318576 5:0.24862 
-2 1:-0.589427 2:-0.511737 3:0.721315 4:0.472454 5:0.06596 
-0.56791154201272387 1:-0.638734 2:-0.671362 3:-0.922263 4:0.445599 5:-0.28572 
-2 1:-0.904589 2:-0.43662 3:-0.578182 4:0.389431 5:0.8002 
-2 1:-0.811941 2:-0.746479 3:-0.281893 4:0.589495 5:0.58182 
-1.6421603105370577 1:-0.473387 2:0.126761 3:-0.857797 4:0.247508 5:0.11604 
-0.61626742219938435 1:-0.83102 2:0.192488 3:0.234865 4:0.899983 5:1 
-2 1:-0.348485 2:-0.248826 3:0.834689 4:0.299519 5:0.02222 
